0.09510911256074905
-0.05631294846534729
-0.854789674282074
-0.25302982330322266
-0.05633765831589699
0.052928339689970016
-0.23545853793621063
-0.014284679666161537
-0.24649493396282196
0.02954290062189102
-0.0413266122341156
-0.5263965725898743
-0.15616832673549652
0.2602250277996063
0.008094179444015026
-0.3495265543460846
0.08780255913734436
0.2963161766529083
-0.009979330003261566
0.28941744565963745
0.23384292423725128
0.0049666459672153
0.05032927542924881
-0.20559769868850708
0.01989925652742386
0.1636398285627365
0.04040294140577316
-0.16926336288452148
0.1281372755765915
0.677718460559845
0.840923547744751
-0.05854874476790428
0.20262061059474945
0.12650904059410095
0.05904095619916916
0.21308806538581848
-0.019359702244400978
0.04864418879151344
-0.2374308854341507
0.01927332393825054
-0.23908057808876038
0.10074534267187119
0.22948986291885376
-0.10233521461486816
0.13346286118030548
0.08787082135677338
-0.018335403874516487
-0.5622205138206482
-0.010882742702960968
-0.2899330258369446
-0.27021774649620056
0.023520037531852722
0.01967356540262699
0.06930752098560333
0.42067885398864746
-0.03675384074449539
0.011091428808867931
-0.02042781375348568
0.07510784268379211
0.038360174745321274
0.11517509818077087
0.004114386159926653
0.6156567335128784
0.06027704104781151