-0.003948005381971598
-0.007647283375263214
0.020607098937034607
0.006134251598268747
-0.009646479971706867
0.005980294197797775
-0.0054185278713703156
0.002034650417044759
0.01562316995114088
-0.004768066108226776
0.008126035332679749
-0.002524152398109436
-0.04357907176017761
0.08644237369298935
-0.028944801539182663
0.0008414695621468127
0.030352655798196793
0.052688729017972946
0.017463896423578262
-0.042929768562316895
-0.0019454844295978546
-0.012754607945680618
-0.008279316127300262
0.007434979546815157
-0.0017633402021601796
-0.08292634040117264
-0.03599566966295242
-0.024152789264917374
-0.03785703703761101
-0.04400571435689926
-0.021985812112689018
0.051093704998493195
-0.014406616799533367
0.013696334324777126
0.025962717831134796
-0.03239847347140312
0.09820916503667831
0.08302007615566254
-0.04626920446753502
0.08349426835775375
0.01636531390249729
0.04351526126265526
0.03443377465009689
-0.04531661421060562
0.0018322005635127425
0.05978770926594734
-0.018597817048430443
-0.01877913996577263
-0.009043911471962929
-0.06004616245627403
0.005815011914819479
0.07777766138315201
0.09116162359714508
0.20504069328308105
0.415323406457901
-0.037010762840509415
0.047786641865968704
0.13325324654579163
0.17915865778923035
0.3578583598136902
-0.025915581732988358
0.046636246144771576
0.11968352645635605
0.17840074002742767
0.252160906791687
-0.004680676851421595
0.03741041570901871
0.06256599724292755
0.11529257893562317
0.13340534269809723
0.011017091572284698
0.002048020251095295
-0.017022304236888885
-0.0015716642374172807
0.015358268283307552
-0.01831926591694355
-0.010540630668401718
-0.07067465037107468
-0.15088117122650146
-0.14218805730342865
-0.00876141618937254
-0.04439465329051018
-0.024814462289214134
0.03826306015253067
-0.0532110333442688
0.016783105209469795
-0.09198720008134842
-0.05613831430673599
0.04886574670672417
0.027747614309191704
0.01723809354007244
-0.08305789530277252
-0.08114606142044067
-0.021971501410007477
-0.031680915504693985
0.006846599280834198
-0.001301068696193397
0.03327081352472305
-0.008030657656490803
-0.01521162036806345
0.08784853667020798
0.04621945321559906
0.05976374074816704
-0.025406863540410995
-0.06478653103113174
0.09502638876438141
0.1259324550628662
0.16463857889175415
0.04836975783109665
-0.06382347643375397
0.09907029569149017
0.14196211099624634
0.1224837377667427
0.14716902375221252
0.029342923313379288
0.04043925926089287
0.1311296969652176
0.1275504231452942
0.13610032200813293
0.05085799843072891
-0.028843119740486145
0.05075940489768982
0.05731453374028206
0.06121310591697693
0.04146510735154152
0.0074181887321174145
-0.021753838285803795
-0.008027279749512672
0.013263370841741562
0.013504480943083763
0.07517950236797333
-0.04331981763243675
-0.06087804213166237
-0.01591242477297783
0.009422912262380123
0.2100580632686615
0.10444427281618118
-0.016375083476305008
-0.03225332498550415
-0.018374145030975342
0.30496352910995483
0.27994194626808167
0.10014544427394867
-0.023004405200481415
-0.006365513429045677
0.3425540328025818
0.28751564025878906
0.15975089371204376
0.0004310017975512892
-0.0026875787880271673
-0.002398293698206544
0.00046639537322334945
-0.006067607086151838
0.0027854666113853455
-0.0028164121322333813
0.01724657416343689
0.024927286431193352
0.03420735523104668
0.026608867570757866
0.0005304146907292306
-0.02048586495220661
-0.0749463140964508
-0.040712930262088776
-0.00791201088577509
0.002828296273946762
0.04809253290295601
-0.1247188150882721
-0.09625227004289627
-0.02208269014954567
-0.002562769455835223
0.1575719118118286
0.03642323240637779
-0.008974716998636723
0.037237975746393204
0.01260565035045147
-0.20460118353366852
-0.12610507011413574
-0.10717906057834625
-0.11026658862829208
0.010091128759086132
-0.2714671492576599
-0.19277429580688477
-0.11302633583545685
-0.09067375957965851
-0.0027938345447182655
-0.3108879327774048
-0.22569137811660767
-0.12197322398424149
-0.05611306056380272
-0.018214203417301178
-0.19163577258586884
-0.1385657638311386
-0.09141161292791367
-0.05693349242210388
-0.011354335583746433
-0.021516870707273483
-0.008719071745872498
-0.016560643911361694
-0.03691787272691727
-0.0184792410582304
0.0052999043837189674
0.017234012484550476
0.04755207896232605
0.035350166261196136
0.011857069097459316
-0.01016269437968731
-0.02281191386282444
-0.02966183051466942
-0.0353018082678318
-0.012553419917821884
-0.007271333131939173
-0.03744327649474144
-0.005906589329242706
0.0019334867829456925
-0.0426754355430603
0.0020578233525156975
0.005687328055500984
0.012591184116899967
0.0539347343146801
-0.0012300197267904878
0.00497085927054286
0.003617818932980299
-0.007378827780485153
0.01041651051491499
0.005577008239924908
-0.037778958678245544
-0.030614284798502922
-0.016932113096117973
-0.03543794900178909
0.013182620517909527
0.0028251975309103727
0.032448187470436096
0.0673760250210762
-0.030242186039686203
-0.0027270272839814425
0.02790886163711548
-0.03550759330391884
-0.07265546917915344
0.053217921406030655
-0.01991332322359085
0.027876775711774826
0.06611207127571106
-0.016393886879086494
0.06678939610719681
-0.03172966092824936
0.010990602895617485
0.031003780663013458
0.011583548039197922
0.006398883648216724
-0.020690588280558586
-0.024824436753988266
0.05122911557555199
0.054674144834280014
-0.020206667482852936
-0.024847639724612236
-0.02552120015025139
-0.11159006506204605
-0.03827313333749771
-0.015031369403004646
0.002447916893288493
0.0013100007781758904
-0.056531570851802826
0.034570302814245224
-0.0011780628701671958
0.06483825296163559
0.004869141150265932
-0.0445588119328022
0.0010279793059453368
0.0033472441136837006
0.10760832577943802
0.0009164633811451495
-0.022677864879369736
-0.01696249097585678
-0.02870354987680912
0.10514659434556961
0.030331486836075783
0.03762366995215416
0.06171970069408417
0.06806758046150208
0.049251772463321686
-0.030165251344442368
-0.03945612907409668
-0.06010982021689415
-0.06998658925294876
-0.06170380488038063
-0.05453922972083092
-0.07524457573890686
-0.0789104700088501
-0.049597855657339096
-0.017827335745096207
0.05068246275186539
0.06600572168827057
0.06182718649506569
0.03326724097132683
0.02826116420328617
0.030650410801172256
0.017299752682447433
0.010287799872457981
0.002186625264585018
0.011085744015872478
0.035114794969558716
0.04424649849534035
0.03883092477917671
0.015920445322990417
0.016142986714839935
-0.024442465975880623
-0.03785499930381775
-0.03204980865120888
0.016057133674621582
0.024967964738607407
-0.030689116567373276
-0.09718480706214905
-0.18499994277954102
-0.011523173190653324
-0.002622219966724515
0.024005765095353127
0.04615194350481033
-0.058551348745822906
0.02805931866168976
0.007751500234007835
0.03178298473358154
0.06269101053476334
0.023694030940532684
0.03228430449962616
0.010478666052222252
-0.007475158199667931
0.03274713456630707
0.05362233892083168
-0.010749675333499908
0.0057286107912659645
-0.013847827911376953
0.026931727305054665
0.0216956976801157
-0.0591246522963047
0.0020110781770199537
-0.01616947539150715
-0.03825543448328972
-0.027096062898635864
-0.0665326938033104
-0.0005113400402478874
-0.039357587695121765
-0.005102331284433603
0.0879468023777008
-0.02669842541217804
-0.03132852911949158
-0.030282070860266685
0.04672182351350784
0.12753531336784363
0.019647149369120598
-0.038504708558321
-0.007819519378244877
-0.010434268042445183
-0.009617029689252377
0.01126953586935997
0.015001012943685055
0.006355039309710264
0.02193652279675007
-0.02901480160653591
-0.043512098491191864
0.01328798197209835
0.005123277194797993
0.04588037356734276
0.020705875009298325
-0.0420721061527729
0.04987727478146553
-0.005955505184829235
-0.0027198807802051306
-0.025466149672865868
-0.04795772209763527
0.06692149490118027
0.0007283196900971234
0.0018600939074531198
-0.013310699723660946
-0.0371275469660759
0.01668957620859146
0.01003278512507677
0.06512343138456345
0.18441623449325562
0.32874950766563416
0.4093312919139862
0.008012901060283184
0.013156584464013577
0.09286058694124222
0.27265816926956177
0.35415539145469666
-0.0024971358943730593
-0.0108713423833251
0.03529469296336174
0.1235015019774437
0.2338368147611618
-0.006176818162202835
-0.009752039797604084
0.012647690251469612
0.028070824220776558
0.09472925961017609
-0.0006497178692370653
-0.010938986204564571
-0.008279072120785713
-0.01812126301229
0.010580894537270069
-0.005930057726800442
-0.05427047237753868
-0.0791739672422409
0.00454546045511961
0.004210479091852903
0.053557004779577255
0.023851696401834488
-0.022557256743311882
-0.011360392905771732
0.007475343067198992
0.0717674046754837
-0.03486671671271324
0.053541213274002075
0.03819888457655907
0.01429325807839632
0.023455876857042313
-0.053824055939912796
0.049338508397340775
0.04429691657423973
-0.04415564611554146
-0.027088049799203873
-0.03064878284931183
0.004755875561386347
-0.013446657918393612
-0.04520360380411148
-0.04042547196149826
-0.04321502894163132
-0.07116211205720901
-0.030425971373915672
-0.008518124930560589
-0.0318017341196537
0.029181988909840584
0.013274168595671654
0.041082337498664856
0.03755765035748482
-0.05150548368692398
-0.05445221811532974
-0.0456605926156044
0.04476213827729225
0.03907207399606705
-0.08290712535381317
-0.10757658630609512
-0.023224856704473495
0.05139715224504471
0.046065956354141235
-0.044389236718416214
0.009298006072640419
0.12196775525808334
0.1546764075756073
0.09307435154914856
-0.010540243238210678
-0.0001766903151292354
0.04213276132941246
-0.021027274429798126
-0.030576884746551514
-0.03519659489393234
0.059231679886579514
0.07915705442428589
-0.06708017736673355
-0.014643464237451553
-0.07881210744380951
0.0644535943865776
0.03997780382633209
-0.04425564780831337
-0.006579599343240261
-0.02828863076865673
0.042153846472501755
-0.0013263634173199534
0.000773831270635128
-0.00017384406237397343
0.009845647029578686
-0.01769578643143177
-0.012810949236154556
0.005091088358312845
0.015134014189243317
0.021934248507022858
-0.016047008335590363
-0.06881044059991837
0.027603482827544212
-0.024939484894275665
0.1444971114397049
-0.0778229683637619
-0.037733692675828934
0.03510662540793419
0.041532281786203384
0.09603901952505112
-0.07817602157592773
-0.03632226213812828
0.05309232324361801
0.012076223269104958
0.03266489505767822
-0.014247661456465721
-0.01835837960243225
0.013573524542152882
0.009842290543019772
-0.051510490477085114
-0.03725866600871086
0.0409197136759758
-0.02937207743525505
-0.024131976068019867
0.013362225145101547
-0.03793156519532204
-0.06744644045829773
-0.001815828145481646
-0.003355407388880849
-0.020505527034401894
-0.021714115515351295
0.01317326258867979
0.04927907511591911
-0.02624467760324478
-0.07315269857645035
0.04931618273258209
0.14898613095283508
0.07531863451004028
-0.030162757262587547
-0.07246576249599457
-0.0247203279286623
0.024240678176283836
-0.02538180723786354
-0.021988803520798683
-0.0074052512645721436
0.006401633843779564
0.017532464116811752
-0.012815391644835472
-0.0024659319315105677
0.3651740550994873
0.266095370054245
0.11255846172571182
0.04650934413075447
-0.02421913854777813
0.38024768233299255
0.24369631707668304
0.06034093350172043
0.018786145374178886
-1.1550730960152578e-05
0.3381635248661041
0.23493711650371552
0.028582869097590446
-0.012439928948879242
0.00781840831041336
0.16894976794719696
0.11765125393867493
-0.010923248715698719
-0.03507031127810478
-0.012279132381081581
0.0035335286520421505
-0.011726290918886662
-0.021350277587771416
-0.03114726021885872
-0.0315999798476696
0.0084570636972785
0.051263343542814255
0.04251900687813759
-0.016700446605682373
0.015285544097423553
-0.033213336020708084
0.0803459882736206
0.10442421585321426
-0.030501551926136017
-0.015208826400339603
-0.014797393232584
0.02157667465507984
0.08693788200616837
0.0013035242445766926
-0.11603879928588867
0.0034392669331282377
-0.05989524722099304
-0.018635788932442665
-0.0037417795974761248
-0.0848131850361824
0.009983105584979057
-0.027201125398278236
-0.01895267516374588
0.015573791228234768
-0.01585668884217739
0.0029652859084308147
-0.014844318851828575
-0.04299218952655792
0.02168945223093033
0.11181403696537018
0.012703806161880493
0.004443364217877388
-0.10085321217775345
-0.14791248738765717
0.035417575389146805
-0.012276007793843746
0.06124226003885269
-0.028864718973636627
-0.1471119374036789
-0.036724530160427094
-0.022596918046474457
0.056475818157196045
0.049469828605651855
-0.02561158873140812
0.014333443716168404
-0.010738831013441086
-0.01313840877264738
-0.016037490218877792
0.0019629914313554764
0.010460101999342442
-0.00800066627562046
-0.08965840190649033
0.06255561858415604
0.1401345282793045
-0.05105186998844147
-0.0012622952926903963
-0.04087784141302109
0.007775533478707075
0.07058245688676834
-0.06023441627621651
0.014673067256808281
0.01373011153191328
-0.0469454824924469
-0.009032371453940868
-0.08005955070257187
0.013407316990196705
0.0504370778799057
-0.003655761945992708
-0.03835523873567581
-0.022786706686019897
-0.01054450124502182
0.039399951696395874
-0.0006550273392349482
0.0010331962257623672
0.012518196366727352
0.0012284518452361226
-0.005919033661484718
0.024595819413661957
0.03231636807322502
0.000794207735452801
0.016872523352503777
-0.07330925017595291
-0.026319636031985283
0.0016936251195147634
0.0036578832659870386
-0.016882171854376793
0.05870116129517555
0.00397801399230957
0.019679240882396698
-0.02794361487030983
-0.057608433067798615
0.09380289912223816
0.05303163826465607
0.015517421998083591
0.012494873255491257
-0.06119522452354431
-0.0026347958482801914
0.011651718057692051
-0.04747562110424042
0.00782980676740408
-0.16761009395122528
-0.12984073162078857
-0.06740066409111023
-0.035781800746917725
0.004475504159927368
0.04557295888662338
0.18035012483596802
0.12380753457546234
-0.013051585294306278
0.0016421786276623607
0.21882644295692444
0.1535339504480362
0.045119479298591614
-0.03971417620778084
0.003771241055801511
0.10355379432439804
-0.13229134678840637
-0.10234644263982773
-0.020848030224442482
-0.0028825311455875635
-0.0007287139305844903
-0.1250307410955429
-0.11180493980646133
0.040981605648994446
0.007430950179696083
0.001362427370622754
-0.014571134932339191
-0.015511511825025082
0.0008465475984849036
0.0006635236204601824
0.0050202528946101665
0.012148757465183735
-0.004205795936286449
-0.015377812087535858
-0.010107073932886124
-0.022730020806193352
0.0305800661444664
0.05116555839776993
0.020304903388023376
-0.003492967924103141
-0.0399230495095253
0.012591628357768059
0.010131169110536575
0.0023709486704319715
0.022607237100601196
-0.009885787032544613
0.017461979761719704
0.000458897469798103
-0.07123011350631714
-0.026147745549678802
-0.020580334588885307
0.002043103100731969
0.0016833647387102246
-0.026339838281273842
-0.037218865007162094
-0.05361505597829819
0.03528037667274475
0.028824666514992714
-0.023210998624563217
-0.019319331273436546
-0.04158427566289902
0.010750732384622097
0.07394548505544662
0.03189418837428093
0.0031324499286711216
0.06476879864931107
0.027845684438943863
-0.008003436028957367
0.06339123100042343
-0.011145899072289467
0.053351182490587234
-0.03133813291788101
-0.1123858094215393
-0.001093562925234437
-0.02148488536477089
0.05109206214547157
0.0017948439344763756
-0.06247952952980995
0.022333787754178047
-0.0172459464520216
0.09098495543003082
0.04132744297385216
-0.08862973749637604
0.06396586447954178
0.062428656965494156
-0.001668451470322907
0.07360253483057022
0.0033287620171904564
-0.07112190872430801
0.05475277081131935
-0.048073653131723404
-0.026883870363235474
-0.040777772665023804
-0.12740562856197357
-0.001570474705658853
0.0007391570252366364
-0.011327092535793781
0.03652835264801979
0.007173603866249323
-0.01658281497657299
0.013014850206673145
-0.042208265513181686
-0.04759806767106056
0.016113117337226868
0.0375257283449173
-0.04322825372219086
-0.1489417552947998
-0.14124447107315063
0.0015340185491368175
0.009933487512171268
-0.026515839621424675
-0.11803345382213593
-0.06334271281957626
-0.029805297031998634
0.0024411806371062994
-0.01083488017320633
0.005900178570300341
-0.04133792966604233
-0.008347969502210617
0.009647447615861893
-0.09475351870059967
-0.07215141505002975
-0.11549682170152664
-0.05496056377887726
0.019027642905712128
0.056787025183439255
0.04765539616346359
0.06766530126333237
0.039677053689956665
0.044747933745384216
0.04672292247414589
0.0413183756172657
0.04760418459773064
-0.06576976925134659
-0.05883844941854477
0.05347884073853493
0.04306803271174431
0.04028996825218201
-0.046102769672870636
-0.054281085729599
0.01952584646642208
-0.020671695470809937
0.0008817826164886355
-0.03437121957540512
-0.011318203061819077
-0.010568748228251934
-0.05617101863026619
-0.09189000725746155
-0.07742759585380554
-0.029562031850218773
-0.0006315357168205082
-0.006221742369234562
0.01680743508040905
0.0061697764322161674
-0.0059304372407495975
0.005195961333811283
-0.008507834747433662
-0.0019174820045009255
0.014907791279256344
-0.0035327123478055
0.009793104603886604
-0.004256755113601685
-0.0397624671459198
0.08582093566656113
-0.027036800980567932
0.004798571579158306
0.035413820296525955
0.05115159973502159
0.012851187027990818
-0.044252168387174606
-0.0024313556496053934
-0.014303081668913364
-0.00895020179450512
0.005225493106991053
0.0012121415929868817
-0.011810447089374065
0.03275769576430321
0.015715623274445534
-0.03555440902709961
-0.05938500165939331
0.05334467440843582
0.1319519430398941
0.048451315611600876
0.0386185348033905
0.024813301861286163
0.03342674300074577
0.1861182004213333
0.16144254803657532
0.013174888677895069
0.12345527112483978
0.04965532571077347
0.11427277326583862
0.11148630082607269
0.03380872309207916
0.07811745256185532
0.05094654858112335
0.017942948266863823
0.0493677482008934
0.09507855772972107
0.05514960736036301
-0.015256082639098167
-0.04006826505064964
-0.13501925766468048
-0.1766286939382553
-0.09752064198255539
-0.03192857280373573
-0.022614844143390656
-0.04821866750717163
-0.11101328581571579
0.006651244591921568
-0.011441262438893318
0.006737466435879469
0.002004186389967799
-0.00269566522911191
0.054611947387456894
0.00782610010355711
0.03316400945186615
0.022798758000135422
0.0442856140434742
0.05118458718061447
0.005109231919050217
0.019064683467149734
0.004250208847224712
0.02080843783915043
0.005967859644442797
0.002080279402434826
0.05313526466488838
0.06735605746507645
0.09089548140764236
0.16185826063156128
-0.013873498886823654
0.005713092163205147
0.09278783947229385
0.2210998833179474
0.16912712156772614
-0.0041220178827643394
-0.08023358881473541
0.010010863654315472
0.15159986913204193
0.14120346307754517
0.0014557462418451905
-0.10108992457389832
-0.07593511790037155
-0.012066341005265713
0.0019474780419841409
0.019390134140849113
-0.007490195799618959
0.02586633525788784
-0.024307722225785255
-0.011630263179540634
-0.030585167929530144
-0.04405020549893379
0.017359143123030663
-0.0034694650676101446
0.010833046399056911
-0.009984035044908524
-0.03398437798023224
0.0321054570376873
-0.011804516427218914
-0.04457717016339302
0.02745567075908184
-0.014041008427739143
-0.04677239805459976
0.036022547632455826
0.00248937145806849
0.03281392157077789
0.0425979383289814
-0.015511838719248772
0.001046273042447865
-0.025700516998767853
0.021961422637104988
0.041885413229465485
-0.0015948956133797765
-0.039130501449108124
-0.06891709566116333
-0.0027997398283332586
-0.01420588232576847
0.006639158818870783
0.02383919060230255
-0.004690376576036215
-0.011107075028121471
-0.0746295154094696
-0.048120807856321335
0.016430221498012543
0.02204366959631443
0.015582541935145855
-0.012321103364229202
-0.04628194496035576
-0.014910973608493805
0.0004838177701458335
-0.012032886035740376
0.0618998222053051
0.002049956703558564
-0.03957398980855942
0.0075064003467559814
-0.0650966688990593
-0.005017634481191635
-0.0065678078681230545
-0.06076166033744812
-0.013776524923741817
-0.006518966518342495
-0.002887156791985035
-0.007228443864732981
-0.0060394094325602055
0.0009243536624126136
0.021627753973007202
0.026662779971957207
0.03220091387629509
0.017009392380714417
-0.0013433992862701416
-0.0044266702607274055
-0.05845198780298233
-0.03420757129788399
-0.010453862138092518
0.00602604728192091
0.07297289371490479
-0.10487265139818192
-0.08714554458856583
-0.02122218906879425
0.0006264855619519949
0.2126021683216095
0.06366730481386185
0.001708052004687488
0.03128522261977196
0.017889615148305893
0.2977105975151062
0.28754910826683044
0.19431172311306
0.050260502845048904
-0.011799699626863003
0.1700160801410675
0.16202300786972046
0.12574616074562073
0.02939990721642971
-0.011933748610317707
0.032570309937000275
0.027898689731955528
0.03660040348768234
0.013449815101921558
-0.03100401535630226
-0.0025308425538241863
-0.01037453394383192
-0.024773087352514267
-0.037102241069078445
-0.035129375755786896
-0.012485232204198837
-0.004290515556931496
-0.019868377596139908
-0.04788108915090561
-0.05185525864362717
0.009323746897280216
0.018666645511984825
0.047973573207855225
0.035087961703538895
0.012960880994796753
-0.01098017767071724
-0.024387091398239136
-0.028461182489991188
-0.034424446523189545
-0.012044318951666355
-0.00967637449502945
-0.03903548792004585
-0.004423388279974461
0.002270812401548028
-0.04388008266687393
0.00026232845266349614
0.0028092139400541782
0.009294181130826473
0.0532539039850235
-0.00232078623957932
0.004245939198881388
0.0006059145671315491
-0.00845436193048954
0.012911799363791943
0.006317248102277517
-0.03886493295431137
-0.031033944338560104
-0.013744652271270752
-0.025788238272070885
0.015086766332387924
-0.001991168363019824
0.02706126868724823
0.0669495090842247
-0.024404251947999
-0.0029205428436398506
0.025961872190237045
-0.04307832196354866
-0.08279719203710556
0.04677599295973778
-0.026318013668060303
0.03073299117386341
0.06413166224956512
-0.024836022406816483
0.061413250863552094
-0.03212738409638405
0.01245812140405178
0.027097931131720543
0.01100564282387495
0.010600566864013672
-0.01662497967481613
0.01103005651384592
0.056156229227781296
0.04931167513132095
-0.02675044909119606
-0.03170439973473549
-0.00780149269849062
-0.08008744567632675
-0.011962798424065113
-0.005867236293852329
0.00131766009144485
9.245247201761231e-05
-0.0320727713406086
0.06667731702327728
0.004436967428773642
0.04368104040622711
-0.0011395378969609737
-0.04533415287733078
0.009365505538880825
-0.005125110503286123
0.07462689280509949
-0.004916685167700052
-0.054434895515441895
-0.06103581190109253
-0.07257349789142609
0.07471814006567001
0.028063343837857246
0.037941720336675644
0.06289687007665634
0.0681663379073143
0.05225325748324394
-0.03128185495734215
-0.040096525102853775
-0.06028991937637329
-0.06972193717956543
-0.060804884880781174
-0.052605606615543365
-0.07550257444381714
-0.08038147538900375
-0.05033045634627342
-0.01824956387281418
0.05094487965106964
0.0634927749633789
0.06455216556787491
0.0370260551571846
0.028412912040948868
0.032405175268650055
0.015681879594922066
0.01057270634919405
0.0026455444749444723
0.01171566266566515
0.04098999872803688
0.0389321930706501
0.03388991579413414
0.01764599233865738
0.008851611986756325
-0.02593887224793434
-0.03727005049586296
-0.036918021738529205
0.018837936222553253
0.030211353674530983
-0.030795788392424583
-0.1015857458114624
-0.19450901448726654
-0.011775527149438858
0.008026713505387306
0.024487309157848358
0.04287153109908104
-0.06642615795135498
0.027689078822731972
0.023865608498454094
0.027787448838353157
0.06534957885742188
0.03194328024983406
0.048311393707990646
0.02854657545685768
-0.0028598811477422714
0.04690588638186455
0.05721418559551239
-0.0061202156357467175
0.012754148803651333
-0.008774899877607822
0.03173261508345604
0.013924670405685902
-0.06178785115480423
0.003256994765251875
-0.010041853412985802
-0.04690387099981308
-0.05082722380757332
-0.07630892843008041
0.0023493943735957146
-0.02439071238040924
-0.00777330482378602
0.0688040554523468
-0.036638759076595306
-0.03210476040840149
-0.012834508903324604
0.055219441652297974
0.11814236640930176
0.007898308336734772
-0.0481567457318306
-0.005841919220983982
-0.0084998132660985
-0.011647234670817852
0.016205908730626106
0.016761738806962967
0.00917914230376482
0.022130409255623817
-0.030578216537833214
-0.04151443764567375
0.01665419340133667
0.004177816212177277
0.044977832585573196
0.0184771791100502
-0.043855492025613785
0.05045250058174133
-0.007797794416546822
-0.005851534195244312
-0.026664070785045624
-0.048003003001213074
0.06688016653060913
0.001747308881022036
0.002112781396135688
-0.013845695182681084
-0.036142680794000626
0.01605045795440674
0.012354360893368721
-0.011242922395467758
-0.024844083935022354
-0.044113364070653915
-0.11843474209308624
0.021284880116581917
-0.035848282277584076
-0.07207586616277695
-0.021276507526636124
-0.03469317406415939
0.011964745819568634
-0.021059956401586533
-0.0512818917632103
-0.0462694875895977
0.004770141560584307
0.002742812968790531
0.005383142735809088
-0.004703333135694265
-0.02926894649863243
-0.004314708523452282
-0.009368746541440487
-0.002557939849793911
0.0019213877385482192
-0.007092846557497978
0.005742478184401989
-0.00847688876092434
-0.049535948783159256
-0.0739702433347702
0.004114508628845215
0.013407880440354347
0.054484784603118896
0.04094923287630081
-0.011063026264309883
-0.012847507372498512
0.004499523900449276
0.06819207221269608
-0.025211188942193985
0.057682666927576065
0.035667695105075836
0.006210490595549345
0.018740849569439888
-0.056811489164829254
0.04931239038705826
0.0433771125972271
-0.05065836012363434
-0.02224491350352764
-0.03256937861442566
0.0025684484280645847
-0.014588885009288788
-0.045229703187942505
-0.010998271405696869
-0.01046730950474739
-0.04852621629834175
-0.020458484068512917
-0.01194229070097208
-0.0020994420628994703
0.06731238961219788
0.03260419890284538
0.03846981003880501
0.014500952325761318
-0.029697587713599205
-0.037056222558021545
-0.04454333707690239
0.02356061339378357
0.0008859094232320786
-0.07674019038677216
-0.11757340282201767
-0.04103786125779152
0.01289069652557373
0.0018248590640723705
-0.06508331000804901
-0.011338545940816402
0.08987833559513092
0.10572733730077744
0.05018540471792221
-0.006508157588541508
-0.0013765075709670782
0.04036465659737587
-0.021010160446166992
-0.029307207092642784
-0.031268056482076645
0.061011288315057755
0.07998128980398178
-0.06576845794916153
-0.010413506999611855
-0.08022819459438324
0.06689390540122986
0.0400598980486393
-0.04142862930893898
-0.005591774825006723
-0.029751913622021675
0.044662296772003174
0.002636728109791875
0.00787612795829773
0.0025817847345024347
0.00831267423927784
-0.016702190041542053
-0.009504356421530247
0.009294248186051846
0.015420863404870033
0.014936503954231739
-0.013189956545829773
-0.054997529834508896
0.03597712516784668
-0.019538097083568573
0.15393882989883423
-0.07049757242202759
-0.03255033493041992
0.035777341574430466
0.04826014116406441
0.09938082844018936
-0.07815351337194443
-0.0372125506401062
0.04212623089551926
0.005897975526750088
0.03363289684057236
-0.00887617003172636
-0.018918177112936974
0.0066796280443668365
0.013226664625108242
-0.04540708288550377
-0.027792731299996376
0.053898461163043976
-0.03597503527998924
-0.026891274377703667
0.008099124766886234
-0.0458381287753582
-0.0637269839644432
0.002043232088908553
0.0002919462276622653
-0.02562219463288784
-0.046816565096378326
0.0038239022251218557
0.04375771805644035
-0.021794075146317482
-0.06734812259674072
0.04345561936497688
0.15781979262828827
0.07477112114429474
-0.03007381595671177
-0.0710584819316864
-0.01622568443417549
0.03897126391530037
-0.02761980891227722
-0.027011074125766754
-0.016332678496837616
0.015018264763057232
0.028963327407836914
-0.014350734651088715
-0.0028640360105782747
0.22113031148910522
0.1782725751399994
0.04979594424366951
0.028791850432753563
0.017144396901130676
0.2564968168735504
0.1680186241865158
0.003171033225953579
-0.015249096788465977
-0.0003188031550962478
0.2559311091899872
0.1938977837562561
-0.006878879386931658
-0.04749801382422447
-0.019521081820130348
0.13840341567993164
0.10120069980621338
-0.03257302939891815
-0.07147267460823059
-0.057556428015232086
0.009575055912137032
-0.031330522149801254
-0.0639839917421341
-0.08863787353038788
-0.08985912054777145
-0.03723180294036865
0.045370668172836304
0.018015559762716293
-0.04214269667863846
-0.0099334130063653
-0.04022626951336861
0.1383286863565445
0.14720655977725983
-0.009369384497404099
-0.028178537264466286
-0.023820843547582626
0.06592316180467606
0.13933613896369934
0.033182743936777115
-0.12318344414234161
-0.020155470818281174
-0.05423623323440552
0.02531360648572445
0.043839674443006516
-0.07093735784292221
-0.010946459136903286
-0.03160901740193367
0.004591009113937616
0.051085084676742554
0.004086330067366362
0.011969498358666897
-0.027759701013565063
-0.05727413669228554
-0.002599145518615842
0.07711257040500641
0.02020632103085518
-0.011747363954782486
-0.12369824200868607
-0.1718083918094635
0.006450724322348833
-0.0003751428157556802
0.06257089227437973
-0.03885182738304138
-0.1558908075094223
-0.04039480537176132
-0.018438145518302917
0.06951315701007843
0.059397585690021515
-0.005969983991235495
0.026702050119638443
-0.023764975368976593
-0.015481107868254185
-0.01597122848033905
0.01509177777916193
0.019656654447317123
-0.0075850822031497955
-0.018968410789966583
0.18778352439403534
0.3163050413131714
0.19607539474964142
-0.004059087485074997
-0.019418399780988693
0.09632007777690887
0.2120109349489212
0.11163579672574997
0.01422121748328209
0.022065283730626106
0.0038384953513741493
0.0820794329047203
0.028955083340406418
0.02216481789946556
0.057145632803440094
0.016084222123026848
0.006434217095375061
0.03218874707818031
0.0022749551571905613
0.03889672830700874
-0.0074234395287930965
-0.01773691736161709
0.004614647012203932
0.025025643408298492
-0.0014934554928913713
0.025533627718687057
0.026068978011608124
-0.02734466642141342
0.05203753337264061
-0.041257623583078384
0.0022875461727380753
0.01692369394004345
-0.006589086726307869
0.012995618395507336
0.10451506078243256
0.0546969398856163
0.03988468647003174
-0.027094414457678795
-0.05442717298865318
0.12647059559822083
0.09358590096235275
0.03941827267408371
0.02335384674370289
-0.10267937183380127
-0.008849894627928734
0.0043124789372086525
-0.03492589294910431
0.020065786316990852
-0.1944577395915985
-0.11483335494995117
-0.06493120640516281
-0.04838426038622856
0.012195848859846592
0.0343385711312294
0.18140897154808044
0.1158585175871849
-0.025453021749854088
-0.008674544282257557
0.1849031001329422
0.1257035881280899
0.012090733274817467
-0.04946764558553696
0.002589792711660266
0.08285937458276749
-0.17453128099441528
-0.12264502793550491
-0.012595335952937603
0.00703108636662364
-0.016354568302631378
-0.15083110332489014
-0.12623284757137299
0.022430945187807083
0.0013103074161335826
0.0018651674035936594
-0.013137485831975937
-0.013447163626551628
0.003622323740273714
0.001766231027431786
0.004133747424930334
0.010901527479290962
-0.004099609795957804
-0.011552314274013042
-0.010941259562969208
-0.023148106411099434
0.03054514341056347
0.051364071667194366
0.02722148783504963
0.001233349204994738
-0.03684379532933235
0.014778043143451214
0.007407021708786488
0.004783821292221546
0.02604793570935726
-0.006559898145496845
0.019290044903755188
-0.0038758493028581142
-0.07474938780069351
-0.028809867799282074
0.005302106495946646
0.04315057396888733
0.031008649617433548
-0.013130373321473598
-0.027017327025532722
-0.012270995415747166
0.08527631312608719
0.05502505600452423
-0.02526741847395897
-0.04547379910945892
-0.0029221498407423496
0.03727049008011818
0.06554905325174332
0.00472489558160305
-0.04554417356848717
0.08244706690311432
0.018680952489376068
-0.04531708359718323
0.021317118778824806
-0.06816496700048447
0.0698661133646965
-0.049484316259622574
-0.137481689453125
-0.029841233044862747
-0.07481633871793747
0.018538178876042366
-0.027262510731816292
-0.07909399271011353
0.010389450937509537
-0.005283242091536522
0.05957971513271332
0.03479504957795143
-0.0761653333902359
0.059207506477832794
0.04384969547390938
-0.01251522172242403
0.10730686038732529
0.053317587822675705
-0.060741182416677475
0.026301786303520203
-0.04898606985807419
0.011691367253661156
0.0015305612469092011
-0.12313441932201385
-0.026908669620752335
-6.325841241050512e-05
-0.009380189701914787
0.0220534298568964
-0.014950494281947613
-0.02754000946879387
0.05559703707695007
-0.046831801533699036
-0.04619276896119118
0.022254997864365578
0.036173127591609955
0.026970094069838524
-0.11643549054861069
-0.11879901587963104
0.005714493803679943
0.011960991658270359
0.13807842135429382
0.016112301498651505
0.024677718058228493
0.002544356044381857
0.001042260555550456
0.29835450649261475
0.26204714179039
0.11021995544433594
0.04926202818751335
0.011025320738554
0.39071083068847656
0.256536602973938
0.08793479949235916
0.038840152323246
0.03986506909132004
-0.031302012503147125
-0.028260869905352592
0.008676663972437382
-0.0013346250634640455
0.028874652460217476
-0.04095253720879555
-0.05997132882475853
-0.015450083650648594
-0.06961891800165176
-0.009331860579550266
-0.021933062002062798
-0.03187359869480133
0.012184939347207546
0.0022605780977755785
0.05043413117527962
-0.03161091357469559
-0.04268736019730568
0.029209699481725693
0.05932240188121796
0.11392437666654587
-0.03198407217860222
-0.025112327188253403
-0.007203543558716774
0.035165321081876755
0.09478587657213211
-0.00037250478635542095
-0.008081608451902866
0.017868870869278908
0.006025123409926891
-0.005564775317907333
-0.0005909687024541199
-0.01595408096909523
-0.0032152454368770123
0.015985162928700447
-0.004200682044029236
0.005426177754998207
-0.014342551119625568
-0.04011860862374306
0.0922599732875824
-0.02624930813908577
0.004836187697947025
0.02852942980825901
0.0462806336581707
0.014936378225684166
-0.035594139248132706
-0.0029530648607760668
-0.016885342076420784
-0.016548527404665947
0.0004211406339891255
0.0010798334842547774
-0.0035269891377538443
0.05121424421668053
0.04066922515630722
-0.022029602900147438
-0.04060336947441101
-0.028660625219345093
0.0437922328710556
-0.02201499603688717
0.010402178391814232
0.030142657458782196
-0.05911019816994667
-0.001180729828774929
0.008781489916145802
-0.03662104159593582
0.11374135315418243
-0.006961222738027573
-0.056070663034915924
-0.04402867332100868
-0.05392810329794884
0.03681337088346481
0.018907329067587852
-0.041657704859972
-0.054204653948545456
-0.031582143157720566
-0.039854831993579865
-0.020598405972123146
-0.02766307070851326
-0.15981082618236542
-0.3137912154197693
-0.38851436972618103
-0.037380702793598175
-0.022364601492881775
-0.07302643358707428
-0.22989438474178314
-0.2562832236289978
-0.025076761841773987
-0.01934913545846939
-0.046110883355140686
-0.10797896981239319
-0.1438569277524948
-0.010294306091964245
-0.005631591193377972
-0.044564660638570786
-0.04223527014255524
-0.07094457745552063
-0.003631521947681904
0.0060038440860807896
-0.020146500319242477
-0.010353311896324158
-0.011540232226252556
-0.015492231585085392
0.057228658348321915
0.09965862333774567
0.1245226040482521
0.17477314174175262
-0.007126921787858009
0.08057937771081924
0.2272409051656723
0.35378578305244446
0.20004117488861084
0.0023025975096970797
0.05562771484255791
0.20235687494277954
0.3194376528263092
0.21661929786205292
-0.013915649615228176
0.0032251987140625715
0.07297500222921371
0.12075425684452057
0.08688118308782578
-0.017161982133984566
-0.020774686709046364
0.03541223332285881
0.005403117276728153
-0.021036850288510323
-0.00555306114256382
-0.022588912397623062
0.026166390627622604
-0.010713926516473293
-0.01971406862139702
-0.0065495893359184265
-0.0006855211104266346
0.07113863527774811
0.004253857769072056
-0.05337175726890564
0.026071256026625633
0.001869194325990975
-0.016233637928962708
0.06067310646176338
-0.002654672134667635
0.01938256248831749
0.02315567433834076
-0.01442248746752739
0.020841583609580994
-0.008889204822480679
-0.0037915497086942196
0.029332665726542473
-0.030318278819322586
-0.050915736705064774
-0.03701252117753029
-0.0010691923089325428
-0.01857605203986168
-0.010640069842338562
0.011557218618690968
0.0036882872227579355
0.02012314833700657
-0.05107562988996506
-0.046611152589321136
0.0012536264257505536
0.008128482848405838
0.025110896676778793
0.0250313151627779
-0.01490494143217802
-0.016520654782652855
-0.01233736239373684
-0.03413271903991699
0.08327626436948776
0.04786840081214905
-0.011935312300920486
0.0031168777495622635
-0.09226904809474945
0.004458952695131302
0.03475030139088631
-0.02086060866713524
-0.004356044810265303
-0.005742314737290144
-0.0021131751127541065
-0.005075957626104355
-0.0034050235990434885
-0.002511536004021764
0.006842994596809149
0.013560631312429905
0.021949458867311478
0.013771352358162403
0.0010390164097771049
-0.0033532173838466406
-0.05385395139455795
-0.039730243384838104
-0.01401561126112938
0.010176938027143478
0.04376578330993652
-0.0971451848745346
-0.09143814444541931
-0.03333676978945732
0.0052118077874183655
0.09828568994998932
0.0016188115114346147
-0.029887253418564796
0.022867020219564438
0.019162291660904884
0.4044998288154602
0.3862227499485016
0.27435269951820374
0.0825502872467041
-0.00934530422091484
0.2927477955818176
0.25900110602378845
0.21134530007839203
0.06867419928312302
-0.002012623241171241
0.10301997512578964
0.10839259624481201
0.11491198092699051
0.06295640021562576
0.009939777664840221
0.019046016037464142
0.04388485848903656
0.04195655137300491
0.03642788156867027
0.038341667503118515
-0.019948691129684448
0.02553163841366768
0.04106120392680168
0.03470128774642944
0.04794611036777496
0.006676321849226952
0.016514426097273827
0.046650104224681854
0.034524474292993546
0.012364639900624752
-0.012743037194013596
-0.023280275985598564
-0.025735607370734215
-0.03267421945929527
-0.013425307348370552
-0.012066296301782131
-0.03795792534947395
-0.003216854529455304
0.0005189974326640368
-0.046725161373615265
0.0010565673001110554
0.00455899816006422
0.010493829846382141
0.04889241233468056
-0.006840305868536234
0.005871220491826534
0.0005928566097281873
-0.008676371537148952
0.012240041978657246
0.006185595877468586
-0.03296065330505371
-0.030792800709605217
-0.01743154227733612
-0.02624545991420746
0.009675918146967888
-0.0005980283604003489
0.019823575392365456
0.058433275669813156
-0.02240413799881935
-0.0018278966890648007
0.02506609633564949
-0.04344582557678223
-0.08260148018598557
0.053482409566640854
-0.019575634971261024
0.025310209020972252
0.06367558985948563
-0.025943463668227196
0.05605283007025719
-0.02814125083386898
0.010771742090582848
0.02674417942762375
0.002642459934577346
0.0039057324174791574
-0.013002412393689156
-0.04042378440499306
0.018414916470646858
0.030455278232693672
-0.02135302871465683
-0.033993836492300034
0.05656414106488228
-0.009059298783540726
0.05068610981106758
0.019498733803629875
-0.049669407308101654
0.07615013420581818
0.12024690210819244
0.17945367097854614
-0.007020919118076563
-0.04131871834397316
0.020190661773085594
0.06891185790300369
0.07943911850452423
-0.048699136823415756
-0.037518929690122604
-0.03697416931390762
-0.08997352421283722
-0.0826757550239563
-0.13181592524051666
-0.10261102020740509
0.02508004754781723
0.037085965275764465
0.05932505801320076
0.06288514286279678
0.0452280156314373
-0.03457328677177429
-0.0391080379486084
-0.05537431314587593
-0.06422639638185501
-0.05586647242307663
-0.04658307880163193
-0.06936879456043243
-0.07980332523584366
-0.05419853702187538
-0.02055957540869713
0.048433817923069
0.06471976637840271
0.066553495824337
0.037779007107019424
0.025811972096562386
0.028216231614351273
0.01679186150431633
0.010777675546705723
0.0011320135090500116
0.00874303001910448
0.034782614558935165
0.036943357437849045
0.029267916455864906
0.014172384515404701
0.008365810848772526
-0.021656367927789688
-0.03389880433678627
-0.027383791282773018
0.023484282195568085
0.014434740878641605
-0.03346765413880348
-0.07899271696805954
-0.16344694793224335
-5.157196937943809e-05
-0.008910556323826313
0.018864942714571953
0.06442450731992722
-0.03859096020460129
0.030361464247107506
-0.0070180888287723064
0.03037307597696781
0.06255019456148148
0.02432207018136978
0.029370177537202835
-0.01167780440300703
-0.00988862756639719
0.033899903297424316
0.05714606121182442
-0.003354776417836547
0.010354896076023579
-0.013854030519723892
0.02247288078069687
0.012789824977517128
-0.06262057274580002
0.003017939394339919
-0.020674217492341995
-0.0448048934340477
-0.042798690497875214
-0.07441011071205139
-0.0017917120130732656
-0.03180909529328346
-0.003551802597939968
0.07073978334665298
-0.03323831781744957
-0.027253231033682823
-0.013299158774316311
0.06025451421737671
0.12049602717161179
0.01619601808488369
-0.0309294443577528
-0.00834755226969719
-0.011191698722541332
-0.0129436906427145
0.012569844722747803
0.015196509659290314
0.011563480831682682
0.023008858785033226
-0.028393788263201714
-0.03799637779593468
0.018366413190960884
0.006106365937739611
0.047571226954460144
0.022621603682637215
-0.04237157106399536
0.04654162377119064
-0.00923998188227415
-0.005136989988386631
-0.025617867708206177
-0.046661969274282455
0.06236596778035164
-0.002119864569976926
0.0003410901699680835
-0.013368640094995499
-0.03191352263092995
0.018957262858748436
0.009392191655933857
-0.02148948796093464
-0.03475676849484444
-0.006944963708519936
0.01520511507987976
0.033361561596393585
-0.027792837470769882
-0.06223108991980553
0.010059459134936333
0.05637678503990173
0.02157173678278923
0.00242338958196342
-0.02111632004380226
-0.016643328592181206
0.05678025260567665
0.00448953453451395
0.02869747206568718
0.028716782107949257
-0.004165733698755503
0.01857207901775837
-0.009141341783106327
0.006750628352165222
0.02408658340573311
0.009712360799312592
-0.003313517663627863
-0.00011452421313151717
-0.0440053716301918
-0.07458718866109848
0.004318119026720524
0.010566610842943192
0.04895457625389099
0.039646051824092865
-0.021449580788612366
-0.016828741878271103
0.015410725958645344
0.07056691497564316
-0.0353509820997715
0.03537972643971443
0.030853556469082832
0.021782031282782555
0.023141270503401756
-0.06774679571390152
0.03359779715538025
0.04316301643848419
-0.026836013421416283
-0.027697375044226646
-0.03518493473529816
-0.0009878951823338866
-0.01872202754020691
-0.03114354982972145
-0.0032970549073070288
-0.0059998915530741215
-0.034370794892311096
-0.014904052950441837
-0.020676810294389725
-0.027848631143569946
0.04299138858914375
0.026228470727801323
0.04943874105811119
0.024923071265220642
-0.04220939427614212
-0.05559740588068962
-0.05071079730987549
0.05182343348860741
0.03226775676012039
-0.055560607463121414
-0.11018230020999908
-0.04665849730372429
0.02636163868010044
0.02727873995900154
0.00013398063310887665
0.004767649807035923
0.07880953699350357
0.09588728100061417
0.053883831948041916
-0.005395549815148115
-0.0023778125178068876
0.042343076318502426
-0.020562995225191116
-0.027275867760181427
-0.025935130193829536
0.05248246714472771
0.07437227666378021
-0.061326175928115845
-0.007658810820430517
-0.07582320272922516
0.06094951555132866
0.035346560180187225
-0.037213511765003204
-0.0066526890732347965
-0.03129114210605621
0.03841602802276611
-0.0005356662441045046
0.004677802789956331
0.0030971337109804153
0.003909646533429623
-0.017488300800323486
-0.006770215462893248
0.0013855998404324055
0.01076257973909378
0.006482415832579136
-0.017923010513186455
-0.05755576118826866
0.026378003880381584
-0.01077013835310936
0.14454562962055206
-0.07556146383285522
-0.04368969425559044
0.04747885465621948
0.06038181111216545
0.12261209636926651
-0.08855321258306503
-0.04367218539118767
0.037773534655570984
0.0025241828989237547
0.029915407299995422
-0.019472626969218254
-0.025838514789938927
0.003613038221374154
0.0054352786391973495
-0.04839551821351051
-0.029836399480700493
0.08194952458143234
-0.03264295682311058
-0.02984439767897129
0.011278807185590267
-0.03345851972699165
-0.05678608641028404
0.004050196148455143
0.005808788817375898
-0.031019002199172974
-0.046424128115177155
0.0009674848988652229
0.041843291372060776
-0.0135121401399374
-0.07617519795894623
0.022244740277528763
0.130575031042099
0.06687460094690323
-0.022140534594655037
-0.06037823110818863
-0.030967095866799355
0.01747845485806465
-0.028151778504252434
-0.020596779882907867
0.015594844706356525
0.02998608537018299
0.03723219409584999
-0.003623767988756299
0.004352572374045849
-0.29692211747169495
-0.2967129051685333
-0.3122195303440094
-0.15473538637161255
-0.004832324106246233
-0.22128932178020477
-0.24516238272190094
-0.28036853671073914
-0.11928252875804901
0.028391743078827858
-0.12444668263196945
-0.08898479491472244
-0.1555805653333664
-0.06530113518238068
0.05588310584425926
-0.09608985483646393
-0.015348452143371105
-0.04089125618338585
-0.009656188078224659
0.05998305231332779
-0.042100634425878525
-0.008009139448404312
0.028503647074103355
0.04893370345234871
0.06720444560050964
-0.0037788739427924156
0.06657043844461441
0.06615080684423447
-0.01024145632982254
0.00983563344925642
-0.047165460884571075
0.10581667721271515
0.11618071794509888
-0.017689190804958344
-0.009909606538712978
-0.021879449486732483
0.01832594908773899
0.07583881914615631
0.0019045674707740545
-0.10845113545656204
0.004792893771082163
-0.07959422469139099
-0.029930802062153816
0.003942734561860561
-0.07821494340896606
0.015052277594804764
-0.0431671068072319
-0.024655042216181755
0.019211141392588615
0.005239678546786308
0.02348867431282997
0.0056984927505254745
0.015018350444734097
0.12098714709281921
0.24098409712314606
0.0266110859811306
-0.031675491482019424
-0.12776537239551544
-0.12768784165382385
0.11327444016933441
0.016384046524763107
0.0014538902323693037
-0.11061260104179382
-0.19610023498535156
-0.02003614977002144
0.012218385003507137
0.027812210842967033
-0.01234751008450985
-0.07563655078411102
-0.011503691785037518
0.009436467662453651
0.00590789457783103
-0.007580906618386507
0.004245045129209757
0.015407862141728401
-0.008892731741070747
-0.11520437896251678
-0.03913230076432228
0.015278750099241734
-0.10681982338428497
-0.012952878139913082
-0.11276769638061523
-0.13460251688957214
-0.10117984563112259
-0.12554137408733368
-0.01259211078286171
-0.07875051349401474
-0.1883581578731537
-0.14720822870731354
-0.15090392529964447
-0.002266318304464221
-0.027569850906729698
-0.1001000851392746
-0.10674099624156952
-0.07291004061698914
-0.0008536893292330205
0.023205304518342018
-0.030050130560994148
-0.02712821029126644
0.016133012250065804
0.012175433337688446
-0.0007962448871694505
0.010712971910834312
0.012553137727081776
-0.013753615319728851
0.08351703733205795
-0.002660544356331229
0.01382477581501007
0.007247737143188715
-0.010388178750872612
0.09201190620660782
0.18704508244991302
0.09957582503557205
0.03564042970538139
-0.03230927884578705
0.05369006469845772
0.24157647788524628
0.17574016749858856
0.0690065398812294
0.01662793755531311
0.006066537462174892
0.10140056908130646
0.12307311594486237
0.042634837329387665
0.03897835314273834
-0.1508127599954605
-0.1225748360157013
-0.049999166280031204
-0.024098796769976616
0.010971073992550373
0.02787981741130352
0.1497345268726349
0.09497132897377014
-0.01625654473900795
0.007113857194781303
0.2686345875263214
0.12226476520299911
-0.016862716525793076
-0.05234963446855545
0.002909395145252347
0.22744233906269073
-0.12246152758598328
-0.15249395370483398
-0.05779728293418884
-0.00263529596850276
0.18157625198364258
-0.06035584956407547
-0.1299465298652649
-0.012319354340434074
-0.00849442183971405
-0.001376606523990631
-0.012417766265571117
-0.01176370121538639
-0.0010767107596620917
0.00042575050611048937
0.004928985144942999
0.011108225211501122
-0.0009541944600641727
-0.013794065453112125
-0.013235820457339287
-0.02135414257645607
0.030444903299212456
0.05139525607228279
0.024674706161022186
-0.00306625640951097
-0.03718017041683197
0.017186341807246208
0.0073764207772910595
0.0016920228954404593
0.019682876765727997
-0.013077444396913052
0.017568403854966164
0.004823072347790003
-0.06670157611370087
-0.029063621535897255
0.01910906471312046
0.059133466333150864
0.04171402007341385
-0.020858440548181534
-0.030773688107728958
-0.06851334869861603
0.022895818576216698
0.002300197258591652
-0.039553362876176834
0.0031203394755721092
-0.0670505240559578
-0.08307460695505142
-0.01749846525490284
0.020153312012553215
0.04944150149822235
0.05775866657495499
-0.061369676142930984
-0.07980375736951828
0.07275204360485077
0.06036555767059326
0.07243573665618896
-0.01672246865928173
-0.09426543861627579
0.03716837614774704
0.08580297976732254
0.05147130414843559
0.007056570611894131
-0.05997908115386963
0.007173669524490833
-0.016388995572924614
0.056968241930007935
0.02943931147456169
-0.08209904283285141
0.06047922000288963
0.050218045711517334
-0.025845160707831383
0.060020286589860916
0.0251631960272789
-0.038284748792648315
0.06240261346101761
-0.052764732390642166
-0.022666823118925095
-0.013496379368007183
-0.10291790217161179
0.006958897225558758
0.0015160563634708524
-0.007351577747613192
0.034591492265462875
-0.0038212197832763195
-0.02491498552262783
0.025324922055006027
-0.06091095879673958
-0.06933432817459106
0.006996354088187218
0.017388680949807167
0.03245853632688522
-0.071584552526474
-0.07125180959701538
0.029558215290308
0.0033089877106249332
0.032282281666994095
0.0120150251314044
0.06353462487459183
0.02651154063642025
-0.00018832362547982484
0.03353501483798027
0.10644284635782242
0.07856033742427826
0.06474331021308899
0.0170602910220623
-0.025452930480241776
-0.010604663752019405
-0.053009938448667526
-0.0057655698619782925
0.023396339267492294
-0.020526155829429626
-0.03647247701883316
0.0008435097988694906
0.009514397010207176
0.03913465887308121
-0.0008837932837195694
-0.044821545481681824
-0.0179302915930748
-0.08520182222127914
-0.016937952488660812
0.013165309093892574
-0.007983801886439323
0.0059302328154444695
-0.043963536620140076
0.001999656669795513
-0.013811330311000347
-0.02921893633902073
0.014942917041480541
0.02230791561305523
0.07402598857879639
-0.01498781330883503
-0.013078062795102596
-0.001489655114710331
0.052355945110321045
0.11065966635942459