-4.975065231323242
-2.8032121658325195
0.23603244125843048
-0.12835176289081573
-0.1414555311203003
0.08609483391046524
0.030054455623030663
0.11459943652153015
-0.09253722429275513
-2.6514525413513184
-1.3662670850753784
0.18150103092193604
-0.11998158693313599
-0.03619088977575302
0.2604818642139435
-0.02562580443918705
-0.01775091513991356
-0.06759295612573624
-2.394782781600952
-1.327316164970398
0.5309025645256042
-0.20948562026023865
-0.4482436180114746
-0.013836950063705444
0.041034452617168427
-0.037903670221567154
-0.04652652144432068
-1.2237896919250488
-0.5094476938247681
0.648764967918396
-0.07088615000247955
-0.3003249168395996
0.03811631351709366
-0.020744774490594864
0.07187069207429886
0.05990276113152504
-0.49672436714172363
0.5267831087112427
0.29169657826423645
-0.3705942928791046
-0.477072149515152
-0.013284162618219852
-0.06993696838617325
0.04410373792052269
-0.03887933865189552
0.4697647988796234
-1.1149208545684814
0.52028888463974
-0.06403148174285889
-0.09306176751852036
0.1406695544719696
0.048798270523548126
-0.023304477334022522
0.0863172635436058
0.25289496779441833
-1.096356749534607
0.36628103256225586
-0.05042329430580139
-0.12435653060674667
-0.028522614389657974
-0.061261136084795
-0.08506327122449875
-0.11189214140176773
-1.1012370586395264
-0.8740710020065308
-0.038463935256004333
-0.2269759476184845
-0.2698216438293457
0.1883193850517273
0.11736518144607544
-0.01462855190038681
0.07191973924636841
-2.1543612480163574
-0.2231857031583786
0.19070862233638763
0.04079117253422737
-0.06876005977392197
0.0959354043006897
0.06618953496217728
-0.01501532644033432
-0.049177367240190506
-3.683645248413086
3.202497959136963
0.18853600323200226
0.12226273864507675
0.085856132209301
0.16347697377204895
-0.02002243883907795
0.0028761753346771
-0.05120442062616348
-1.8137177228927612
-1.0610740184783936
-0.26737332344055176
-0.338021844625473
-0.16024547815322876
0.2276795208454132
-0.25727516412734985
-0.11950382590293884
0.16406038403511047
-2.2995500564575195
-4.0207624435424805
0.4139469563961029
-0.08864167332649231
-0.20085982978343964
0.14683909714221954
-0.026024721562862396
0.04600455239415169
0.09631799161434174
-1.7282170057296753
-1.7100589275360107
0.6145834922790527
0.1078028529882431
-0.04567062482237816
0.24785169959068298
0.028460105881094933
0.005059093236923218
-0.11766918003559113
-0.9624889492988586
0.6947656869888306
0.1367652714252472
-0.22243715822696686
-0.2590304911136627
0.25223615765571594
0.030540691688656807
-0.12587229907512665
-0.06455370783805847
-0.6103796362876892
0.5885310173034668
0.13992594182491302
-0.1756063550710678
-0.06491422653198242
0.26356983184814453
-0.050479523837566376
-0.15373045206069946
0.08353903144598007
0.025353549048304558
1.3742384910583496
-0.06982793658971786
-0.21672533452510834
-0.06596744060516357
0.2741276025772095
0.02767815999686718
-0.050945524126291275
0.10311807692050934
0.2502281069755554
-2.17224383354187
-0.027421893551945686
-0.1463639736175537
-0.13131967186927795
0.19430400431156158
-0.06289330124855042
-0.08018041402101517
0.09283608198165894
-1.1596941947937012
-1.2594324350357056
0.19608750939369202
0.02281893417239189
-0.083951935172081
0.12096405029296875
-0.1458929181098938
-0.06838981062173843
0.05886762961745262
-5.368895530700684
-4.495660781860352
-0.02167603187263012
-0.1282375603914261
0.00470975274220109
-0.24095316231250763
-0.1285558044910431
0.1558712124824524
-0.02414209395647049
-3.1453967094421387
-2.666335105895996
0.2251095175743103
0.05430140346288681
0.3935903310775757
0.19622807204723358
0.01937001571059227
-0.007746698800474405
0.07193811982870102
-3.6582112312316895
-4.265086650848389
-0.12003026157617569
-0.3564438223838806
-0.046059779822826385
0.044452305883169174
-0.14502498507499695
-0.0973239317536354
-0.04565336927771568
-2.5054430961608887
-4.317413330078125
0.11518120020627975
-0.3133644163608551
0.3081311583518982
0.3770081102848053
-0.05879633128643036
-0.1394316703081131
0.1816817969083786
-1.4463924169540405
-1.3350998163223267
-0.3146933317184448
-0.7126739025115967
-0.09396405518054962
0.24957789480686188
-0.019794238731265068
-0.12062070518732071
0.030075635761022568
-1.4924252033233643
0.15025027096271515
0.4164239466190338
-0.12701673805713654
-0.026313822716474533
-0.10181355476379395
-0.0961240753531456
0.011535093188285828
0.015467589721083641
-0.646382212638855
1.6947094202041626
0.38388627767562866
0.01443582121282816
0.012479561381042004
-0.11368662863969803
-0.06407823413610458
0.09224069863557816
-0.02966311201453209
-0.7184919714927673
-1.7256678342819214
-0.05412304028868675
-0.04281097650527954
0.17404015362262726
0.027711786329746246
-0.009128694422543049
-0.09021210670471191
0.07069873064756393
-1.9124610424041748
1.2250434160232544
-0.08907978236675262
-0.015583343803882599
0.023821203038096428
-0.03681927174329758
0.15211017429828644
-0.0007701372960582376
-0.04561372473835945
0.00016714725643396378
-0.03395780175924301
-0.010611061006784439
-0.05259926617145538
0.0144738694652915
0.05238970369100571
0.027813591063022614
-0.030965330079197884
0.03333795443177223
0.03075895644724369
-0.041026562452316284
-0.0038082317914813757
-0.010392935015261173
0.00023791479179635644
-0.04498879984021187
-0.008854668587446213
0.0027934450190514326
-0.00086993258446455
0.03259798511862755
0.028903940692543983
-0.010751744732260704
-0.06895234435796738
-0.0487755686044693
-0.050838615745306015
0.009248974733054638
0.036441460251808167
0.050140030682086945
-0.02066665142774582
-0.04252836853265762
-0.044021330773830414
-0.04191460460424423
-0.002446599770337343
0.051647014915943146
-0.03949717804789543
-0.061482008546590805
-0.060584716498851776
-0.021309824660420418
-0.051672108471393585
0.020188400521874428
0.00996388029307127
-0.015918219462037086
-0.012971270829439163
-0.006141272839158773
-0.014210534282028675
-0.011367691680788994
-0.0073846676386892796
-0.061529580503702164
-0.05653466656804085
-0.042947378009557724
-0.005856154020875692
0.029930924996733665
0.04233187809586525
-0.04834054410457611
-0.044501516968011856
0.047071315348148346
0.022928467020392418
-0.04869262874126434
0.02995876967906952
-0.038852889090776443
-0.040743544697761536
-0.03430088609457016
-0.02291860058903694
-0.0022176941856741905
-0.06898307055234909
-0.0703393816947937
-0.02990826964378357
0.031013840809464455
0.017420105636119843
0.05206633731722832
-0.06414134055376053
-0.06471498310565948
0.049865420907735825
-0.006446564570069313
-0.04819107800722122
-0.05729985237121582
0.04363956302404404
-0.03533029183745384
-0.06964235752820969
-0.0016707839677110314
-0.009762687608599663
-0.07648579776287079
-0.029949337244033813
-0.036520689725875854
0.05542781203985214
-0.03704840689897537
-0.043384402990341187
-0.06880097091197968
0.01931576430797577
0.029085470363497734
-0.02402392588555813
-0.02489643171429634
-0.04300350323319435
0.05728626251220703
-0.0017446628771722317
-0.013484851457178593
0.052189040929079056
-0.06503550708293915
-0.03181948512792587
0.024753795936703682
0.02469615638256073
0.035177282989025116
0.006440160796046257
0.030598865821957588
-0.05210129916667938
-0.049597255885601044
0.04943561553955078
-0.019438952207565308
-0.06147744506597519
0.03289255127310753
-0.030214494094252586
-0.0670049637556076
-0.0692497193813324
0.0047828443348407745
0.04235707223415375
-0.03281593322753906
0.0324358195066452
0.04097674787044525
-0.038864899426698685
-0.038768503814935684
-0.035364240407943726
-0.012781236320734024
-0.06011466309428215
0.020812178030610085
0.05582387372851372
-0.0014591279905289412
0.048233337700366974
-0.021732043474912643
0.023931249976158142
-0.0036980558652430773
-0.06572567671537399
-0.055332284420728683
0.016599148511886597
-0.03233131393790245
-0.02576904185116291
-0.020340681076049805
-0.04943567141890526
0.056281380355358124
0.036692142486572266
-0.04180557653307915
-0.05944337695837021
-0.06831157207489014
0.05623093992471695
-0.02566482312977314
-0.025567978620529175
0.014832250773906708
-0.0692899078130722
-0.0557321272790432
0.056077901273965836
0.014191835187375546
0.03637489676475525
-0.0500020757317543
-0.029766682535409927
-0.0011193426325917244
0.016294552013278008
-0.04989129677414894
0.040504053235054016
0.037742141634225845
0.05541926994919777
-0.06205308809876442
0.04220534488558769
0.04821880906820297
0.04268517717719078
0.0353609137237072
-0.043466199189424515
-0.05312393233180046
0.014992853626608849
0.04993627965450287
-0.0457015223801136
-0.05496164411306381
0.030021818354725838
-0.06423257291316986
-0.0008853321196511388
0.009726200252771378
-0.01720997877418995
-0.04853148013353348
0.02574276737868786
-0.05503331497311592
0.03509940952062607
-0.018756620585918427
0.03253714367747307
0.03634696081280708
-0.023667091503739357
-0.011673534289002419
0.009739049710333347
0.03494911268353462
-0.02175706811249256
-0.02997056394815445
0.03758324682712555
0.05320892482995987
-0.05969731882214546
0.0387888140976429
0.005750125274062157
-0.019396651536226273
-0.060428913682699203
0.05094780772924423
0.04044300690293312
-0.0007617073133587837
-0.058311231434345245
-0.059947773814201355
-0.0012329830788075924
-0.03309030085802078
-0.01857657916843891
0.02381599135696888
-0.035637013614177704
0.04950303956866264
-0.008808758109807968
0.010886556468904018
-0.04765006899833679
0.040495630353689194
-0.024297518655657768
0.048128075897693634
0.024585913866758347
0.003363471245393157
-0.0011245402274653316
0.0047464147210121155
-0.009100019931793213
-0.07102780044078827
0.03547585383057594
0.006839609704911709
0.010033895261585712
-0.053169067949056625
0.03224281594157219
0.015061512589454651
0.004114742856472731
-0.0324210561811924
-0.02828434854745865
-0.03749341890215874
-0.04848494008183479
-0.03972737491130829
0.008953268639743328
-0.06531091034412384
0.018701907247304916
0.030507594347000122
0.04467853158712387
0.017819279804825783
0.0033184371422976255
-0.03782901167869568
0.023138076066970825
-0.051498714834451675
-0.015699602663517
0.044356346130371094
0.009883181191980839
0.0384262353181839
0.23641765117645264
-0.8554660677909851
0.16794246435165405
0.49842825531959534
0.21384847164154053
-0.3566329777240753
0.08994566649198532
0.48457926511764526
-0.24396920204162598
-0.08796971291303635
0.7829055786132812
0.6047220230102539
-1.1027802228927612
-0.5363487601280212
1.0591678619384766
-0.12456407397985458
-1.1838339567184448
0.34381523728370667
-0.3661462664604187
0.4120342433452606
0.05711499974131584
-0.9523318409919739
-0.6032730937004089
0.8430169224739075
0.08400329202413559
-0.6684436798095703
0.6816362142562866
-0.5041881203651428
-0.3940685987472534
0.32945719361305237
-0.08208251744508743
-0.013976480811834335
0.3487761318683624
0.3444714844226837
0.0746326819062233
0.525763988494873
0.9055941700935364
0.4059607684612274
0.6776604652404785
0.4917425513267517
0.5952677130699158
-0.2532918453216553
0.027099870145320892
0.5423475503921509
-0.6049286127090454
-0.48970237374305725
-0.6805633306503296
-0.7542626857757568
-0.38118380308151245
-0.3319419026374817
-1.389052391052246
-0.7755697965621948
0.3915178179740906
-0.940792441368103
0.22254498302936554
0.3183125853538513
0.21502640843391418
-0.14719931781291962
0.5163421034812927
0.38398244976997375
0.5873432159423828
0.500950276851654
0.5617285966873169
-0.07352187484502792
0.1603463739156723
0.18059657514095306
-0.3486265540122986
0.3092670738697052
0.11048310250043869
0.07993914932012558
-0.3975814878940582
-0.21671317517757416
0.05355755612254143
-0.0980406180024147
0.1952233463525772
0.5755992531776428
-0.38200652599334717
-0.6949324607849121
0.5037345886230469
0.04004836827516556
0.058594733476638794
0.3696850836277008
0.19237475097179413
-0.585404634475708
-0.04388953372836113
0.22859902679920197
-0.08964718878269196
0.15566708147525787
-0.038228269666433334
-0.02714896760880947
-0.019539931789040565
-0.2769680917263031
-0.19529813528060913
1.0936945676803589
-0.34183982014656067
-0.46698737144470215
0.011799165979027748
0.5900828838348389
-0.4138057827949524
0.3968868851661682
-1.0866773128509521
-0.6865965723991394
1.5613677501678467
-0.6175770163536072
-1.1754179000854492
-0.26075586676597595
0.7052565813064575
-0.7223520278930664
0.11245620995759964
-0.3182630240917206
-0.06205657869577408
0.723888635635376
0.15918868780136108
0.2700313925743103
0.3570766746997833
0.0863257348537445
0.6983000040054321
0.3176097869873047
0.8655462265014648
0.20804543793201447
-1.0277479887008667
0.17052322626113892
0.929363489151001
-0.3086104094982147
-1.3793455362319946
0.028972234576940536
-1.2149808406829834
-0.019554324448108673
-0.008172613568603992
-1.0545059442520142
-0.19354790449142456
0.09959083795547485
-0.14846545457839966
-0.4736211895942688
0.2027115523815155
-0.07483917474746704
0.30741003155708313
0.7649011015892029
-0.318947970867157
0.3113507032394409
0.4299669861793518
0.42063888907432556
-0.3123878240585327
0.5754905939102173
-0.012915436178445816
0.23661205172538757
0.1051812693476677
-0.3259044885635376
0.382099449634552
-0.184932142496109
-0.20810088515281677
0.19130536913871765
-0.034865185618400574
0.7243472933769226
-0.7830999493598938
-0.8131787180900574
0.9796007871627808
-0.08433864265680313
-1.1062120199203491
0.4028468430042267
0.5443912148475647
-0.5914686918258667
-0.1310671716928482
-0.38492557406425476
0.22112226486206055
0.5297438502311707
-0.5114166140556335
-0.4050122797489166
-0.13319085538387299
0.6346004009246826
-0.4457418918609619
-0.5048819184303284
0.891921877861023
0.024229753762483597
-0.7859547734260559
-0.1021965816617012
2.0798230171203613
-0.40890172123908997
-1.3662265539169312
1.2535080909729004
0.5809456706047058
0.3075608015060425
-0.192466139793396
0.30702605843544006
-0.5405842661857605
1.2306350469589233
-0.4152959883213043
-0.9565190672874451
0.19444359838962555
-0.36982855200767517
-1.1285401582717896
-0.11927102506160736
0.3795697093009949
-1.237210750579834
-0.5119185447692871
0.059865377843379974
0.2924235463142395
-0.3366769552230835
0.6601970195770264
0.29368364810943604
0.18914006650447845
0.27795636653900146
0.4943990111351013
-0.24753223359584808
-0.10192859172821045
1.2832590341567993
-0.4645945429801941
-0.26331356167793274
0.17205259203910828
-0.20930719375610352
-0.28656214475631714
1.2892978191375732
-0.36991679668426514
-0.4286192059516907
1.2362568378448486
-0.22531868517398834
-0.21204224228858948
0.04491107165813446
0.12164480239152908
-0.5227023363113403
-0.04614471644163132
0.28099915385246277
-0.47910812497138977
-0.8838100433349609
-0.045649897307157516
0.162130206823349
-0.04523545503616333
0.3666659891605377
-0.4382397532463074
-0.2595604658126831
0.17223888635635376
0.06590129435062408
-0.08233857154846191
0.3605305254459381
0.12738166749477386
-0.5223009586334229
-0.5768773555755615
1.1492105722427368
-0.23615580797195435
-0.001686267089098692
0.122673399746418
-0.20933151245117188
-0.17176295816898346
-0.19207535684108734
-0.057018157094717026
-0.04908812418580055
-0.22638772428035736
0.07967959344387054
0.31180092692375183
-0.024253133684396744
-0.036244913935661316
0.1219913586974144
0.127633199095726
0.1414327621459961
0.37061503529548645
0.29437756538391113
-0.13120774924755096
-0.655718982219696
-0.08870501071214676
-0.029554177075624466
0.009723394177854061
0.19673994183540344
-0.16055677831172943
0.14769037067890167
-0.2842298150062561
0.8764270544052124
0.015496782027184963
-0.2508990168571472
-0.10057906806468964
-0.1645917445421219
-0.07216064631938934
0.0594867579638958
-0.5173754692077637
-0.6694610714912415
0.24906231462955475
0.5353394746780396
-0.11847732216119766
0.20428533852100372
0.025613989681005478
-0.002220911905169487
0.22836650907993317
-0.19036918878555298
-0.02516041323542595
0.436431884765625
0.8801137804985046
0.13063910603523254
-0.2728539705276489
0.19284780323505402
-0.29936736822128296
-0.05212058871984482
0.007378670386970043
-0.36001095175743103
-0.6530382037162781
0.13839370012283325
-0.3201669752597809
0.020477689802646637
0.2818845212459564
0.2103029191493988
-0.123252734541893
0.056389786303043365
0.030716268345713615
-0.6141338348388672
-0.05846197530627251
0.13211430609226227
0.1581307202577591
-0.19978725910186768
-0.008560827001929283
-0.2133767455816269
-0.105075903236866
0.5328555703163147
0.0005396587657742202
-0.023595992475748062
-0.06349008530378342
0.285579115152359
-0.3395688235759735
-0.014330020174384117
0.09607133269309998
0.321819007396698
-0.12534204125404358
-0.10837677121162415
0.18414418399333954
-0.2792028784751892
0.020397579297423363
0.135698139667511
0.2839294970035553
-0.31701594591140747
-0.29639530181884766
-0.12061764299869537
0.23706164956092834
0.4374280571937561
-0.4439365267753601
0.11349038034677505
-0.08262728154659271
0.2510330379009247
0.17681443691253662
0.11972950398921967
0.23969903588294983
0.028596436604857445
-0.0857880488038063
-0.06469087302684784
0.01917499676346779
-0.12145382910966873
0.03790906071662903
-0.2372749298810959
-0.09724739193916321
-0.42480218410491943
0.9724593758583069
0.5822263956069946
0.009045128710567951
-0.1144108697772026
-0.10199446976184845
-0.24167825281620026
0.024878116324543953
-0.29751062393188477
-1.1093825101852417
0.16568312048912048
0.6062443852424622
0.10033918917179108
0.27244216203689575
0.2118331342935562
-0.01572083868086338
0.1570911705493927
0.0044314018450677395
-0.5362396836280823
0.16220498085021973
0.49700087308883667
0.2187623381614685
-0.4306942820549011
-0.193863183259964
0.006167755462229252
0.15442055463790894
0.3538467288017273
-0.44132938981056213
-0.9075220227241516
-0.09814290702342987
-0.253512442111969
-0.04387331381440163
0.14653807878494263
-0.07387100160121918
0.13882562518119812
0.2169967144727707
-0.1892128586769104
-0.5569807291030884
0.4955844581127167
0.3130798041820526
0.08540919423103333
-0.02283705212175846
-0.07350653409957886
-0.07150299847126007
-0.1014692634344101
0.12743014097213745
-0.17758309841156006
0.38403427600860596
-0.08768074959516525
-0.09820228815078735
0.002163739874958992
0.04561067372560501
-0.0001807895750971511
0.29366183280944824
-0.24999190866947174
-0.48808547854423523
0.2579517364501953
-0.09347909688949585
-0.0885128378868103
0.15139803290367126
0.2059422880411148
-0.14629344642162323
-0.07943742722272873
0.17526786029338837
-0.00407070480287075
0.21992996335029602
0.006842511706054211
-0.23046866059303284
0.018764151260256767
-0.3067408800125122
-0.017351295799016953
0.01134160254150629
0.7568814158439636
-0.06928497552871704
-0.7501892447471619
0.07705342769622803
0.4950981140136719
-0.24048134684562683
-0.03446843847632408
-0.10280846804380417
-0.20061099529266357
-0.27486905455589294
1.1370432376861572
-0.639955997467041
-0.48765572905540466
0.1878788322210312
-0.047188084572553635
-0.3391876518726349
0.7369058132171631
-0.2419116199016571
-1.609599232673645
1.1839470863342285
-0.11967360973358154
0.0949055477976799
0.14549832046031952
0.33767208456993103
0.10263373702764511
0.4263536036014557
0.34781205654144287
-0.6473249793052673
1.0870083570480347
0.28386837244033813
0.4888385832309723
-0.6294285655021667
-0.14276838302612305
-0.004968016874045134
-0.6320674419403076
-0.20342345535755157
-0.01613789051771164
-0.828841507434845
-0.643358588218689
-0.23706398904323578
-0.08627476543188095
0.368265837430954
0.28264835476875305
0.2870757281780243
-0.09731738269329071
0.6344600915908813
-0.21586792171001434
-0.005302027333527803
0.27417314052581787
0.17963829636573792
-0.13418765366077423
0.03432179242372513
0.03892411291599274
-0.39807435870170593
0.4648166596889496
0.2496790736913681
0.2196597307920456
-0.3830425441265106
-0.03875191509723663
-0.033195625990629196
-0.07399990409612656
-0.06067850440740585
0.1778150498867035
-0.08097424358129501
-0.4855937957763672
0.26961442828178406
0.0005980461719445884
0.058158550411462784
-0.08739855885505676
0.019095221534371376
0.03471844643354416
-0.013394649140536785
0.04380889981985092
-0.07127510011196136
-0.004023101646453142
0.01701686903834343
-0.057781364768743515
0.041651446372270584
0.033761534839868546
-0.009565443731844425
0.014153629541397095
-0.0010299531277269125
0.03362572193145752
0.03392806276679039
-0.04309074953198433
0.0023933378979563713
-0.06991032510995865
-0.027798255905508995
-0.031001543626189232
0.0048139821738004684
-0.06268087774515152
-0.02623186632990837
-0.03619324043393135
-0.04534865915775299
0.013061562553048134
0.017865847796201706
0.053538426756858826
-0.014662112109363079
-0.048728812485933304
-0.041963446885347366
-0.003324333345517516
0.0398319736123085
0.028269005939364433
0.012659573927521706
-0.037222519516944885
-0.028597045689821243
-0.03683089092373848
0.0011722140479832888
-0.046727731823921204
-0.043428290635347366
-0.02130110003054142
-0.017864838242530823
-0.03732370212674141
0.02725560963153839
0.009824695996940136
0.038219429552555084
0.03588464856147766
0.0374513603746891
0.03220760077238083
-0.018953606486320496
-0.035985272377729416
-0.00144491798710078
0.023821253329515457
-0.04763760417699814
-0.04633034020662308
-0.006892759818583727
0.030493540689349174
-0.027751348912715912
-0.019521288573741913
-0.03593902662396431
-0.02734333835542202
-0.05543537065386772
0.025474462658166885
-0.040127675980329514
6.525912613142282e-05
-0.06426717340946198
-0.01815943233668804
-0.05984019115567207
0.03562333062291145
-0.05552026629447937
-0.03828249126672745
0.012654160149395466
0.007901578210294247
0.006585028953850269
0.008049044758081436
-0.04732806235551834
-0.003588345367461443
-0.04607796296477318
0.05533041059970856
-0.05455470457673073
-0.005596979521214962
-0.016358064487576485
0.018364645540714264
-0.0055749970488250256
0.04238864406943321
-0.05907272547483444
0.048979222774505615
0.054182957857847214
-0.03901166841387749
0.015602313913404942
-0.012357962317764759
0.04449416697025299
0.03396021947264671
-0.04526728391647339
0.014954554848372936
-0.060844384133815765
-0.033228274434804916
0.006266988348215818
-0.051354631781578064
-0.04511520639061928
-0.05298224091529846
0.04231208935379982
-0.0052609192207455635
-0.01254076138138771
-0.05033795163035393
-0.04732952639460564
0.04371096193790436
0.03186905384063721
0.023196367546916008
-0.01895824819803238
-0.038226332515478134
-0.016186237335205078
-0.06120925769209862
0.004930627532303333
0.008884591981768608
0.009334406815469265
0.02138771302998066
-0.007209315896034241
-0.04219052940607071
0.019819749519228935
-0.04154025763273239
0.042986154556274414
0.04070090129971504
-0.004171381238847971
-0.006365037988871336
0.045455802232027054
-0.051164884120225906
-0.05096495524048805
0.021740876138210297
-0.02067943848669529
-0.01504455879330635
-0.04944205656647682
0.009677122347056866
0.03951437026262283
-0.018382642418146133
-0.06956912577152252
-0.04560837149620056
-0.020764784887433052
-0.06239182502031326
-0.06143931299448013
0.054759491235017776
-0.043056733906269073
0.042407214641571045
-0.015758251771330833
-0.05553207919001579
-0.019020892679691315
-0.04873732849955559
-0.007812173571437597
-0.036797042936086655
0.0008904544520191848
0.03472694009542465
-0.03676505386829376
-0.00048325437819585204
-0.03171699121594429
0.010463962331414223
-0.01759614236652851
-0.039426349103450775
0.02690473385155201
0.05113869905471802
-0.04101603478193283
0.008262667804956436
-0.05106415972113609
0.008830247446894646
-0.05492565408349037
-0.03682345896959305
-0.02980143576860428
0.025916680693626404
-0.006032648961991072
0.04150205850601196
-0.0417916476726532
0.015552365221083164
0.038680870085954666
-0.057626791298389435
0.03568822517991066
-0.02531151846051216
0.020944692194461823
-0.026383621618151665
0.030818862840533257
0.03552878648042679
0.019054792821407318
-0.04491099715232849
0.04692203179001808
-0.008867040276527405
-0.03775074705481529
-0.04022199660539627
-0.015137321315705776
0.01508382335305214
0.009382783435285091
-0.0576145276427269
0.017851172015070915
-0.02822812646627426
-0.04380519315600395
0.04750972241163254
-0.04600284621119499
0.010856354609131813
0.040161602199077606
-0.06079934164881706
-0.037154365330934525
-0.009759978391230106
0.0039968849159777164
0.0056860847398638725
-0.06181773543357849
-0.06426046788692474
0.03409729152917862
-0.026245716959238052
0.022124620154500008
0.041044820100069046
-0.030502822250127792
0.0015589132672175765
-0.006535287015140057
-0.016023799777030945
-0.05193979665637016
-0.008393773809075356
0.015804782509803772
0.006517886649817228
-0.04452762007713318
0.04836900159716606
0.05348996818065643
-0.021291250362992287
0.014834648929536343
0.026187313720583916
0.0018902034498751163
0.022291479632258415
-0.06247440725564957
0.04740909859538078
-0.02528916299343109
-0.035546090453863144
-0.056977227330207825
-0.03817098215222359
-0.02510681189596653
-0.05988307669758797
-0.0133984899148345
-0.019752927124500275
-0.02117387391626835
0.05110970512032509
-0.06645027548074722
-0.04073586314916611
0.048221319913864136
-0.01957523636519909
-0.036082684993743896
-0.06070902198553085
0.04989926517009735
-0.2814071476459503
0.1347726732492447
-0.19480609893798828
0.027685534209012985
0.21447144448757172
-0.13811354339122772
-2.8715195655822754
1.8786603212356567
-1.070927619934082
0.09276334941387177
0.06891759485006332
0.11372095346450806
0.05910665541887283
-0.5483758449554443
-1.1066648960113525
-4.522922039031982
2.5083611011505127
-0.489458829164505
-0.05206594988703728
0.21789947152137756
-0.07768068462610245
-0.1414029598236084
0.07619206607341766
1.2041842937469482
1.7173484563827515
-1.2867873907089233
-0.9561963081359863
0.03027326613664627
-0.025320161134004593
0.016002194955945015
0.14109928905963898
-0.14880086481571198
-0.08020976185798645
0.1354123055934906
-1.1458425521850586
0.8836221694946289
0.008475239388644695
-0.04167180135846138
-0.1801428496837616
-0.06083401292562485
-0.21271811425685883
-0.24685432016849518
-0.12974585592746735
-0.43409910798072815
1.2773898839950562
-0.1350102424621582
0.29986098408699036
0.120974101126194
-0.041303109377622604
0.23464982211589813
0.25177904963493347
0.3810712695121765
0.21428798139095306
0.21991239488124847
0.1881742626428604
-0.17105065286159515
-0.20060595870018005
0.056683484464883804
0.19544515013694763
-0.42894822359085083
-0.2485561966896057
-2.614285469055176
-0.30804792046546936
-0.08337266743183136
0.0771244540810585
-0.10548008978366852
-0.1601586490869522
-0.09554439038038254
0.19745662808418274
0.3697885274887085
-1.1238248348236084
0.0026473309844732285
0.0059342775493860245
0.03195618465542793
0.044365547597408295
0.1632142812013626
-0.03633933514356613
-0.10261823982000351
-0.1250430941581726
-0.4098556339740753
-0.0400848463177681
0.015564560890197754
0.36874064803123474
-0.23256975412368774
-0.495341956615448
0.403222918510437
-0.42974480986595154
-1.5727728605270386
0.4172303378582001
0.27222928404808044
-0.06474610418081284
-0.087906613945961
-0.1135001927614212
0.23707939684391022
0.2843475937843323
0.4232960045337677
-2.5220460891723633
0.2764507830142975
-0.3282257914543152
-0.14141754806041718
0.12312626838684082
-0.10855119675397873
0.07126767188310623
-0.05535566061735153
-0.01239082682877779
-0.07687302678823471
0.0407949760556221
-0.12479279935359955
0.103033646941185
-0.14853200316429138
0.09286746382713318
0.43628454208374023
-0.016813332214951515
-0.6001884937286377
-0.8394550085067749
-1.320364236831665
0.012054379098117352
0.06400137394666672
-0.3036118447780609
-0.14776110649108887
0.11534333974123001
-0.13648506999015808
-0.1858941614627838
-0.19127562642097473
-0.13145695626735687
0.20482686161994934
-0.2308509200811386
0.2832236588001251
0.1312810182571411
-0.18169355392456055
0.17329266667366028
0.1802341341972351
0.5711134672164917
-1.028215765953064
-0.36286744475364685
0.09496036916971207
-0.0515376552939415
0.17931225895881653
0.15265555679798126
0.13329380750656128
-0.6058469414710999
-0.21682430803775787
-0.8351423740386963
-0.10541719943284988
-0.21389906108379364
0.17590932548046112
-0.16711948812007904
-0.11407337337732315
-0.12296561896800995
0.2536377012729645
0.2822771370410919
-5.0596489906311035
-5.208019256591797
0.05230194330215454
0.0811978206038475
-0.11963631212711334
0.09494271874427795
0.032073765993118286
-0.12492795288562775
-0.14043523371219635
-5.829094409942627
-5.511364936828613
-0.279249906539917
-0.014712458476424217
0.20551273226737976
-0.060608040541410446
-0.005229522008448839
-0.8639842867851257
-1.7770369052886963
1.438030481338501
-0.2548118233680725
0.316915363073349
-0.3304423689842224
-0.12561625242233276
0.08478672057390213
0.3013211488723755
1.3867098093032837
-2.4909908771514893
1.4755035638809204
-0.5038284063339233
-0.22624419629573822
0.030924424529075623
-0.17440299689769745
-0.10614225268363953
-0.24212311208248138
0.40010368824005127
0.9555182456970215
0.0453529953956604
0.31506046652793884
0.3743434548377991
-0.0962221771478653
0.22628673911094666
0.24115723371505737
-0.1243545264005661
-0.2775949537754059
-0.052711691707372665
-1.2050248384475708
0.5272442698478699
0.18359339237213135
-0.2850280702114105
-0.0018535160925239325
0.19252638518810272
-0.04154108837246895
-0.15752507746219635
0.30380696058273315
-1.1752357482910156
-0.2463436871767044
-0.3244907855987549
0.17503142356872559
0.09507130831480026
-0.22030289471149445
0.06936673074960709
0.0045269024558365345
0.3553292155265808
0.34653839468955994
-0.5592840313911438
0.22985327243804932
-0.07666190713644028
0.05532609671354294
-0.07217586785554886
0.09332096576690674
-0.6980859041213989
-0.1650848537683487
2.6330442428588867
0.9993743896484375
-0.10101699084043503
-5.8634246670408174e-05
-0.07293593883514404
0.07739365845918655
-0.040778644382953644
0.2719290256500244
0.40295088291168213
-3.8520236015319824
-0.8991310596466064
0.06840282678604126
-0.08578229695558548
0.007102802395820618
0.0824221596121788
-0.047359950840473175
-0.11186904460191727
-0.07404059171676636
-3.476846694946289
-0.9840757846832275
-0.09433265030384064
0.32513222098350525
-0.20879095792770386
-0.329937219619751
-0.18494345247745514
0.31419500708580017
0.23693948984146118
-0.35302141308784485
0.20267844200134277
0.0682564452290535
-0.17256033420562744
-0.1399441361427307
0.07839056104421616
0.023053767159581184
0.3580765724182129
0.021660080179572105
-0.41090479493141174
0.00934937596321106
0.37984800338745117
0.038339998573064804
-0.22819985449314117
0.9388625621795654
-0.21000804007053375
-0.12444208562374115
-0.08499804139137268
0.9409500956535339
-0.16691283881664276
-0.14023932814598083
-0.3450569212436676
-0.6112223267555237
0.6047984957695007
-0.7050215601921082
-0.662844717502594
-0.6334944367408752
0.6582828760147095
-0.39128559827804565
-0.1607123464345932
0.16996654868125916
0.15424621105194092
0.01109328493475914
-0.22924461960792542
-0.02629108354449272
-0.2884078323841095
0.5671370625495911
-0.07738372683525085
-0.07519719004631042
0.05313782021403313
0.6095287799835205
-0.03821200132369995
0.7341508865356445
0.6553145051002502
-0.015345025807619095
-0.306435763835907
0.3502208888530731
0.10940182954072952
-0.17868629097938538
-0.0034554852172732353
-0.2148621678352356
-0.42613109946250916
0.6248244047164917
-0.31896379590034485
-0.7020485401153564
0.2794380486011505
0.25806692242622375
-0.2115912288427353
-0.07506157457828522
-0.006326606497168541
0.04492936283349991
-0.02637932077050209
0.05060495436191559
-0.152238130569458
-0.04541149362921715
-0.24958832561969757
0.1378372609615326
-0.0010921041248366237
-0.1610097885131836
-0.08948313444852829
0.4369300603866577
0.10163100808858871
0.06023658439517021
-0.325107604265213
0.10271777957677841
0.15801380574703217
-0.5545105934143066
0.5270761251449585
-0.5297704339027405
-0.23621156811714172
0.27124273777008057
0.30811360478401184
-0.10640197992324829
0.4092444181442261
-0.030525317415595055
-0.3090350925922394
0.6462130546569824
-0.44680944085121155
0.35392752289772034
0.18080392479896545
-0.11990486830472946
-0.16552996635437012
0.010235493071377277
-0.2019176483154297
-0.20236200094223022
0.8922907710075378
-1.1199485063552856
0.06570155173540115
-0.206412211060524
0.724855899810791
-0.18550020456314087
-0.3668580949306488
0.14555251598358154
-0.4011722505092621
0.3060174286365509
-1.8597500324249268
-0.3035949766635895
-0.33036917448043823
0.2775823771953583
-0.4111933410167694
0.06117129325866699
0.5240853428840637
0.24822227656841278
0.31125158071517944
-0.4534223973751068
0.9890145659446716
0.3061531186103821
0.42254120111465454
0.35010814666748047
-0.18754491209983826
0.12212477624416351
0.1885005086660385
0.1311122477054596
0.09816836565732956
0.8567795753479004
-0.4564761817455292
-0.47448039054870605
0.40320777893066406
-0.20412185788154602
-0.06017201766371727
0.028059296309947968
0.4216717779636383
-0.7871983051300049
0.2700370252132416
-0.4383246600627899
-0.7911494970321655
0.4856662452220917
0.12818403542041779
-0.41778892278671265
-0.16059266030788422
0.2761973440647125
-0.42852750420570374
-0.1353977620601654
0.35610058903694153
-0.38405728340148926
0.4469144344329834
-0.054002903401851654
0.29252299666404724
0.11403018981218338
0.3385462164878845
-0.31118786334991455
0.15134204924106598
0.0008069799514487386
-0.4776284098625183
0.19203834235668182
-0.41802141070365906
-0.010026060976088047
0.1501571238040924
0.23180866241455078
-0.09528566151857376
0.1605602502822876
0.2262735515832901
0.12918514013290405
-0.4214242398738861
0.2554529011249542
0.08959026634693146
0.13549593091011047
-0.33310818672180176
-0.5774796605110168
0.23971547186374664
-0.10167079418897629
0.05513199791312218
0.3325842022895813
0.051358964294195175
-0.38205069303512573
-0.11851362138986588
-0.02607850544154644
0.3492666184902191
-0.43152740597724915
-0.2870520055294037
0.07203632593154907
-0.20148096978664398
0.3266363739967346
0.07103496044874191
0.35125303268432617
0.26567551493644714
-0.6177063584327698
0.33759599924087524
-0.033274225890636444
0.1351722776889801
0.11180462688207626
0.3690807521343231
-0.33507686853408813
-0.16449373960494995
0.1940840631723404
-0.5573721528053284
0.523894190788269
-0.2619860768318176
0.35734885931015015
-0.18508388102054596
-0.3726222515106201
-0.12901419401168823
-0.20810076594352722
-0.03805915638804436
0.0948534831404686
0.470967173576355
-0.19007466733455658
0.29563209414482117
-0.37146520614624023
0.021802248433232307
0.4995708167552948
0.16732555627822876
0.3562706410884857
-0.46973323822021484
-0.032620370388031006
0.015226204879581928
-0.14766721427440643
-0.050122737884521484
0.2399086356163025
-0.048853181302547455
-0.22627708315849304
0.27006420493125916
-0.4237135946750641
-0.37138959765434265
0.5471102595329285
0.049124717712402344
0.11429327726364136
-0.10558003187179565
-0.1471090465784073
-0.14887253940105438
0.21344849467277527
0.2854216396808624
0.21646860241889954
-0.2615046799182892
-0.4485384225845337
0.4549306333065033
0.04370001703500748
-0.023053666576743126
-0.0891074538230896
0.0793415829539299
-0.008585812523961067
-0.14247353374958038
0.1382235884666443
-0.13680829107761383
-8.509343147277832
-0.01907757669687271
0.02144312672317028
0.047785110771656036
0.09142827987670898
0.059693142771720886
-0.05782437324523926
0.06686607748270035
-0.0920194759964943
-10.804832458496094
-0.09374944120645523
0.1094377189874649
-0.15252211689949036
0.030096231028437614
-0.0799771323800087
-0.040261171758174896
-0.12562040984630585
0.10719423741102219
-9.970240592956543
0.016495587304234505
0.07064058631658554
-0.1089993342757225
0.03113996982574463
0.051300887018442154
-0.06373729556798935
0.11138394474983215
0.2270752638578415
-6.74948787689209
-0.018306918442249298
0.09053098410367966
-0.04103076085448265
0.04145247861742973
0.009892890229821205
-0.12809407711029053
0.003942497074604034
-0.048895422369241714
-3.418199300765991
0.00824703462421894
-0.03434595465660095
-0.1286364644765854
-0.0429680161178112
0.08312410116195679
-0.014357589185237885
0.1915985494852066
-0.389883428812027
-8.933502197265625
0.06688452512025833
0.02706410363316536
-0.05665687844157219
-0.11556027084589005
0.40304452180862427
0.6187682747840881
0.8682897090911865
-0.7674063444137573
-11.614762306213379
-0.06547120958566666
-0.0818309634923935
0.03146280348300934
0.16150586307048798
-0.2743517756462097
-0.5472552180290222
-0.8691537976264954
-7.980972766876221
-0.47112196683883667
-6.896905422210693
-4.784687042236328
-2.4814937114715576
-2.286407470703125
-1.8930208683013916
-2.532635450363159
-5.722896099090576
-0.941252589225769
0.02018272876739502
-0.006900019943714142
-0.03796655684709549
-0.05073394253849983
-0.0034326401073485613
0.049732815474271774
-0.05479317530989647
-0.04173393175005913
0.14168371260166168
-6.112610340118408
0.0021640683989971876
-0.05892634019255638
0.13495244085788727
0.010103891603648663
0.08822383731603622
0.0010463816579431295
0.0028714302461594343
-0.04199076443910599
-8.05508041381836
0.03558095172047615
0.04791673645377159
-0.046706583350896835
-0.12395051121711731
-0.05493536219000816
-0.0021839856635779142
-0.11323906481266022
-0.018603380769491196
-6.920260429382324
-0.043829165399074554
0.015748754143714905
-0.01819373108446598
-0.0630713626742363
0.15415531396865845
0.04049425944685936
0.15338492393493652
0.12089473754167557
-3.9997451305389404
-0.07986371219158173
0.11825928092002869
0.061994217336177826
0.002374290721490979
0.09656356275081635
0.018183566629886627
-0.0954432412981987
0.21482422947883606
1.3016422986984253
-0.09411975741386414
0.1104864552617073
0.04561038315296173
-0.23910674452781677
0.012700889259576797
-0.17102143168449402
-0.44464120268821716
0.13893868029117584
-0.37399354577064514
-0.09881962835788727
0.12056969106197357
0.14355884492397308
-0.018645333126187325
0.32915955781936646
0.3097367584705353
-0.045084137469530106
0.033224642276763916
-3.7590980529785156
-0.00591407623142004
0.06605726480484009
0.16761861741542816
-0.23583070933818817
-0.20328541100025177
0.04318442940711975
0.2445037066936493
-6.679785251617432
0.0160827673971653
-8.921015739440918
-4.686163902282715
-1.961884617805481
-1.6488598585128784
-0.7976624369621277
-1.1194759607315063
-5.347705841064453
-1.4448668956756592
-0.018176626414060593
-0.05744873359799385
0.07540825754404068
-0.011347783729434013
0.0156560018658638
-0.04111142456531525
-0.08074212074279785
-0.038891974836587906
0.037791673094034195
-7.962586402893066
0.013532564975321293
0.06592312455177307
0.0028103624936193228
-0.13349489867687225
0.04653149098157883
0.1874249428510666
0.12091278284788132
-0.11040142178535461
-6.838770866394043
0.0794251337647438
-0.051249291747808456
0.04376104846596718
0.05394427105784416
-0.038524411618709564
-0.12959840893745422
-0.06387375295162201
-0.0018868129700422287
-3.665679454803467
-0.0674128383398056
-0.2537979483604431
0.12677159905433655
0.050397202372550964
-0.02574874833226204
-0.07477282732725143
0.029496151953935623
-0.02089734934270382
-2.0768556594848633
0.09911110252141953
-0.04178580641746521
0.07392814755439758
-0.08953116089105606
0.1459907740354538
0.11409595608711243
0.013597419485449791
-0.14764979481697083
-0.014749692752957344
0.17084573209285736
-0.031788092106580734
-0.020702015608549118
-0.34071478247642517
0.20259083807468414
0.10937100648880005
-0.5026085376739502
0.3683531582355499
0.9921637773513794
-0.07419902086257935
-0.13483494520187378
0.16792990267276764
-0.2427218109369278
0.626890242099762
0.6866409182548523
-0.3319222927093506
0.2877475917339325
0.5527110695838928
0.09918628633022308
0.0047646197490394115
-0.19072946906089783
-0.159515842795372
-0.18492832779884338
0.22452814877033234
-0.3393230736255646
-3.2554666996002197
-0.052543360739946365
-5.9515180587768555
-2.7899842262268066
-1.0806132555007935
-0.5982363224029541
-1.216644048690796
-2.325610637664795
-5.790029048919678
-0.6774635314941406
0.011003969237208366
0.004486406221985817
0.1415497064590454
-0.17032845318317413
-0.05609048902988434
-0.1831887662410736
0.17588435113430023
-0.02458464913070202
-0.06871607899665833
0.11103077977895737
0.3353351652622223
0.1582300066947937
-0.27495142817497253
-0.10425329953432083
-0.1791400909423828
0.21642372012138367
-0.03765861690044403
-0.10754086822271347
-0.14528918266296387
-0.1253402829170227
0.27428507804870605
-0.14452670514583588
-0.03907086327672005
-0.10842482000589371
-0.28688257932662964
-0.3120836913585663
-0.163456991314888
-0.08130642771720886
-0.23325778543949127
0.10225844383239746
0.11376935988664627
-0.11261453479528427
0.013688798993825912
0.22349412739276886
0.35959213972091675
0.3828074336051941
0.17856556177139282
-0.16556772589683533
-0.3916032016277313
0.03567279130220413
0.30064234137535095
0.026879113167524338
-0.05729660391807556
-0.06469571590423584
-0.23292522132396698
-0.027180416509509087
0.2563192844390869
-0.10761982947587967
0.48605862259864807
0.6971820592880249
0.15758563578128815
0.4014245271682739
0.09866072237491608
0.1766558587551117
0.07074975222349167
0.21285195648670197
-0.4056369960308075
-0.2805148661136627
0.18140961229801178
-0.49254530668258667
0.09706387668848038
-0.33002951741218567
0.005736743565648794
0.06325411796569824
-0.2586860656738281
0.18391866981983185
0.05592932552099228
0.1663946956396103
-0.05189674720168114
0.2402852326631546
-0.15757377445697784
-0.25087156891822815
-0.000724137295037508
-0.07984939962625504
-0.03952101245522499
-0.029831241816282272
0.08921857178211212
-0.06159769371151924
-0.18214784562587738
0.08060774207115173
-0.16340652108192444
0.17403428256511688
0.062725730240345
0.3450658917427063
-0.005884640384465456
0.18409596383571625
-0.07077406346797943
-0.30325713753700256
-0.2135525643825531
0.6131759881973267
0.11128199845552444
-0.19252026081085205
0.024360721930861473
-0.266300767660141
0.19993856549263
-0.19173187017440796
-0.06994283199310303
-0.023022131994366646
0.17865228652954102
-0.29432910680770874
-0.41895726323127747
0.43555140495300293
0.12635299563407898
0.11658585071563721
-0.0266462042927742
-0.6069169640541077
-0.6054890751838684
-0.2824627161026001
-0.35948503017425537
-0.21676082909107208
0.25761255621910095
0.2651895582675934
0.1390620321035385
0.4578312635421753
0.23730003833770752
0.136050283908844
0.4268663823604584
0.03051600232720375
-0.12807247042655945
-0.7850980162620544
-0.21992067992687225
0.29960402846336365
0.3783692419528961
-0.13501425087451935
-0.20330506563186646
-0.26038482785224915
-0.5823166370391846
0.2306610643863678
-0.45142602920532227
0.3153686821460724
0.5815650820732117
0.6214908957481384
0.5614979863166809
0.2683994174003601
0.42621785402297974
-0.19484493136405945
0.10649599134922028
-0.6111778020858765
-0.4531458020210266
-0.05427024886012077
0.003274498274549842
0.21379251778125763
-0.01085957232862711
0.17862321436405182
0.010628772899508476
0.1475178748369217
0.002036383841186762
-0.4672466218471527
-0.23499605059623718
0.036403439939022064
0.043648526072502136
0.07785336673259735
-0.11583081632852554
0.05570545792579651
0.6519970297813416
-0.12126420438289642
-0.519282877445221
0.07316014915704727
0.18982097506523132
-0.3023357391357422
0.18032389879226685
-0.12915582954883575
0.4761451780796051
-0.29792124032974243
0.2395297884941101
0.18733839690685272
-0.4621720612049103
-0.12374354898929596
-0.5161533355712891
0.17525999248027802
-0.08356819301843643
-0.0905078575015068
0.09761611372232437
-0.18914803862571716
0.12158047407865524
0.1314712017774582
0.6671836376190186
0.0914611667394638
0.6958212852478027
-0.10582786053419113
-0.11905772984027863
0.17982767522335052
0.25370684266090393
-0.04718529433012009
-0.07950165122747421
0.5293232798576355
-0.7798815369606018
-0.2725655436515808
0.22169210016727448
0.2713497579097748
-0.09288372099399567
0.11380466818809509
-0.37042561173439026
-0.5329515933990479
0.3823283910751343
-0.20763187110424042
0.4945125877857208
0.4579163193702698
0.07410712540149689
0.168351948261261
-0.330500066280365
-0.40933096408843994
-0.3157748579978943
-0.18255160748958588
-0.6460981369018555
-0.18139909207820892
-0.5552184581756592
-0.2211727648973465
0.3672862648963928
-0.13892750442028046
0.6530125737190247
0.3113217353820801
0.020975586026906967
0.2652592062950134
0.2722485065460205
-0.025171058252453804
0.27045291662216187
0.16528722643852234
-0.2145799994468689
0.5538656711578369
-0.3522185981273651
-0.5611264705657959
0.008034849539399147
-0.47340646386146545
0.05625930055975914
-0.22790290415287018
-0.3951783776283264
0.29838648438453674
0.48878014087677
-0.17936444282531738
0.01435716263949871
0.5921686291694641
0.04378948733210564
0.4086461365222931
0.024228762835264206
-0.25469112396240234
-0.002359967678785324
0.13461127877235413
0.12765122950077057
-0.10080138593912125
-0.3600750267505646
0.17101232707500458
-0.09633620828390121
-0.2782410681247711
-9.304910659790039
-4.265763759613037
-6.822198390960693
-4.852189540863037
-3.8702263832092285
-2.985914707183838
-4.727774620056152
-8.131382942199707
-13.732202529907227
-1.3879636526107788
-2.190765857696533
0.4112060070037842
-0.20154830813407898
-0.2880784869194031
0.09485311061143875
-0.11714852601289749
-0.017235958948731422
-0.08107225596904755
0.02152605541050434
0.052087392657995224
0.018049253150820732
-0.09614964574575424
0.5022991299629211
0.23420590162277222
0.03461295738816261
0.03765227273106575
0.09104299545288086
-0.03532005846500397
-0.042031656950712204
-0.03990501910448074
-0.10383627563714981
-0.02204860933125019
-0.15542566776275635
0.07335830479860306
-0.018402045592665672
-0.06249253824353218
0.048515841364860535
-0.010720664635300636
-0.1035749763250351
0.06970719993114471
-0.10772234946489334
-0.1603931039571762
-0.06049403175711632
-0.07196008414030075
0.00708608515560627
-0.0617247149348259
0.08226276189088821
0.09407545626163483
0.275799036026001
0.0021923568565398455
0.06665176153182983
0.13288770616054535
0.05663424730300903
0.012150594964623451
-0.05010712891817093
0.08360643684864044
-0.12613433599472046
0.0020395603496581316
0.056159310042858124
-0.059065788984298706
0.03620016202330589
0.06060493364930153
-0.02463514916598797
0.04353001341223717
-0.07427886128425598
-0.05119296908378601
-0.057034194469451904
0.04858527332544327
-0.11459768563508987
-0.05895819887518883
0.06690549850463867
-0.06842760741710663
0.004348044283688068
0.045887406915426254
-0.00693358201533556
0.05016067996621132
0.029655911028385162
-0.008844067342579365
0.04563435539603233
-0.04045893996953964
0.02080807089805603
-7.239994525909424
-5.817289352416992
-6.825571060180664
-5.682912826538086
-4.331178188323975
-2.3782966136932373
-4.359266757965088
-6.295694351196289
-14.035799980163574
-6.962834358215332
-0.2042151689529419
0.2372993528842926
-0.6162018775939941
-0.5017237067222595
-0.06717880070209503
-0.2675536870956421
-0.027169594541192055
0.11173777282238007
-0.009317376650869846
0.006639659404754639
-0.034909721463918686
-0.22186250984668732
0.6505813002586365
0.5167717933654785
0.2627715766429901
-0.23614227771759033
0.05094009265303612
0.0636768490076065
0.035983480513095856
-0.05495335906744003
-0.1153535321354866
0.08277744799852371
0.11968039721250534
0.23830363154411316
-0.1545887291431427
-0.02808583714067936
-0.02261979691684246
0.10267511010169983
-0.16290165483951569
0.02094535529613495
-0.10389916598796844
-0.10976991057395935
0.042854953557252884
-0.21939417719841003
-0.023911181837320328
-0.023715799674391747
0.0485769584774971
0.009038771502673626
0.2822314500808716
0.05224230885505676
0.10808803141117096
0.20223373174667358
-0.0739637017250061
0.1648286134004593
-0.09088297188282013
0.012615218758583069
-0.1619252860546112
0.04815959185361862
0.011385253630578518
-0.15362292528152466
-0.02608170360326767
-0.09938855469226837
-0.008812367916107178
0.06599869579076767
0.008541055023670197
-0.0031885814387351274
-0.012881450355052948
0.04514153674244881
-0.030141450464725494
0.09572706371545792
-0.07160715013742447
0.05825920030474663
-0.037818461656570435
0.00529955979436636
0.06999441981315613
-0.07130035012960434
-0.01150287315249443
-0.06575443595647812
0.10926415026187897
-0.07803399115800858
0.00908694602549076
-13.323651313781738
-6.744942665100098
-4.659088611602783
-2.5006659030914307
-2.058612823486328
-1.4821993112564087
-3.022733688354492
-2.1270365715026855
-4.818492412567139
-10.608250617980957
-9.88266372680664
0.4336022436618805
-1.012644648551941
-0.41760727763175964
0.2612050175666809
0.34993448853492737
-0.22168241441249847
-0.06975230574607849
0.09967990964651108
-0.17956982553005219
0.3861888647079468
0.4487343430519104
0.8339308500289917
-0.032736826688051224
-0.5738617777824402
0.12060821801424026
0.020697107538580894
-0.07455991208553314
-0.14631469547748566
0.05366755276918411
0.08287852257490158
0.03618738055229187
-0.10324599593877792
-0.30182579159736633
0.23906661570072174
-0.018344184383749962
0.08649002760648727
-0.0347469337284565
-0.15338841080665588
0.08838316798210144
-0.10168442875146866
0.1096968948841095
-0.14224617183208466
0.17581990361213684
-0.07605453580617905
-0.07122012227773666
0.09713747352361679
-0.021685926243662834
0.20738181471824646
-0.1297130137681961
0.18996743857860565
0.0323641337454319
0.1480593979358673
-0.015574903227388859
-0.0194416381418705
0.11028659343719482
-0.18857429921627045
-0.05941510200500488
0.0028124088421463966
-0.016154998913407326
-0.22869150340557098
-0.03077365830540657
-0.09718059748411179
0.020042670890688896
-3.521570761222392e-05
0.10067667812108994
-0.07997650653123856
0.043973732739686966
0.093103788793087
-0.03977937251329422
0.16290226578712463
0.06448247283697128
0.02038048394024372
-0.11310063302516937
0.11778781563043594
-0.045755695551633835
-0.028288353234529495
0.023851098492741585
-0.08172613382339478
0.02898603118956089
-0.04487839713692665
-0.04519616439938545
-0.019451487809419632
0.03502902016043663
-0.002200676593929529
-0.03911702707409859
0.038963742554187775
0.01268022321164608
-0.00011725996591849253
-0.02536824531853199
-0.034304071217775345
-0.017418550327420235
0.027550984174013138
-0.014569570310413837
-0.026963748037815094
-0.049860406666994095
-0.03062322363257408
-0.0030443158466368914
-0.054685886949300766
-0.024297302588820457
-0.06874307245016098
-0.06267787516117096
-0.022963179275393486
-0.06733451783657074
-0.06600982695817947
0.02584971860051155
-0.00044623008579947054
0.051504164934158325
0.016211042180657387
-0.048542823642492294
0.027758125215768814
-0.03903001919388771
-0.0638657957315445
-0.0026479132939130068
0.016330203041434288
0.00981037225574255
0.04463111609220505
0.02654324471950531
0.003404675517231226
-0.0655805915594101
0.009490341879427433
-0.05172932893037796
-0.007928411476314068
0.012157153338193893
-0.007725891191512346
-0.005198413040488958
-0.009783550165593624
-0.05429968610405922
-0.056070249527692795
-0.05569205805659294
0.04968160018324852
-0.006437323987483978
0.016217108815908432
-0.03825659304857254
-0.043647680431604385
0.00338640040718019
-0.03728647530078888
0.0551944263279438
-0.05470334738492966
-0.0636117085814476
0.048725616186857224
0.01242846343666315
0.0154903344810009
-0.015943964943289757
0.04157078638672829
-0.013896065764129162
0.018870705738663673
-0.04660062491893768
0.02745768055319786
0.0432317852973938
-0.045428596436977386
-0.01079113781452179
-0.05132763087749481
-0.029062584042549133
0.03874906525015831
0.04682226851582527
0.012800822034478188
-0.033313121646642685
0.04188033938407898
-0.035218603909015656
0.038142867386341095
-0.07036568224430084
0.03073115646839142
-0.06378213316202164
-0.005951581057161093
-0.05586261674761772
-0.010651081800460815
0.0009245147812180221
-0.01231501717120409
0.03521839529275894
0.021017268300056458
0.02035413309931755
0.03924044594168663
-0.06590866297483444
0.019160978496074677
0.010902296751737595
0.047273170202970505
0.04405362531542778
-0.019568463787436485
0.023000506684184074
-0.037896528840065
0.04258350655436516
-0.05440842732787132
-0.04215799644589424
-0.007778675761073828
0.000981612945906818
-0.034590791910886765
0.040892425924539566
-0.029977085068821907
-0.0057596322149038315
0.008849923498928547
0.01848895475268364
0.05241452157497406
0.005508313421159983
0.013133919797837734
0.05349768325686455
0.02133520320057869
-0.04165012016892433
-0.06792265921831131
-0.01606053113937378
-0.02524043619632721
-0.05439437925815582
0.0018291202140972018
-0.04287458211183548
0.008204581215977669
0.05538689345121384
-0.07027789950370789
-0.047621775418519974
0.024415316060185432
-0.06323622167110443
0.050440289080142975
-0.05873503535985947
-0.06050047650933266
0.013651520013809204
0.002274617087095976
-0.028888288885354996
0.03463999554514885
-0.031229102984070778
-0.01735137216746807
0.02490314282476902
-0.04164401814341545
-0.02678084187209606
0.04278978705406189
-0.03899141028523445
0.01854010485112667
-0.06574542820453644
0.005093638319522142
0.04595224931836128
0.014391914010047913
-0.029193321242928505
0.047927096486091614
-0.0015223377849906683
0.009902896359562874
0.03678545728325844
-0.06145500764250755
0.027605168521404266
0.0044061592780053616
0.032640885561704636
-0.04682435095310211
-0.004351938609033823
-0.008818256668746471
-0.009605933912098408
-0.06091093644499779
-0.043408624827861786
-0.02399381622672081
-0.03539714962244034
-0.02102016657590866
-0.0017238925211131573
-0.05915466696023941
-0.056529588997364044
-0.06184091418981552
-0.019061461091041565
0.017835797742009163
0.017307482659816742
0.000279437517747283
0.014384598471224308
-0.05489177256822586
-0.03791074454784393
-0.06695158779621124
-0.030875874683260918
0.0230594202876091
-0.06678233295679092
-0.06284797191619873
0.027394674718379974
-0.06387984752655029
-0.0540926456451416
0.03687748685479164
0.012135091237723827
-0.06488583236932755
-0.02144383080303669
-0.03633448854088783
0.0409516766667366
0.054599061608314514
0.026642022654414177
0.01833934523165226
0.026652200147509575
-0.01830321177840233
0.01615859754383564
-0.012013936415314674
-0.05723610892891884
-0.037720028311014175
0.0004290815268177539
0.03796715289354324
0.050281185656785965
-0.05275820195674896
-0.06423971056938171
-0.005177770275622606
-0.06677208095788956
0.028706587851047516
0.02674989402294159
-0.039964284747838974
-0.02093316800892353
0.004962678533047438
0.046632152050733566
0.008202379569411278
0.03282226622104645
0.0464307963848114
0.0013322386657819152
-0.061615899205207825
-0.04394996911287308
-0.05862615630030632
0.01123679056763649
0.04161754250526428
-0.014205217361450195
0.024339910596609116
-0.04182986915111542
-0.003656732151284814
0.010029863566160202
-0.008186000399291515
-0.009385007433593273
-0.04302051290869713
0.0004191650077700615
-0.045115046203136444
0.025323789566755295
0.03702457249164581
-0.011912261135876179
-0.00026230979710817337
-0.07323569059371948
-0.028820591047406197
0.03250778838992119
-0.028142984956502914
-0.05259566754102707
-0.03394637256860733
0.012348116375505924
-0.2333838939666748
-0.029748016968369484
0.37112128734588623
0.4288969337940216
-0.09916584193706512
0.019009774550795555
-0.23847271502017975
-0.10596475750207901
0.05296429991722107
-0.010621568188071251
-0.25777366757392883
-0.03439158573746681
-0.5599279999732971
0.09413278102874756
0.6616260409355164
0.2516763508319855
0.11909570544958115
0.17064169049263
0.04442716762423515
-0.3007967174053192
0.1814582198858261
0.08479902148246765
-0.8460640907287598
-0.41786596179008484
-0.047630902379751205
-0.2856256067752838
-0.214598149061203
0.38750919699668884
0.3141181766986847
0.4943428635597229
0.5717881917953491
-0.7239693403244019
-0.37029168009757996
0.16132164001464844
0.03123156726360321
-0.008960837498307228
-0.034182094037532806
-0.36903026700019836
-0.6969484090805054
1.226486325263977
-0.15073677897453308
-0.17075420916080475
-0.08437483757734299
0.09644421190023422
0.3220309615135193
-0.023087065666913986
0.2912343442440033
-0.6731711626052856
0.5942456722259521
0.36357998847961426
-0.38165754079818726
-0.05033089965581894
-0.08350870758295059
0.019801631569862366
-0.23436960577964783
0.1876276582479477
-0.31276437640190125
0.3084185719490051
0.2482166886329651
-0.1921558678150177
0.22529107332229614
0.09317339211702347
-0.12141193449497223
0.13730789721012115
0.017090115696191788
0.17961691319942474
0.2801598012447357
-0.2910715341567993
-0.10645158588886261
-0.05960464850068092
-0.15564218163490295
-0.003196684643626213
-0.0593397282063961
0.1525876820087433
-0.43581897020339966
0.2221609354019165
-0.017054660245776176
0.02861551009118557
0.22570964694023132
0.03426726534962654
-0.16654638946056366
0.25997620820999146
-0.14180085062980652
-0.006111722905188799
0.029200049117207527
-0.34021899104118347
0.29905611276626587
-0.1374162882566452
0.061469703912734985
-0.2467736452817917
0.16580705344676971
-0.04890495166182518
-0.06315212696790695
-0.5757213234901428
0.048312749713659286
0.5719366073608398
0.0016938322223722935
0.047027524560689926
-0.028232192620635033
-0.1118091568350792
-0.1632067859172821
0.18872448801994324
0.11453044414520264
-0.8564061522483826
-0.30336645245552063
0.23441995680332184
0.30791527032852173
0.08616895228624344
0.09070560336112976
0.42619913816452026
0.6132279634475708
0.06917773932218552
-0.8630325794219971
-0.4923579692840576
0.1697792261838913
0.2916592061519623
-0.15728388726711273
-0.18047231435775757
-0.49417179822921753
-0.04155975580215454
0.6975714564323425
-0.5999674201011658
-0.27100852131843567
-0.13034148514270782
0.06505361944437027
0.0645337700843811
0.021812226623296738
0.22423714399337769
0.5712891221046448
0.8247979879379272
0.4307730197906494
-0.3344408869743347
0.02090328559279442
-0.36451801657676697
-0.1352090984582901
-0.2685339152812958
-0.1293245255947113
0.021454371511936188
0.5756010413169861
0.19099374115467072
-0.4570937752723694
0.11426206678152084
-0.017954284325242043
0.036461956799030304
0.20241454243659973
0.0046372669748961926
-0.16079382598400116
-0.07896114885807037
-0.41783881187438965
0.11627940088510513
0.008905988186597824
0.11877302080392838
0.09578859806060791
-0.13992707431316376
-0.09604537487030029
-0.37086358666419983
0.4822109639644623
0.17876149713993073
0.09450779855251312
-0.11596238613128662
0.0641399472951889
-0.19691801071166992
-0.01973658800125122
-0.28015562891960144
0.364656925201416
-0.154168501496315
-0.4255162477493286
-0.022690478712320328
0.30151042342185974
-0.028249042108654976
0.23849543929100037
0.2523968815803528
-0.18722353875637054
-0.6222218871116638
-0.19506403803825378
0.6597455739974976
0.6112698316574097
-0.3648155927658081
-0.10311547666788101
-0.17252090573310852
0.27686813473701477
0.1078779399394989
0.17819349467754364
0.5529873371124268
-0.7205570936203003
0.5420540571212769
-0.39961156249046326
0.13488410413265228
0.3286553919315338
-0.1254490166902542
0.14538593590259552
-0.017842916771769524
0.26747557520866394
-0.916925847530365
-0.4596160054206848
-0.0496642030775547
0.3343190550804138
-0.36759650707244873
-0.2151779681444168
-0.5941365957260132
-0.3543298542499542
0.22887282073497772
0.5514220595359802
-0.7378731369972229
0.15026246011257172
0.5250768065452576
-0.12231557816267014
0.54646235704422
0.8757432103157043
0.38186341524124146
0.1429257094860077
0.9606722593307495
-0.35892733931541443
0.2938677966594696
-0.20903581380844116
-0.20529162883758545
-0.5051133036613464
-0.0006533262203447521
-0.22405560314655304
-0.47487837076187134
0.2791122794151306
-0.40695470571517944
0.08980758488178253
-0.3281448483467102
0.15368343889713287
-0.029811250045895576
-0.1093907430768013
0.009156753309071064
-0.5556838512420654
-0.20982509851455688
0.33684489130973816
0.30575230717658997
0.01162773184478283
0.12473434209823608
0.045100800693035126
0.20114268362522125
-0.004752762615680695
0.5382562279701233
0.13643738627433777
-0.241493359208107
-0.0599244050681591
-0.5380735397338867
0.36140963435173035
0.041997358202934265
-0.1680951565504074
-0.08169787377119064
0.6774242520332336
-0.16166655719280243
-0.30632078647613525
0.20068058371543884
0.13639181852340698
-0.2882234454154968
0.11148353666067123
-0.02700815163552761
-0.04014163091778755
0.05669185146689415
-0.5145379304885864
0.14799419045448303
0.08179756253957748
0.008207621052861214
0.06487681716680527
-0.4647810459136963
-0.25190213322639465
-0.6074324250221252
-0.11008958518505096
0.11651032418012619
0.2723252773284912
0.17901884019374847
-0.14797770977020264
-0.023970169946551323
0.2659429907798767
0.11995792388916016
0.3703504204750061
1.0868347883224487
0.046611346304416656
-0.08908090740442276
-0.25832921266555786
-0.0787108913064003
-0.0262933149933815
-0.038604043424129486
0.038368139415979385
-0.1586572527885437
0.15279392898082733
-0.431959331035614
-0.154692143201828
-0.2501307427883148
0.22024008631706238
0.009867116808891296
0.016831284388899803
0.3729197084903717
0.02256646752357483
0.10694300383329391
-0.848311185836792
0.1727384775876999
0.2466498613357544
0.30305030941963196
0.059817902743816376
0.26808059215545654
-0.30683761835098267
0.040347494184970856
0.3439042568206787
-0.2648807168006897
0.15963149070739746
-0.1676066666841507
-0.32878461480140686
0.12312204390764236
-0.050690073519945145
0.07347075641155243
-0.06321253627538681
0.05380009114742279
0.0013267239555716515
0.17138658463954926
-0.20846283435821533
0.027085252106189728
0.07676983624696732
-0.2160000205039978
0.079935722053051
-0.0351899191737175
0.15340931713581085
-0.2390851527452469
-0.08842024207115173
0.31614068150520325
-0.10360995680093765
-0.06299939006567001
0.24892930686473846
-0.19342471659183502
-0.12736190855503082
0.5018380284309387
-0.5106618404388428
0.1845361292362213
0.23216219246387482
-0.08371144533157349
0.10167699307203293
-0.08192669600248337
-0.040172383189201355
0.07195603847503662
-0.018060067668557167
-0.3801596760749817
0.45316433906555176
-0.1515457034111023
-0.14824612438678741
0.05306876078248024
-0.16033731400966644
-0.2140059471130371
0.07967250794172287
0.4664755165576935
0.1826096922159195
0.45069923996925354
0.07938335090875626
0.08629367500543594
-0.024129541590809822
0.47675153613090515
-0.1031736508011818
0.4978087842464447
1.200654149055481
0.062101613730192184
-0.1199379488825798
-0.3266617953777313
0.0859818235039711
-0.36895498633384705
-0.06776730716228485
-0.1666385978460312
-0.15682196617126465
0.3181574046611786
-0.8762177228927612
-0.4062456488609314
-0.6044749617576599
0.3352985680103302
-0.13419026136398315
-0.47568413615226746
0.5551725029945374
-0.2602904736995697
-0.1569916307926178
-1.5193697214126587
0.17770324647426605
-0.16370587050914764
-0.07910667359828949
-0.07961425930261612
0.03424469009041786
-0.014263465069234371
-0.03098156303167343
0.3724890649318695
-0.49481871724128723
0.6954684853553772
0.16803941130638123
-0.20837870240211487
0.5554609298706055
-0.1584705412387848
0.07156110554933548
-0.009835838340222836
0.2628835439682007
-0.29614612460136414
0.40716803073883057
-0.052202463150024414
-0.18414746224880219
-0.03821609914302826
0.2772553265094757
0.15203380584716797
-0.3042965531349182
0.027855096384882927
-0.4998347759246826
0.08239369839429855
0.13776418566703796
0.17962691187858582
0.03806073218584061
-0.028278404846787453
-0.014571521431207657
-0.36395809054374695
0.20046812295913696
-0.2747776508331299
0.2973442077636719
-0.1725349724292755
-0.12895618379116058
0.07565215229988098
-0.08686348050832748
0.3898344933986664
0.04323621094226837
-0.19542035460472107
-0.30886730551719666
0.6964492797851562
-0.002269301563501358
-0.21915559470653534
0.24736014008522034
-0.0005480792024172843
-0.1707809716463089
-0.3321954309940338
-0.004106931854039431
-0.10492871701717377
0.01691344380378723
-0.018380887806415558
0.03153253346681595
0.1900918036699295
0.20923615992069244
-0.1729072481393814
0.47219642996788025
1.2145754098892212
0.7333394289016724
0.3052242398262024
0.14745309948921204
-0.10269361734390259
-0.29554426670074463
-0.0797048807144165
-0.3795851171016693
-0.2994886338710785
0.7024416923522949
-0.9351109266281128
-1.1578220129013062
-0.5476155877113342
0.40766558051109314
0.2791653871536255
0.06879737228155136
0.5025773048400879
-0.7301991581916809
0.24336256086826324
-1.088354468345642
0.5716426372528076
-0.47769856452941895
-0.003957551904022694
-0.5007427334785461
-0.006620920263230801
0.2265874147415161
-0.11615971475839615
0.48744505643844604
-0.3356945514678955
0.15226414799690247
-0.12146567553281784
0.2526578903198242
0.03645419701933861
-0.21512366831302643
0.0689048171043396
-0.23334404826164246
0.3662306070327759
-0.03740512579679489
0.1779651641845703
0.0418873131275177
0.07524695247411728
-0.27306506037712097
0.15243443846702576
-0.08481410145759583
-0.14349611103534698
0.2957073748111725
-0.07971613854169846
-0.1912175416946411
-0.011301849037408829
-0.0588664673268795
0.3488549292087555
-0.006595735903829336
0.06028999015688896
-0.1179652288556099
-0.1674654185771942
0.11601818352937698
-0.002979417098686099
-0.011491648852825165
-0.04821036756038666
0.10844141989946365
-0.01167528796941042
-0.022662706673145294
0.09801308065652847
0.1090855821967125
-0.046331360936164856
0.1892136037349701
0.1673937737941742
0.050243500620126724
-0.16037686169147491
0.02728179469704628
0.070835642516613
-0.030114443972706795
0.1228143572807312
-0.15329550206661224
-0.421796590089798
-0.15639711916446686
0.0033760888036340475
-0.08138948678970337
-0.038390785455703735
-0.046410564333200455
-0.18680714070796967
0.01760905049741268
0.06627009809017181
-0.0016277760732918978
-0.19228488206863403
0.1981152892112732
0.024842338636517525
0.1475413292646408
-0.11372137814760208
0.3406083285808563
0.07645218819379807
-0.27424749732017517
0.12090209126472473
0.08921924978494644
0.06341767311096191
0.04707058146595955
0.021385665982961655
-0.2535635232925415
0.3761998414993286
0.20271019637584686
0.015348240733146667
0.02052801288664341
0.0623866505920887
-0.00305799744091928
-0.034363966435194016
-0.06055394560098648
-0.18776865303516388
-0.00983367208391428
-0.08087979257106781
-0.13313813507556915
0.15368498861789703
-0.0979650467634201
0.1131504699587822
0.10464727878570557
-0.06073959916830063
0.06736050546169281
-0.08434548228979111
0.14373768866062164
-0.013612079434096813
0.08300624042749405
-0.21064388751983643
-0.16892528533935547
0.022747304290533066
0.016759658232331276
0.008344743400812149
0.02075476571917534
-0.09934693574905396
0.0023612622171640396
0.09817025810480118
-0.026874948292970657
-0.022171687334775925
0.03723442181944847
-0.03413129225373268
0.10857848823070526
-0.009882324375212193
-0.024542905390262604
0.10031708329916
0.1350041776895523
0.002062103943899274
0.04659565910696983
0.02274823933839798
-0.1251753568649292
0.1120937392115593
0.03653959557414055
0.0032863873057067394
-0.28666746616363525
-0.03613317385315895
-0.003929615952074528
-0.0796063095331192
-0.08809187263250351
-0.1765078455209732
0.11338792741298676
-0.1815607249736786
-0.12474516034126282
-0.03133255988359451
0.07672076672315598
0.18338856101036072
-0.1987149864435196
-0.037782296538352966
-0.018124962225556374
0.09927742928266525
-0.05983075499534607
-0.005469962023198605
0.3077462911605835
0.530091404914856
0.31152477860450745
0.11584500968456268
0.040679335594177246
0.13608181476593018
-0.03357764333486557
0.03319088742136955
-0.2515607178211212
-0.27308884263038635
0.1860310435295105
0.20273500680923462
-0.09358977526426315
-0.038330141454935074
0.1556665450334549
0.09028035402297974
0.014074605889618397
-0.19428609311580658
0.01143967267125845
-0.12100936472415924
-0.19716747105121613
-0.18026159703731537
0.016834767535328865
-0.1062576174736023
0.30072128772735596
-0.2548736333847046
-0.3732161521911621
-0.11228885501623154
-0.030101876705884933
-0.2687930762767792
0.03754430636763573
0.09594935923814774
-0.15323695540428162
0.09266861528158188
0.16690433025360107
0.31728237867355347
0.056658532470464706
0.05227220430970192
-0.04473109543323517
0.13080066442489624
-0.07410775870084763
-0.0020800819620490074
0.04826100170612335
-0.12238685041666031
-0.05335098132491112
0.10289112478494644
-0.05181363224983215
-0.03460734337568283
0.034930068999528885
0.10104648768901825
-0.08249588310718536
0.047654468566179276
0.040183909237384796
-0.12022453546524048
0.1514139026403427
-0.12048130482435226
-0.11049537360668182
0.03792211785912514
-0.06289548426866531
0.2510596811771393
-0.01841110922396183
-0.024717191234230995
-0.1517801582813263
-0.05447234958410263
0.10675098747015
0.03686772286891937
-0.09791821986436844
0.15634630620479584
-0.09413980692625046
-0.13796763122081757
0.13773949444293976
0.17447805404663086
-0.0604497455060482
-0.05846118554472923
0.1498158872127533
-0.05116061493754387
0.09083554148674011
0.06642607599496841
-0.4513169229030609
0.3351224362850189
0.28931111097335815
-0.28011661767959595
-0.45446887612342834
-0.04211978614330292
0.16214801371097565
0.009734727442264557
0.19535242021083832
-0.3917146325111389
0.5883617997169495
0.3731154799461365
-0.4405265748500824
-0.4777878224849701
-0.1957971602678299
0.13240209221839905
-0.009043571539223194
-0.02789606899023056
-0.20345894992351532
0.34546688199043274
0.2531163990497589
0.4166647493839264
0.3285538852214813
0.09964816272258759
-0.0009283752297051251
-0.10215060412883759
-0.030564771965146065
0.14735840260982513
-0.339710533618927
-0.542278528213501
0.26945382356643677
0.28132399916648865
-0.132440984249115
-0.16728927195072174
0.043428052216768265
-0.05792069807648659
-0.03768739849328995
0.14708463847637177
-0.11974873393774033
-0.06337472796440125
-0.10181401669979095
-0.049833521246910095
0.07431988418102264
-0.02105102874338627
0.11918533593416214
-0.030582861974835396
-0.06593915820121765
-0.08943873643875122
0.2562113404273987
0.08556050062179565
-0.06605392694473267
-0.009146939031779766
-0.11651306599378586
-0.0005280377808958292
0.08892110735177994
0.03313043341040611
-0.13809630274772644
-0.031464625149965286
-0.09342493116855621
0.03833663463592529
-0.8418523669242859
-3.143972635269165
-0.04155390337109566
-0.04888893663883209
-0.010475272312760353
0.14676381647586823
0.0783010944724083
-0.011144682765007019
0.12598411738872528
-0.6381300687789917
-3.1009578704833984
-0.011601842008531094
0.015473336912691593
-0.1288863867521286
-0.06945047527551651
-0.07209421694278717
-0.1155734583735466
-0.011213259771466255
-0.9659833908081055
-2.969280481338501
0.11140661686658859
-0.015169055201113224
0.04333781450986862
0.0642547532916069
0.02471487782895565
0.040568623691797256
-0.027501922100782394
-0.97202068567276
-0.9791236519813538
-0.07927630841732025
-0.013925810344517231
0.007943925447762012
0.07751195132732391
-0.10348778963088989
0.04540977254509926
0.322819322347641
-0.453897088766098
0.3784847855567932
-0.07647731155157089
0.01358029991388321
-0.03458287566900253
-0.1855822205543518
-0.10911721736192703
0.0730319693684578
0.48954373598098755
-1.9993219375610352
-0.2323826104402542
0.054732147604227066
0.10550802946090698
0.0013795089907944202
-0.018517810851335526
-0.016809014603495598
0.38976845145225525
0.7008407115936279
-3.0545036792755127
-0.28724977374076843
-6.434288024902344
-8.106898307800293
-3.6836960315704346
1.3058497905731201
3.698317050933838
0.3992703855037689
-3.642624855041504
0.02141720801591873
-0.013943580910563469
-3.4489541053771973
-8.715324401855469
-6.441307067871094
1.0189688205718994
2.760714292526245
0.4224570393562317
-2.140559434890747
-0.06451153755187988
-0.11443277448415756
0.013739680871367455
-0.016284937039017677
-0.013332159258425236
0.011744578368961811
-0.12284357845783234
-0.053720470517873764
-0.003781253704801202
-2.254058361053467
-2.669922113418579
-0.0612991601228714
-0.010478364303708076
0.0915604829788208
0.15989629924297333
0.10363153368234634
0.04321105033159256
0.1701040118932724
-1.472802758216858
-2.5082969665527344
-0.01213806588202715
-0.008034568279981613
-0.06994353979825974
-0.04376145079731941
-0.13613609969615936
-0.12416335195302963
-0.06691288948059082
-1.2075427770614624
-2.394836187362671
0.2239292562007904
-0.01915411278605461
-0.029498988762497902
0.058634184300899506
-0.02700374275445938
0.008777245879173279
0.07161503285169601
-1.7695447206497192
-1.5072206258773804
-0.09354200214147568
-0.04679618403315544
-0.05903743579983711
0.1348918080329895
-0.12439873069524765
-0.13505491614341736
0.009947310201823711
-0.2638131082057953
-1.1473016738891602
-0.03500901535153389
-0.045213911682367325
0.03577212244272232
-0.04544354975223541
-0.20204107463359833
-0.28290224075317383
-0.044341664761304855
-0.738188624382019
-0.8643925786018372
0.10974720865488052
-0.06392528116703033
-0.03165566548705101
0.17815057933330536
-0.06759825348854065
-0.08763252198696136
0.087489053606987
-1.2396156787872314
-1.0482243299484253
-5.878655433654785
-9.254157066345215
-4.003917694091797
-0.1278640329837799
2.0244226455688477
-1.1773347854614258
-4.543266773223877
-0.004074953496456146
-0.0034229671582579613
-6.504837989807129
-12.069574356079102
-10.621480941772461
-1.022688627243042
0.24569351971149445
-4.844627857208252
-7.0687479972839355
0.27360373735427856
0.24914631247520447
0.05928836390376091
-0.11124549061059952
-0.029894636943936348
0.009159611538052559
0.0002101658028550446
-0.02173435315489769
-0.08661089837551117
-1.4366847276687622
-1.9355716705322266
-0.011251520365476608
0.03337709978222847
0.08328509330749512
0.018565000966191292
0.05687640607357025
0.26513537764549255
0.14928372204303741
1.0523428916931152
1.2265418767929077
-0.07435168325901031
0.08526366949081421
-0.052848417311906815
-0.17614033818244934
-0.17179305851459503
0.018977345898747444
-0.0753922238945961
0.07470423728227615
0.7634664177894592
0.0860484167933464
-0.02142171375453472
0.01908164843916893
0.004975535906851292
-0.03916710987687111
0.2562258541584015
-0.05663751810789108
-1.076416254043579
-0.3230479657649994
-0.14908209443092346
0.0288050789386034
0.03454713895916939
0.0937899500131607
-0.11908061057329178
0.18712547421455383
0.44075852632522583
-0.7664677500724792
-1.115294098854065
-0.03612230345606804
0.09530363231897354
0.05663289502263069
-0.07845723628997803
-0.09834230691194534
0.1949598789215088
0.49987536668777466
-0.25801023840904236
-0.651536762714386
0.006160334683954716
0.04201531782746315
-0.061671752482652664
-0.07442744821310043
-0.05397619679570198
0.47548913955688477
0.8957510590553284
-0.6944283246994019
-0.3749862313270569
-5.6080427169799805
-6.709737300872803
-2.9166479110717773
-0.09840003401041031
0.7865113019943237
-1.5993238687515259
-5.171431541442871
0.004548003431409597
-0.07078345865011215
-1.5955138206481934
-3.9991261959075928
-2.502331256866455
-3.374720573425293
-2.2355594635009766
-0.37291181087493896
-1.4897841215133667
0.16735555231571198
-0.10820004343986511
0.09378957003355026
-0.17622968554496765
-0.24349574744701385
0.4174520671367645
-0.06307259947061539
0.2828129529953003
-0.2789110839366913
0.14494691789150238
-0.17629209160804749
0.26095229387283325
-0.04070648178458214
-0.1559513658285141
-0.0458349883556366
-0.046924009919166565
0.43225735425949097
-0.38820961117744446
0.1679561734199524
0.034301288425922394
-0.11929988861083984
-0.3063533306121826
0.37058335542678833
0.23267647624015808
-0.9039880633354187
0.18637095391750336
-0.19655774533748627
0.014448937028646469
-0.03656933829188347
0.33515405654907227
-0.18609824776649475
0.35407885909080505
0.9379331469535828
0.10316859185695648
-0.34067848324775696
-0.046247780323028564
-0.1393253058195114
-0.09903142601251602
0.34448790550231934
-0.4605392515659332
-0.17634576559066772
0.5071702599525452
0.7995141744613647
1.0480910539627075
0.023600120097398758
-0.08005277067422867
0.11341845244169235
-0.48929286003112793
0.2712598145008087
-0.6826213598251343
-1.122789978981018
-1.1681323051452637
0.5506452322006226
0.0434378907084465
-0.1833454817533493
0.48033055663108826
-0.2612878680229187
0.5946512222290039
-0.49113306403160095
-0.03736928105354309
0.12064576894044876
0.5510326027870178
-0.4870116114616394
0.12973570823669434
-0.21115431189537048
-0.004091250244528055
0.15567287802696228
-0.21348008513450623
0.4221642315387726
0.038840342313051224
0.14074163138866425
-0.5218160152435303
0.02905564196407795
0.011831228621304035
0.1299218386411667
-0.060737039893865585
-0.08138787746429443
0.03626122325658798
-0.3574508726596832
0.5232236981391907
-0.0009597917087376118
0.09934225678443909
-0.23395965993404388
-0.0748925507068634
-0.21256595849990845
0.14974167943000793
0.30229461193084717
-0.4756156802177429
0.23616288602352142
-0.10425888001918793
-0.17576052248477936
0.16179676353931427
0.1361951380968094
-0.0038928615394979715
0.12174272537231445
-0.09736987948417664
-0.056170497089624405
0.5574491620063782
-0.22144655883312225
-0.08588062971830368
0.060496147722005844
0.121371790766716
-0.3083147704601288
0.2030286192893982
0.09863580763339996
-0.5202868580818176
0.5487640500068665
0.14826859533786774
-0.066404789686203
0.05706532672047615
0.058428872376680374
-0.39807090163230896
-0.39493468403816223
0.4902424216270447
0.20287229120731354
-0.18443825840950012
0.12178574502468109
-0.27942928671836853
-0.16483177244663239
0.23889322578907013
-0.3952641189098358
-0.35100817680358887
0.813596248626709
0.758664071559906
0.9241000413894653
-0.2067890465259552
-0.10719987750053406
0.017825620248913765
-0.35768547654151917
0.6029708385467529
-0.39592593908309937
-0.4797077178955078
-1.202924370765686
0.27112752199172974
-0.15106000006198883
-0.003131014294922352
0.3199276626110077
0.08890922367572784
0.645450234413147
-0.6832276582717896
0.2931746244430542
-0.3191075623035431
-0.16533765196800232
-0.4168195128440857
0.6318041086196899
-0.2943698465824127
-0.24388287961483002
0.1712666004896164
-0.6069667339324951
0.7564861178398132
0.1265271008014679
-0.0249850582331419
-0.2750474810600281
0.16594558954238892
-0.20772674679756165
-0.09619388729333878
0.21916475892066956
-0.24551090598106384
0.2858278751373291
-0.14164084196090698
0.20916995406150818
-0.3144548237323761
-0.1969725340604782
0.32775816321372986
0.21403934061527252
0.034845735877752304
0.074339859187603
0.16630518436431885
-0.486948162317276
0.34632349014282227
-0.06787852197885513
0.06541471928358078
-0.016299910843372345
-0.24486564099788666
-0.1408940851688385
-0.12869377434253693
-0.03782305493950844
0.20019011199474335
0.46100136637687683
-0.5431314706802368
-0.17202794551849365
-0.055491309612989426
-0.1990630328655243
0.12491285055875778
0.4438822269439697
-0.1372736245393753
-0.46926140785217285
0.32061833143234253
0.13847917318344116
-0.21198643743991852
0.13904616236686707
0.0938105508685112
0.15753073990345
0.06080169603228569
0.21845322847366333
-0.3898806571960449
-0.0120446952059865
0.09856770932674408
0.14119717478752136
0.2805139124393463
0.22065286338329315
-0.3694894313812256
-0.49010372161865234
1.2085360288619995
0.15441755950450897
0.5136620998382568
-0.40250933170318604
-0.04815463349223137
-0.12204017490148544
-0.5677554607391357
0.6945916414260864
-0.3432883322238922
-0.7246013879776001
-1.389589548110962
0.5457169413566589
-0.16078868508338928
0.08709647506475449
0.1340705156326294
0.18171155452728271
-0.18599116802215576
-0.16486144065856934
0.8904209733009338
0.24055008590221405
0.28682228922843933
-0.5065270066261292
0.24625925719738007
-0.3537328243255615
0.08747463673353195
0.06496483832597733
0.061326321214437485
0.1782103180885315
-0.22341787815093994
-0.3306736350059509
0.18957190215587616
0.10887349396944046
-0.0016560264630243182
-0.05203094705939293
-0.02364991419017315
0.037907037883996964
-0.14205656945705414
-0.19644294679164886
0.4170105755329132
-0.1862899363040924
-0.03385074436664581
0.0706760510802269
0.02587507665157318
-0.11526448279619217
-0.026151495054364204
-0.06202370673418045
-0.024368122220039368
0.1619361937046051
0.12056136131286621
0.047428056597709656
-0.05592736601829529
-0.009081718511879444
0.16624262928962708
0.14583338797092438
-0.1632707417011261
-0.05255453661084175
0.00870755035430193
-0.062084220349788666
0.038258522748947144
-0.020280737429857254
0.060474418103694916
0.21732454001903534
0.21934878826141357
-0.3045351207256317
-0.08310489356517792
-0.11030768603086472
-0.10745655745267868
-0.07440252602100372
-0.1783391237258911
-0.026556503027677536
-0.39809173345565796
-0.17670859396457672
-0.21968482434749603
-0.05377686023712158
-0.057076726108789444
0.04962960630655289
-0.02296907640993595
-0.10610663145780563
0.07839538902044296
-0.17797279357910156
-0.03406941890716553
0.004212162923067808
0.2237439602613449
-0.05506576970219612
0.08943182229995728
0.15696929395198822
0.09881165623664856
-0.024256905540823936
0.21139520406723022
0.18083342909812927
0.3696485161781311
0.6502524018287659
0.11393743008375168
-0.23191067576408386
-0.0583481565117836
0.10598990321159363
-0.009547509253025055
-0.08427206426858902
0.20464690029621124
0.09511050581932068
0.448384553194046
0.05342737212777138
-0.1564742624759674
0.13295935094356537
0.3232106864452362
-0.03260055184364319
-0.1052246168255806
-0.10298313945531845
-0.16329549252986908
-0.24608877301216125
-0.2716961205005646
-0.16387470066547394
0.1651221513748169
-0.08670959621667862
-0.05921559035778046
0.23304101824760437
-0.027190253138542175
-0.08140867948532104
0.14666134119033813
0.06481059640645981
-0.07746945321559906
-0.20187988877296448
0.01460330281406641
-0.0979708805680275
0.1591552197933197
0.02740474045276642
0.024759512394666672
0.015317982994019985
-0.11111024767160416
-0.007566908374428749
0.05067107453942299
-0.034978579729795456
0.07082758843898773
-0.028016092255711555
-0.20454537868499756
0.02533475123345852
0.10956856608390808
-0.0870395079255104
0.12821078300476074
-0.03227880969643593
0.00693963747471571
-0.08467873185873032
0.021193666383624077
0.2365628033876419
0.031947266310453415
0.1034189909696579
-0.061387985944747925
-0.10798060894012451
0.00310256308875978
-0.12593132257461548
0.00025206769350916147
-0.2723485231399536
0.24435095489025116
0.0809168592095375
-0.08444055169820786
-0.24159079790115356
0.265760213136673
0.02317332662642002
0.029361680150032043
0.10872872173786163
-0.022233493626117706
0.15043188631534576
-0.0656198114156723
-0.20378178358078003
-0.4123331904411316
0.28045210242271423
-0.012673434801399708
0.02821333333849907
-0.050627000629901886
0.13563749194145203
-0.15575829148292542
-0.1924239993095398
-0.04448261857032776
-0.23928038775920868
-0.0545467883348465
0.021547721698880196
-0.13627862930297852
0.08204253017902374
-0.055845361202955246
-0.08145947009325027
-0.2330315262079239
0.3762315511703491
0.4535708427429199
0.10712570697069168
0.04447869956493378
0.03333287686109543
0.02469828352332115
0.03204677626490593
0.04545426368713379
-0.010917670093476772
-0.02843726985156536
0.022061021998524666
0.0716606006026268
-0.002495011780411005
-0.11089228093624115
0.02069874480366707
0.19696268439292908
-0.17558306455612183
-0.10533644258975983
0.03774206340312958
-0.016476908698678017
-0.05495518818497658
-0.06131873279809952
0.15708626806735992
0.050863079726696014
-0.13762164115905762
0.024160435423254967
0.12925554811954498
-0.07294730842113495
0.08235370367765427
0.025105122476816177
-0.1659894585609436
0.10171590745449066
-0.0956478863954544
-0.10364871472120285
-0.07889769226312637
-0.06780935823917389
-0.17731156945228577
0.013198920525610447
-0.08716067671775818
0.12629486620426178
0.006399477832019329
0.13357169926166534
0.4352869689464569
0.2715946137905121
-0.1204218864440918
0.1487099677324295
0.05378490686416626
-0.16142739355564117
-0.1090673878788948
0.01289340015500784
-0.08982924371957779
-0.18568187952041626
-0.05931764096021652
-0.29845455288887024
0.1234661191701889
-0.002555790590122342
0.36318105459213257
-0.2559584975242615
0.3003414273262024
0.054218824952840805
-0.06437396258115768
-0.12482567876577377
-0.279980331659317
0.09877067059278488
0.3209060728549957
0.5078999996185303
-0.2090727537870407
-0.02282109670341015
0.010557091794908047
0.14656086266040802
0.08544085174798965
0.034474946558475494
0.055178988724946976
-0.17947763204574585
-0.014838152565062046
-0.3016704022884369
-0.15883131325244904
-0.054917749017477036
-0.058193761855363846
0.1851358562707901
-0.25182610750198364
0.23762156069278717
-0.125741109251976
-0.0968603789806366
-0.0010045019444078207
0.15520982444286346
0.026785554364323616
0.04290821775794029
0.3345014154911041
-0.12593701481819153
-0.23166567087173462
-0.19951191544532776
0.13005122542381287
0.04700935631990433
-0.11557339131832123
-0.07580433785915375
-0.09200805425643921
0.03726370632648468
-0.04677058011293411
0.2490314096212387
0.03384430706501007
0.030065907165408134
0.12320727854967117
-0.07339522242546082
0.056332629173994064
-0.0910138189792633
0.13702473044395447
-0.1457279473543167
-0.163380429148674
0.08284317702054977
0.04651094973087311
-0.07875803858041763
0.05799994245171547
-0.06661935150623322
-0.04884174093604088
0.04345034062862396
0.10232370346784592
0.37669041752815247
0.04455096647143364
-0.17229428887367249
0.07226572930812836
-0.12553717195987701
0.011300315149128437
0.09890201687812805
0.016121525317430496
-0.17576171457767487
-0.04701312631368637
0.008049927651882172
-0.3333970904350281
0.39744189381599426
-0.10013256967067719
0.010310963727533817
0.13480859994888306
0.03643953800201416
-0.3207043707370758
-0.0931510478258133
-0.06254512071609497
-0.37138015031814575
0.2214140146970749
0.13415807485580444
-0.09065955877304077
0.014404579997062683
-0.1796988993883133
-0.335387259721756
0.008905383758246899
0.4587918817996979
0.016516974195837975
-0.22657030820846558
0.02597990445792675
-0.09732218831777573
0.23313064873218536
0.24488721787929535
0.12159455567598343
0.189084991812706
0.686927855014801
0.3141700029373169
-0.18823274970054626
0.1127147525548935
0.12175091356039047
-0.14923185110092163
0.019695570692420006
0.00938985776156187
-0.1726360023021698
0.29691454768180847
0.029211388900876045
-0.3054421842098236
-0.1397482007741928
-0.06484640389680862
0.06476939469575882
0.07015060633420944
-0.35266855359077454
-0.18140459060668945
-0.13720150291919708
-0.28672778606414795
0.14766056835651398
0.19965286552906036
0.06470770388841629
-0.13520829379558563
0.004338574130088091
0.07284604012966156
0.07660067826509476
0.05195733904838562
-0.06779741495847702
0.10206755995750427
-0.1654621660709381
-0.025597084313631058
0.040873054414987564
-0.06304582953453064
0.028987515717744827
0.10278791189193726
-0.03803921118378639
0.02059623971581459
0.12301768362522125
-0.010026616044342518
0.010748088359832764
0.07409942150115967
-0.17461760342121124
-0.01480128150433302
0.037203919142484665
-0.2672266364097595
-0.21870115399360657
-0.016100864857435226
0.07690434157848358
-0.13854898512363434
-0.1258775144815445
-0.0947716161608696
-0.0910051241517067
-0.011346661485731602
0.018148235976696014
0.18502956628799438
-0.18176911771297455
-0.26288992166519165
0.023319853469729424
-0.023692617192864418
0.304008424282074
0.36737295985221863
0.35963135957717896
0.14238163828849792
0.3185396194458008
0.23832464218139648
0.16554442048072815
0.056147221475839615
-0.21137917041778564
-0.009200507774949074
0.14607945084571838
-0.17318668961524963
-0.18206670880317688
0.012674029916524887
-0.05869124457240105
0.012951551005244255
0.08617401868104935
-0.08796229958534241
-0.00891042035073042
0.23952901363372803
-0.47477635741233826
-0.6102539896965027
-0.271789014339447
-0.03011924773454666
-0.04409388080239296
0.25617721676826477
-0.208613783121109
-0.08218523114919662
0.343377947807312
-0.05680738016963005
-0.15070506930351257
-0.043190643191337585
0.2291688323020935
0.21126055717468262
-0.01651289127767086
0.1434982866048813
-0.23589719831943512
-0.09218005836009979
0.19662152230739594
0.1414603590965271
0.166418194770813
-0.17922429740428925
-0.11714569479227066
-0.14632944762706757
0.046576786786317825
0.146942600607872
-0.010593109764158726
-0.03863544017076492
-0.14124423265457153
0.2548167407512665
-0.16115880012512207
0.06843862682580948
-0.051906928420066833
0.08726456016302109
0.09814157336950302
-0.017594587057828903
0.011476845480501652
-0.01516343280673027
-0.07960648834705353
-0.0018581151962280273
-0.10151425749063492
0.04826149344444275
0.08947453647851944
-0.2913476228713989
-0.09006666392087936
0.18237195909023285
0.059399884194135666
0.14047960937023163
0.11671187728643417
0.12194252014160156
-0.022472597658634186
-0.15762288868427277
0.10236998647451401
-0.09077949076890945
-0.13791725039482117
-0.0832282081246376
0.17258484661579132
-0.16981668770313263
-0.006622725632041693
0.098360575735569
-0.04472252354025841
0.44210007786750793
0.2999904453754425
-0.052552737295627594
-0.15786713361740112
0.24124892055988312
-0.11170848459005356
0.0004969262517988682
0.033303096890449524
-0.12015466392040253
-0.26933398842811584
-0.35842588543891907
-0.24916225671768188
-0.059951167553663254
0.16859394311904907
-0.14270471036434174
-0.05018436163663864
-0.10534077882766724
0.2568231523036957
0.009298309683799744
0.024118125438690186
-0.36970266699790955
-0.06738236546516418
0.20760200917720795
0.09857124835252762
-0.05024324357509613
0.007355486508458853
-0.05572308227419853
0.20806631445884705
0.3761019706726074
-0.06513901799917221
0.1037783995270729
0.10754330456256866
-0.030275214463472366
-0.011351869441568851
-0.07154718786478043
0.011244963854551315
-0.06802888959646225
-0.022224821150302887
0.03802892193198204
0.04273300990462303
-0.045431818813085556
0.02384277991950512
0.043484754860401154
0.1419857144355774
-0.08882993459701538
0.028614893555641174
0.025397762656211853
-0.12093549221754074
-0.07209687680006027
0.10541179776191711
-0.07503136992454529
-0.004140564706176519
-8.05656623840332
-3.9620144367218018
-9.009880065917969
-6.203616142272949
-5.1050190925598145
-4.479100227355957
-6.756412982940674
-13.771089553833008
-16.11145782470703
-13.288253784179688
-7.139443397521973
0.5505978465080261
-0.30535611510276794
-0.19668908417224884
0.00885306391865015
-0.2559359669685364
0.06976421177387238
-0.06012650206685066
-0.09318579733371735
-0.06749080121517181
-0.1035739853978157
-0.07999788224697113
-0.18627262115478516
0.20122574269771576
0.21940819919109344
-0.1530628204345703
0.047158557921648026
0.07244012504816055
0.11432584375143051
0.25020843744277954
-0.042910609394311905
-0.1299886554479599
-0.06140516698360443
-0.026745356619358063
-0.07233882695436478
0.0017205433687195182
-0.04322144761681557
-0.06559976935386658
0.44119712710380554
0.12765155732631683
0.0850430503487587
-0.06422238051891327
0.06462863087654114
0.03150958567857742
-0.03560740128159523
0.007314021233469248
-0.08847645670175552
-0.0538318008184433
-0.09387583285570145
0.15631522238254547
-0.03776437044143677
-0.040913231670856476
0.07959847897291183
0.05629483610391617
0.0019731202628463507
0.005436035804450512
-0.05542797967791557
-0.028094347566366196
0.06362530589103699
-0.0019063996151089668
0.032013244926929474
-0.03913382068276405
-0.06311892718076706
0.027876809239387512
0.05824565142393112
0.02169770561158657
0.00811352115124464
-0.09556829184293747
-0.06318949162960052
-0.0213637575507164
0.04859210550785065
0.021022744476795197
-0.008615882135927677
-0.07508872449398041
0.028754685074090958
-0.005867189262062311
-0.02617388777434826
0.049674928188323975
0.08211921900510788
-0.037027787417173386
-0.03814355656504631
-0.911409854888916
-3.491406202316284
-8.393991470336914
-9.149703979492188
-7.928325653076172
-7.524292469024658
-9.843750953674316
-17.46298599243164
-28.32762908935547
-11.7317476272583
-8.5538330078125
-0.05817146971821785
-0.4660831093788147
0.016649393364787102
0.5336413383483887
-0.00029062048997730017
0.08816609531641006
-0.21879062056541443
0.13373856246471405
-0.0728793665766716
-0.4947580397129059
-0.10461251437664032
0.12473152577877045
0.27307021617889404
-0.09854655712842941
0.10075432807207108
-0.002386478940024972
0.14005663990974426
0.08815690129995346
0.1461194008588791
0.047827985137701035
0.260202020406723
0.1451438069343567
-0.1901816725730896
0.03906014561653137
-0.04653223231434822
-0.10395250469446182
-0.11560151726007462
0.368655800819397
-0.08937518298625946
0.006542866583913565
-0.08718034625053406
0.10946813225746155
0.08498240262269974
0.020402081310749054
-0.06428740173578262
-0.03580765053629875
-0.038094691932201385
-0.273916631937027
0.10701625794172287
0.07442067563533783
-0.03894302248954773
-0.049094606190919876
-0.029263900592923164
-0.021519716829061508
0.07364828139543533
-0.07877957820892334
0.03208272159099579
0.041201356798410416
0.1022280678153038
0.029460415244102478
-0.03615394979715347
-0.03552168235182762
-0.051332149654626846
0.07746067643165588
-0.029784981161355972
0.11594659835100174
-0.02943827584385872
-0.10063786059617996
-0.07041573524475098
-0.050464928150177
0.0853971540927887
0.01829437166452408
-0.042862869799137115
-0.020992837846279144
0.01953016221523285
-0.0319143645465374
0.0758202075958252
-0.0053749969229102135
-0.04440663754940033
0.0222772229462862
-2.0059471130371094
0.23202189803123474
-1.2550281286239624
-1.248630166053772
-1.2697147130966187
-1.3649016618728638
-2.803833246231079
-5.3620524406433105
-8.876636505126953
-10.297993659973145
-11.576272010803223
-0.17338602244853973
-0.5522912740707397
-0.5526910424232483
0.020609823986887932
-0.3580295145511627
0.177056685090065
0.09720989316701889
0.012778758071362972
-0.6393572092056274
0.35039272904396057
0.3909894526004791
0.23968110978603363
0.29956018924713135
-0.1936100721359253
-0.04927581548690796
0.053499478846788406
0.2819054126739502
-0.3202592730522156
0.8719217777252197
0.4460497498512268
0.41678518056869507
0.03520228713750839
-0.17755994200706482
-0.008330181241035461
-0.020197611302137375
0.07655800879001617
-0.45601558685302734
0.6292732357978821
-0.1830700933933258
-0.21375979483127594
-0.2447471171617508
-0.015412713401019573
0.11585072427988052
-0.003817825810983777
0.11850845068693161
-0.27609139680862427
-0.040658824145793915
-0.5960886478424072
-0.000891096715349704
-0.010048920288681984
0.04335273802280426
0.038882143795490265
-0.03434387966990471
-0.01727430894970894
-0.08330027759075165
0.18236970901489258
-0.04615166410803795
0.17571963369846344
-0.006598448846489191
0.008319157175719738
0.02354842983186245
0.02833930216729641
0.023192372173070908
0.030242474749684334
0.001516489777714014
0.20802569389343262
0.006306169554591179
-0.13055698573589325
-0.11511198431253433
0.08084744215011597
-0.014629772864282131
-0.026435960084199905
-0.007301427889615297
0.07105785608291626
-0.07389610260725021
-0.0025854420382529497
-0.054250314831733704
0.08785528689622879
0.03293033316731453
-0.06080455332994461
0.058251164853572845
-0.023235801607370377
-0.028795596212148666
0.08544699847698212
0.08230952173471451
0.00032323936466127634
-0.011303437873721123
-0.03508390858769417
-0.10397239029407501
0.06129180267453194
0.10534866899251938
-0.10455307364463806
-0.048241909593343735
-0.1357225626707077
0.010998123325407505
-0.022836854681372643
0.09715499728918076
0.1510564535856247
-0.04295341670513153
-0.08027604222297668
0.015078173950314522
0.1606188863515854
-0.08685114979743958
-0.07476642727851868
-0.10685396939516068
-0.030457753688097
0.13657277822494507
-0.029149958863854408
-0.13670563697814941
-0.05192361772060394
0.11229824274778366
-0.015079076401889324
0.04232195019721985
0.09138666838407516
-0.1724153757095337
-0.025097204372286797
-0.06657484918832779
0.0022142031230032444
0.041993994265794754
-0.08448527753353119
-0.16513144969940186
0.03535251319408417
0.13504476845264435
0.054578036069869995
0.019853902980685234
0.12646104395389557
0.026344003155827522
0.18985766172409058
0.11987869441509247
0.026934513822197914
0.06015053391456604
0.0482143834233284
-0.03736009821295738
0.03435753285884857
-0.01011375617235899
0.014777621254324913
0.10157173871994019
0.05828369781374931
0.05768154561519623
-0.01824329048395157
-0.09811964631080627
-0.14200568199157715
-0.03980294242501259
-0.07224834710359573
-0.06808648258447647
-0.06456242501735687
-0.21277524530887604
-0.16042403876781464
-0.0621718131005764
0.1108206957578659
0.10257209092378616
0.008075925521552563
0.06625987589359283
-0.11471054702997208
0.15567608177661896
-0.01724780537188053
-0.057101473212242126
-0.0069671617820858955
0.1433647722005844
0.0010764934122562408
-0.09400267899036407
0.06633003801107407
-0.08623635768890381
0.021252848207950592
-0.019073951989412308
-0.07263986766338348
0.11224307119846344
0.07090294361114502
-0.0784212127327919
0.0517895370721817
-0.08754731714725494
-0.031567975878715515
-0.0578065887093544
-0.12016887217760086
-0.11257300525903702
0.005784203298389912
-0.05068669840693474
-0.06303243339061737
-0.037991832941770554
-0.07911574095487595
0.004209099803119898
0.17819082736968994
0.254927396774292
0.19856207072734833
0.19254012405872345
0.15087884664535522
-0.22423867881298065
-0.028015142306685448
0.007981628179550171
-0.06782414764165878
0.040532566606998444
0.13165196776390076
0.21298712491989136
0.4169604182243347
0.33042141795158386
-0.05545882508158684
0.10062483698129654
-0.015500479377806187
-0.002162712858989835
-0.10408905148506165
-0.17536091804504395
-0.1421709805727005
0.17502433061599731
0.18844488263130188
0.04681853577494621
-0.04031118005514145
0.24527059495449066
0.12419095635414124
-0.05218910798430443
-0.041612908244132996
-0.005109001882374287
0.07216988503932953
-0.12843407690525055
-0.1261545717716217
0.03398406133055687
-0.02216598391532898
0.05368426814675331
0.017160221934318542
-0.11948328465223312
-0.001072599901817739
-0.0024923300370573997
-0.06367858499288559
-0.19040770828723907
-0.0817180946469307
-0.06274081021547318
0.012458902783691883
0.006804195698350668
-0.05717713013291359
-0.06926906108856201
-0.015023671090602875
0.06452994048595428
0.19149406254291534
0.02671823278069496
0.03576435521245003
0.009885234758257866
0.08382384479045868
-0.14926551282405853
0.038362666964530945
-0.010685048997402191
0.025101151317358017
-0.06997750699520111
0.00775957852602005
-0.039956655353307724
-0.08448223769664764
0.13215044140815735
-0.06417028605937958
-0.003624499775469303
-0.012571893632411957
-0.05575815588235855
0.023052867501974106
0.009290272369980812
-0.029037095606327057
0.0739603117108345
0.04217132553458214
-0.1149430125951767
0.05777251720428467
0.21955673396587372
0.13378266990184784
-0.009108658879995346
-0.10527073591947556
0.030802417546510696
0.06777305155992508
0.16505153477191925
-0.16469450294971466
-0.35800430178642273
-0.114206962287426
0.0759185329079628
-0.23297366499900818
0.04471197351813316
-0.016318488866090775
0.09598919004201889
0.06207772344350815
-0.1170138269662857
-0.16328687965869904
-0.010205116122961044
0.08043999969959259
-0.07998968660831451
0.10490570962429047
-0.15826334059238434
0.10668882727622986
0.10955619812011719
-0.10952845960855484
-0.2441769540309906
-0.2350693941116333
0.014741307124495506
0.17635616660118103
-0.03252075985074043
0.10338961333036423
-0.001408722484484315
0.07037340849637985
-0.06611648947000504
-0.0701853483915329
-0.11403504014015198
-0.015838656574487686
0.2038208693265915
-0.17928220331668854
-0.006690913811326027
-0.04704413563013077
0.08521450310945511
-0.06371577829122543
-0.021033592522144318
-0.12795697152614594
0.0692276656627655
0.06499936431646347
0.007651560939848423
-0.0064796991646289825
-0.04271624982357025
0.057715196162462234
-0.0017090595792979002
0.01868799887597561
-0.06353984028100967
0.11463199555873871
0.1271776556968689
-0.04135947301983833
-0.028340909630060196
0.0525762140750885
-0.03145305812358856
-0.03255997598171234
0.1836235076189041
-0.07285182178020477
-0.06371543556451797
-0.18859156966209412
0.10592958331108093
-0.07831724733114243
-0.05078785493969917
0.1745409518480301
0.146928608417511
0.05577689781785011
-0.31687813997268677
0.1640470176935196
-0.06460307538509369
-0.25861072540283203
-0.06578033417463303
-0.26376667618751526
0.10372146219015121
-0.1423570066690445
-0.12985821068286896
-0.04506278410553932
0.330710768699646
0.08613365143537521
-0.021321706473827362
0.20621201395988464
0.2407684475183487
-0.014841843396425247
0.03430875390768051
0.22341519594192505
-0.24159429967403412
0.24509453773498535
0.47198012471199036
0.21541135013103485
-0.001751825911924243
-0.07921801507472992
-0.19529475271701813
-0.1912335306406021
0.09125728160142899
-0.8951892256736755
-0.6730789542198181
-0.039636559784412384
