-0.333886057138443
-0.05175617337226868
0.12946806848049164
-0.16149112582206726
-0.01857856847345829
-0.11505664139986038
-0.03388005495071411
-0.038447555154561996
0.060335349291563034
0.1835409700870514
0.06068695709109306
-0.259661465883255
0.11610395461320877
-0.19416047632694244
-0.5100224018096924
0.16275165975093842
-0.07072403281927109
0.09405031055212021
0.20907863974571228
-0.21681182086467743
-0.20462456345558167
0.10286727547645569
-0.11269945651292801
-0.20239566266536713
-0.07348910719156265
-0.3501257598400116
0.10286128520965576
0.2102024257183075
0.0758068785071373
0.1705329269170761
0.11932568997144699
-0.0034635551273822784
-0.05235447734594345
-0.016916871070861816
0.1257331222295761
0.16270747780799866
0.056587569415569305
0.149971604347229
0.09021113067865372
-0.004805531352758408
0.1784621924161911
0.1860693246126175
-0.21805807948112488
-0.1611330658197403
-0.033786188811063766
-0.02595209889113903
-0.12283545732498169
0.09163858741521835
-1.4949451684951782
-0.2154608517885208
-0.2164873480796814
-0.020889313891530037
0.02593035250902176
0.0026775249280035496
-0.10711986571550369
-0.2977886199951172
0.2551724314689636
-0.4194660484790802
0.04431458190083504
0.11566058546304703
0.10038158297538757
-1.3565151691436768
-0.14974425733089447
-0.030661117285490036
-0.018205182626843452
0.04223915562033653
-0.0064592487178742886
0.00851465668529272
-0.035867176949977875
0.02007993310689926
-0.008340217173099518
0.11948806792497635
0.0024547188077121973
0.01075026672333479
-0.11309663951396942
0.010651439428329468
0.009998826310038567
0.010288347490131855
-0.15855135023593903
-0.0036533197853714228
-0.02163499779999256
-0.011390294879674911
0.06460237503051758
0.025030601769685745
-0.005936257541179657
0.09047898650169373
0.0037654261104762554
0.005029255524277687
0.037728190422058105
0.02727111615240574
0.06997125595808029
0.0005603536847047508
0.003347517689689994
-0.007361229043453932
0.004253564868122339
0.10163479298353195
0.011347883380949497
-0.03849321976304054
0.1650170534849167
0.01331479474902153
0.13839106261730194
0.3177540898323059
0.00025226210709661245
-0.07867911458015442
-0.006919010076671839
0.0018227120162919164
0.0109249884262681
-0.010625088587403297
0.002080396981909871
-0.0024673044681549072
0.03300344571471214
-0.0002201969182351604
1.0025635957717896
-0.002622958505526185
0.011910385452210903
0.0659307986497879
0.05675430968403816
-0.0014089831383898854
-0.002664789091795683
8.069875184446573e-05
-0.38578322529792786
-0.0068170479498803616
-0.0007568556466139853
0.03663533553481102
0.023690026253461838
0.3949851393699646
0.010503462515771389
-0.26243147253990173
-0.13071182370185852
-0.027997806668281555
-0.12377694994211197
0.07531866431236267
-0.0444672517478466
-0.46405264735221863
0.004596651066094637
-0.3456600308418274
-0.034283023327589035
-1.6829802989959717
-0.06134362146258354
-0.020872607827186584
0.0354144349694252
0.017248211428523064
0.2820720672607422
0.03199830278754234
-0.0522976890206337
-0.0014703070046380162
-0.9375429749488831
-0.04194086417555809
-0.10875365138053894
0.3768462836742401
-0.01755344867706299
0.022374963387846947
0.5617596507072449
0.010088888928294182
-0.057542722672224045
-0.037638574838638306
-0.12882083654403687
0.01554986834526062
0.2549683153629303
-0.061075013130903244
-0.07806295156478882
-0.09879658371210098
-0.2002640962600708
0.04225486144423485
0.4789721965789795
0.1990661323070526
0.010293045081198215
-0.06212786212563515
-0.022358834743499756
-0.03675978630781174
-0.18834151327610016
0.01150622870773077
-0.08272422850131989
0.021105805411934853
0.03739486634731293
-0.008416738361120224
-0.07280303537845612
0.02054673433303833
-0.004903858993202448
0.40882155299186707
-0.1439564824104309
0.0700240284204483
-0.02042955346405506
0.03822356462478638
-0.09760372340679169
-0.3475485146045685
-0.04365764930844307
-0.1397688090801239
0.023348843678832054
0.631431519985199
-0.012817789800465107
0.1047745794057846
-0.01545072440057993
-0.08076029270887375
-0.0065384781919419765
-0.00010482301149750128
-0.038085442036390305
-2.2344095706939697
0.010496805422008038
0.16980567574501038
-0.0014498007949441671
-0.111829973757267
-0.08166071027517319
-0.013839305378496647
0.003169819014146924
-0.028939003124833107
-0.1003991886973381
-0.014807822182774544
-0.08772961050271988
0.015543904155492783
0.16299735009670258
-0.17305155098438263
0.013463275507092476
0.06854891031980515
0.0076445359736680984
-0.004408161621540785
0.5671378970146179
-0.21438969671726227
-0.011632777750492096
-0.004129877779632807
-0.07748766988515854
0.004635959398001432
0.031802888959646225
0.03692811727523804
-0.11798928678035736
0.01904883235692978
0.05059066042304039
-0.0015327780274674296
-0.5233125686645508
0.2369847297668457
-0.0005660499446094036
0.07763281464576721
-0.013299909420311451
0.045620378106832504
0.07151539623737335
-0.0016687702154740691
0.016218852251768112
0.03970744088292122
0.017269043251872063
0.010254902765154839
-0.09003203362226486
0.0026171396020799875
0.00438975915312767
0.08620325475931168
-0.04902602359652519
0.44806817173957825
0.06742966175079346
-0.007411370053887367
-0.034747857600450516
-0.005685742013156414
0.0024692402221262455
0.06008829548954964
-0.13001202046871185
0.15977269411087036
0.06728360801935196
0.3832220137119293
-0.06470917165279388
-0.03399746119976044
0.031998664140701294
0.0026183384470641613
0.08814127743244171
-0.018978804349899292
-0.013179627247154713
0.6055371761322021
0.001477248384617269
0.12178252637386322
-0.05628883093595505
0.01287030428647995
0.010451081208884716
-0.0025110209826380014
1.0907360315322876
0.003120074514299631
0.0003188514383509755
0.01715025119483471
0.07886993139982224
0.0009382269345223904
-0.0046231988817453384
0.1253650039434433
0.001913617947138846
0.0019553133752197027
0.0031611837912350893
-0.01589088700711727
0.15654228627681732
-0.008914994075894356
-0.006484730169177055
-0.0006395232630893588
0.0027337612118571997
0.0896209254860878
0.15749405324459076
-0.006016463972628117
0.014962764456868172
0.0032561190892010927
0.2118263691663742
0.354977548122406
-0.0007491564610973
-0.11159968376159668
-0.00018743661348707974
0.03540053591132164
0.003520586295053363
-0.004454696085304022
0.0024717727210372686
-0.005289849825203419
0.16006319224834442
-0.0014588999329134822
0.5352972745895386
0.00846928171813488
0.00440458906814456
-0.007030169013887644
0.048942189663648605
0.07048234343528748
-0.012121149338781834
-0.0049200160428881645
0.6836211085319519
-0.0037541461642831564
0.0015156399458646774
-0.020484739914536476
-0.003034992143511772
-0.34844276309013367
0.001367296907119453
-0.17636939883232117
-0.13042888045310974
0.06765418499708176
-0.02756321243941784
0.011719402857124805
0.03943885117769241
0.24348466098308563
0.02066161297261715
-0.07182040810585022
-0.003582602832466364
0.26490336656570435
-0.011250044219195843
-0.006763139273971319
-0.016002211719751358
-0.04005037248134613
0.16523919999599457
0.011353781446814537
-0.04036359488964081
-0.08903516829013824
0.01112917996942997
-0.09482622891664505
-0.006615276448428631
-0.0011843282263725996
0.001994816353544593
-0.0033197144512087107
-4.01182222366333
0.09846854209899902
0.1827055811882019
0.0165762510150671
0.04494591802358627
0.024229029193520546
0.0003236791817471385
0.015956440940499306
-0.1063046008348465
-0.042071741074323654
-0.011988162063062191
-0.0005685914657078683
0.3072279095649719
0.013238159008324146
-0.008639788255095482
-0.20900586247444153
0.004614052828401327
0.029603471979498863
-0.06173955276608467
0.008048051968216896
0.007062168326228857
0.037735771387815475
0.06453214585781097
-0.00015976668510120362
0.12175150215625763
-0.011832159012556076
-0.01675267703831196
-0.09112291783094406
0.21300259232521057
0.07412094622850418
0.5124946236610413
0.0015052614035084844
0.24874529242515564
-0.005533379036933184
0.004916636738926172
0.05048314109444618
0.011757300235331059
0.08917322009801865
-0.06824153661727905
0.07678090035915375
0.23697245121002197
-0.0566767193377018
-0.4325135052204132
-0.05108017474412918
-0.043067120015621185
0.27829912304878235
-0.14886786043643951
-0.2824985980987549
0.08828079700469971
0.7802204489707947
-0.04095077887177467
0.05232304707169533
-0.020633386448025703
-0.07626421749591827
-0.2473323941230774
-0.23611825704574585
-0.3319784998893738
-0.13595962524414062
-0.14476773142814636
0.19978059828281403
0.14411614835262299
-0.22664496302604675
-0.23027698695659637
0.09180700778961182
0.24093730747699738
0.00012230024731252342
0.5485004782676697
0.017806600779294968
-0.2657325863838196
-0.10329107940196991
0.0662548616528511
-0.017095470800995827
-0.06350640207529068
0.1033732071518898
-0.3458210229873657
0.0013254113728180528
0.04768785834312439
-0.3007429838180542
0.10569281131029129
-0.5193698406219482
0.033739663660526276
-0.3328115940093994
0.064457468688488
-0.12493526935577393
0.05713818222284317
0.030652454122900963
-0.026183832436800003
0.01877206191420555
-0.06680216640233994
-0.36181381344795227
0.18158039450645447
0.13968481123447418
0.18643172085285187
-1.2347394227981567
0.1938854306936264
-0.108479343354702
0.10012809187173843
-0.6061718463897705
-0.011972647160291672
-0.2822188436985016
0.06464090943336487
0.13583210110664368
-0.06164644658565521
-0.04263566434383392
-0.548743724822998
-0.09218833595514297
0.3583911061286926
0.001716344733722508
-0.028005728498101234
-0.1583716720342636
-0.001269692787900567
0.29664015769958496
-0.022878143936395645
-0.24018895626068115
0.07761731743812561
0.002154287649318576
-0.0018370621837675571
-0.03346771001815796
0.39998236298561096
0.022846173495054245
-0.18220271170139313
-0.21897798776626587
-1.517804741859436
0.007255682721734047
-0.058913011103868484
0.5224074721336365
-0.017143527045845985
-0.0056696608662605286
-0.024475710466504097
0.007425463758409023
0.07286381721496582
0.01118182111531496
-0.08661050349473953
0.03550150990486145
0.15532705187797546
0.021056588739156723
-0.10405313223600388
-0.04269065335392952
-0.20799219608306885
0.012671089731156826
-0.49889713525772095
0.14853179454803467
-0.005801151506602764
-0.2796329855918884
-0.01648247428238392
-0.05966537445783615
0.024952098727226257
-0.051048435270786285
0.010312364436686039
0.0007537086494266987
0.10186012089252472
0.00548511603847146
1.1651087999343872
-0.008060043677687645
-0.009087814949452877
0.29492148756980896
-0.10470476746559143
0.12552781403064728
-0.13731326162815094
-0.006003925576806068
-0.6275209188461304
0.048087649047374725
0.0030600973404943943
0.16414214670658112
-0.07648739963769913
-0.3330797255039215
0.0873003900051117
0.028345586732029915
-0.026682239025831223
-0.11208154261112213
-0.7267929315567017
0.022437352687120438
0.06594282388687134
-1.3328036069869995
0.027437549084424973
0.07782375067472458
-0.08261427283287048
-0.4214932322502136
0.013735112734138966
-0.46470746397972107
-0.05810000002384186
-0.10155731439590454
-0.10031148046255112
0.21607539057731628
-0.011014805175364017
-0.09697265923023224
-0.5629368424415588
-0.3671764135360718
0.2597116231918335
-0.28212302923202515
0.5405730605125427
0.1551789790391922
0.058170367032289505
0.3199315071105957
-0.0342509001493454
-0.26509156823158264
-0.33195918798446655
-0.05979403853416443
0.06219472736120224
-0.006684654392302036
0.08076877146959305
-0.031572580337524414
0.01817622035741806
0.08726684749126434
0.3404121398925781
-0.1310943216085434
0.3049650490283966
0.15915194153785706
-0.38797760009765625
-0.373986154794693
-0.09160882234573364
-0.11368142813444138
-0.3047202229499817
0.2982715964317322
-0.10829015076160431
0.19273431599140167
0.09242811799049377
-0.28233954310417175
0.08223448693752289
0.07490969449281693
0.02270413748919964
0.02509334124624729
0.17167212069034576
-0.06554380804300308
0.09727415442466736
0.45025259256362915
-0.24099157750606537
0.07082382589578629
0.3681069612503052
0.438014417886734
-0.03935707360506058
0.09874121099710464
-0.01555582508444786
-0.0871461033821106
0.266122430562973
-2.501613140106201
-0.09661583602428436
-0.6073049306869507
-0.052790988236665726
0.022631414234638214
-0.09585608541965485
-0.154783695936203
-0.07159635424613953
-0.018530314788222313
-0.061751075088977814
0.011251850053668022
-0.03106614202260971
0.05192321911454201
-0.14371316134929657
0.06794910877943039
0.1358083337545395
0.223115935921669
0.07364014536142349
0.005736140999943018
-0.004781863186508417
-0.02783961407840252
0.0011754640145227313
0.024153709411621094
-0.07986252754926682
0.17453822493553162
-0.013430537655949593
0.1681581437587738
0.02156638912856579
-0.11090776324272156
0.1048247292637825
0.034768152981996536
-0.010752794332802296
0.4123910665512085
0.13163642585277557
-0.004992484115064144
-0.007926921360194683
0.020073477178812027
0.025805659592151642
-0.264382004737854
0.3496954143047333
-0.024760453030467033
-0.039366841316223145
-0.07224928587675095
-0.012942430563271046
0.0009180291672237217
-0.054266851395368576
-0.08825067430734634
0.008219251409173012
-0.03314811363816261
-0.08366244286298752
-0.028282806277275085
0.15299566090106964
-0.1380598247051239
-0.0258401557803154
-0.01588948629796505
-0.14415864646434784
0.05952015146613121
-0.16372057795524597
0.014004192315042019
-0.18232981860637665
0.004461593460291624
0.05956432968378067
-0.07943692058324814
0.5071049332618713
-0.002058745129033923
0.08736871182918549
-0.08427384495735168
-0.00536757567897439
0.48779603838920593
0.0043311771005392075
-0.07808740437030792
-0.04238368570804596
0.06117558106780052
-0.009955097921192646
-0.08855897933244705
0.44103652238845825
0.014035491272807121
-0.1293722689151764
-0.09460516273975372
0.16025735437870026
0.08117694407701492
-0.057228028774261475
0.03495204448699951
-0.007863262668251991
0.01715611107647419
0.14883849024772644
-0.02790130116045475
-0.037292368710041046
0.06974661350250244
0.03375130519270897
0.1171037033200264
0.023803625255823135
-0.07126856595277786
0.04334377869963646
0.007753503974527121
-0.026928354054689407
0.07510391622781754
0.8311430215835571
0.2986682057380676
-0.023233657702803612
0.1470557004213333
0.042975395917892456
-0.029532045125961304
0.09969498962163925
-0.027319369837641716
0.01996116153895855
0.0447511225938797
0.02690117619931698
-0.011630048044025898
0.7045590877532959
-0.029882539063692093
0.004285492934286594
0.11705496162176132
0.0779268741607666
-0.0805891677737236
-0.0020117410458624363
0.023831091821193695
0.6861936450004578
-0.07164070755243301
0.0031491280533373356
0.044934067875146866
0.09918607026338577
-0.10928644239902496
-0.06619717180728912
-0.30220749974250793
0.2492462396621704
0.10893464088439941
0.23061758279800415
-0.055744584649801254
0.03855627775192261
-0.5284727215766907
-4.173027992248535
-0.150625541806221
-0.5628546476364136
-0.37865686416625977
-0.009167269803583622
-2.3852922916412354
0.12354239821434021
0.0921245738863945
0.21718613803386688
-0.04327744245529175
-0.2793899178504944
-0.3375813663005829
0.1710117608308792
-0.2677786946296692
0.2572747766971588
-0.44736823439598083
0.6343730688095093
-0.10826768726110458
0.16017033159732819
0.27994269132614136
0.043572187423706055
0.12824265658855438
-0.029269566759467125
-0.40116026997566223
0.9234530925750732
0.05248602479696274
0.07036572694778442
-0.029469139873981476
0.18806859850883484
0.2749115228652954
0.513336181640625
0.021476365625858307
-0.4064997136592865
0.32426658272743225
-0.47998321056365967
0.20729121565818787
-0.008465442806482315
-0.1553862988948822
-0.8761364221572876
-0.04487849771976471
-0.06841292232275009
0.4907769560813904
-0.2042851597070694
-0.06276093423366547
0.04095180705189705
0.15677139163017273
0.4026983976364136
0.5732867121696472
-0.6811923980712891
-3.452580213546753
0.07784806191921234
0.09887345880270004
-3.1138997077941895
0.8782437443733215
-0.10571274161338806
0.20575538277626038
-0.9612528085708618
0.11134102940559387
0.11634830385446548
-0.0513557493686676
0.37603065371513367
-0.0179764311760664
0.1135026216506958
-0.1444016396999359
-0.0488949678838253
0.640934407711029
0.015755392611026764
0.050736505538225174
-0.0004568218137137592
0.12718236446380615
0.10407175123691559
-0.03496984764933586
1.3702611923217773
0.025446217507123947
0.027149925008416176
0.06098709627985954
0.06708335876464844
0.10107173025608063
-0.058107394725084305
0.05033184960484505
0.0016217989614233375
-0.007637445814907551
0.19359706342220306
0.0648680031299591
-0.013896419666707516
-0.03688906133174896
0.2098391205072403
0.027869751676917076
0.04024937376379967
-0.07913124561309814
-0.03233877569437027
-0.010451612062752247
-0.045061107724905014
0.0745261013507843
2.407496690750122
0.27212750911712646
0.01976403221487999
0.04934949055314064
0.048820361495018005
0.12369869649410248
0.011988870799541473
0.06697400659322739
0.06856638938188553
-0.04322217032313347
-0.2074081301689148
0.024259254336357117
1.415441870689392
0.07388884574174881
0.029205866158008575
0.027771996334195137
0.04106402397155762
-0.015895478427410126
-0.13637566566467285
-0.05028032138943672
-0.34657230973243713
-0.008719542995095253
-0.09770994633436203
-0.022820429876446724
-0.11745136976242065
0.40847963094711304
0.0018127639777958393
-0.26063716411590576
-0.07075797766447067
-0.06572873890399933
-0.09616336226463318
0.12431075423955917
0.1030324250459671
-0.2939159572124481
0.04449613392353058
0.5100525617599487
-0.0013176891952753067
0.6711471676826477
0.02771233581006527
-0.06883330643177032
0.06051667779684067
0.03463499993085861
-0.15222050249576569
-0.0634225383400917
0.006281845271587372
-0.13859039545059204
-0.022015277296304703
0.025004250928759575
0.08501031994819641
0.07372373342514038
0.04346912354230881
0.09900500625371933
0.12935616075992584
-0.003807114204391837
0.07472754269838333
0.03870602697134018
0.004703805316239595
-6.91160312271677e-05
0.02358328364789486
0.08439607918262482
0.056602537631988525
0.016640249639749527
-0.010437154211103916
-0.05407144874334335
1.5567315816879272
-0.0487636998295784
0.007053562439978123
0.17124931514263153
-0.052005939185619354
-0.10617882013320923
-0.032766565680503845
0.013151434250175953
-0.09208095818758011
0.07433505356311798
-0.059641532599925995
0.008352101780474186
-0.11847952008247375
-0.15073511004447937
0.018610885366797447
0.06897342205047607
-0.10469628125429153
-0.0677938461303711
0.03621560335159302
0.019782546907663345
0.13174903392791748
0.10203400999307632
-0.0845557451248169
-0.09007701277732849
-0.043204423040151596
-0.19756333529949188
0.0289901252835989
0.045977409929037094
0.6764262318611145
-0.09243422001600266
-0.1889515519142151
-0.005875642877072096
-0.07105431705713272
0.053847890347242355
-0.09809599071741104
-0.053416185081005096
-0.15761995315551758
-0.23710083961486816
-0.024269547313451767
-0.2742023468017578
-0.1546710878610611
0.053509511053562164
0.12821583449840546
0.32225868105888367
0.2775934636592865
-0.05241071432828903
0.2794506251811981
-0.02945362590253353
0.07615049928426743
-0.0012754284543916583
0.1377125382423401
0.04810778424143791
0.011794587597250938
0.07737380266189575
0.006347542628645897
-0.28705403208732605
-0.09769006073474884
-0.08470367640256882
0.017612246796488762
0.09247744828462601
-0.18938903510570526
-0.01716410554945469
0.015207427553832531
0.002585426438599825
-0.042325686663389206
0.07096116244792938
0.3613754212856293
-0.24221546947956085
-0.11982244998216629
0.28977200388908386
0.6044712066650391
0.00011114357766928151
-0.16509796679019928
-0.3446905016899109
0.033819589763879776
0.1992737501859665
-0.020556485280394554
-0.12630747258663177
0.012479142285883427
-0.13985379040241241
-0.026963334530591965
0.04063507169485092
0.10584533959627151
-0.1032756119966507
-0.06529830396175385
-0.03401877358555794
-0.08744809776544571
-0.19279493391513824
-0.06404118984937668
0.015180211514234543
0.013925354927778244
-0.13208076357841492
0.00802470650523901
0.03472321107983589
0.006683081854134798
0.00807463563978672
0.0618838369846344
-2.7094156742095947
0.0036677722819149494
0.16142931580543518
-0.0018784741405397654
-0.056939009577035904
0.07126699388027191
-0.011728635057806969
0.009405838325619698
0.007509162649512291
-0.028483089059591293
-0.01110520213842392
-0.029129723086953163
-0.014769933186471462
0.09517566114664078
-0.0033395609352737665
0.0073674144223332405
0.009962762705981731
0.005410364829003811
0.00030804830021224916
-0.22744682431221008
0.07967419922351837
-0.007359673734754324
-0.004344186279922724
-0.02654504030942917
0.0864344984292984
0.05386558547616005
-0.0943562462925911
0.08996351808309555
-0.013616465963423252
-0.13215188682079315
-0.005545371677726507
-0.36468440294265747
0.16124048829078674
0.0004455541493371129
0.05909854546189308
-0.018308715894818306
-0.12032255530357361
0.01644492708146572
-0.0053029474802315235
0.00410330668091774
0.012595863081514835
-0.04085005819797516
0.012768350541591644
0.01467661652714014
0.007758758496493101
0.009387742727994919
0.2726549804210663
-0.019301731139421463
0.3872428238391876
0.022624723613262177
-0.0015076454728841782
0.12077288329601288
-0.018514864146709442
-0.010505923070013523
0.02174568362534046
0.05242122709751129
-0.08304213732481003
0.03689602017402649
0.3331891596317291
-0.11635729670524597
-0.013942765071988106
-0.2821003794670105
-0.021133966743946075
0.026817800477147102
-0.05148718133568764
-0.030521219596266747
0.0007693905499763787
0.0022876623552292585
0.052560560405254364
0.10481667518615723
0.0642911046743393
0.07454968243837357
-0.028410671278834343
1.0956798791885376
0.08965801447629929
-0.08615873754024506
-0.09159796684980392
0.11903154850006104
-0.08502928912639618
-0.002746463054791093
0.046408310532569885
-0.0026592290960252285
-0.0022131677251309156
0.28053808212280273
0.1979372799396515
0.027393728494644165
0.04951640963554382
-0.024731459096074104
0.11876504123210907
0.01442753616720438
-0.10880843549966812
-0.004217946901917458
-0.02777934819459915
-0.022190209478139877
-0.08131260424852371
0.50704026222229
0.07134350389242172
0.01150535512715578
-0.02579808048903942
0.11531494557857513
0.143856942653656
0.04251161217689514
0.12367585301399231
0.05575324967503548
0.1323583424091339
0.028736507520079613
0.018504789099097252
0.9442097544670105
-0.11533844470977783
-0.14439770579338074
0.011774168349802494
-0.020918186753988266
-0.03218499571084976
-0.06811236590147018
0.006942057050764561
-0.19676758348941803
-0.0924065038561821
-0.05549995228648186
0.0918801799416542
0.0348263680934906
0.12155509740114212
0.1319584846496582
-0.04277569428086281
0.0009572190465405583
0.07028805464506149
-0.09324485063552856
0.03460076078772545
0.023424550890922546
-0.14020708203315735
0.0120393643155694
-0.02213195525109768
0.00019726985192392021
0.17297060787677765
0.013388366438448429
-0.003555340925231576
6.96621646056883e-05
0.04048442840576172
0.02985583245754242
-0.03448396921157837
-0.046427659690380096
-0.13321493566036224
0.5045092105865479
0.008710607886314392
0.03758542612195015
0.0215393528342247
-0.013379348441958427
0.00046064192429184914
0.03918835520744324
0.06724252551794052
-0.07119571417570114
-0.0012440013233572245
0.04371964931488037
-0.06697846204042435
0.0004556409257929772
-0.10758106410503387
0.055830780416727066
0.0014973850920796394
-0.0500529520213604
-0.00598698016256094
0.09508652240037918
0.3660885989665985
0.01389387808740139
-0.011103555560112
0.009709615260362625
-0.036104343831539154
0.08795246481895447
0.056145183742046356
0.001637556473724544
0.020641475915908813
0.06441722810268402
0.015213497914373875
0.38301223516464233
-0.002289606025442481
-0.03665398061275482
0.03424593433737755
0.027328215539455414
-0.02368880994617939
-0.005364986602216959
-0.021201180294156075
1.256056785583496
0.04661130905151367
-0.016195446252822876
0.17163720726966858
0.042016685009002686
0.6933451890945435
0.057421665638685226
-0.3098432123661041
0.008261062204837799
-0.0185491144657135
1.583843469619751
-0.25300490856170654
0.054486170411109924
-0.11080101132392883
-0.05525911599397659
-0.014892064966261387
-0.8499095439910889
0.21173401176929474
0.08889246731996536
-0.05976073816418648
-0.21484921872615814
-0.12138108164072037
0.11399688571691513
0.030397305265069008
0.28430771827697754
-0.17915396392345428
0.007924884557723999
-0.21386781334877014
-0.44850531220436096
0.18862272799015045
-0.020247668027877808
0.013514484278857708
-0.49747952818870544
-0.2624494731426239
-0.0036463302094489336
0.1641685515642166
0.03492249175906181
0.056350067257881165
0.2015838325023651
-0.10575497150421143
0.1056392639875412
-0.043455615639686584
0.24000701308250427
-0.3011290431022644
0.017304597422480583
-0.11965498328208923
-0.4689883589744568
-0.521171510219574
0.02794107049703598
-0.4190725088119507
0.006376167293637991
0.05412891507148743
0.2624456584453583
-0.179942786693573
0.05458300560712814
-0.09786208719015121
-0.20405907928943634
0.27458587288856506
-0.2806509733200073
-0.07656937092542648
-0.08634515851736069
0.07675328105688095
0.24809452891349792
0.280163437128067
-1.0270174741744995
-0.2874939739704132
-0.09988493472337723
0.15661200881004333
-0.4488319754600525
0.5963746309280396
-0.13895463943481445
-2.3646862506866455
0.014108534902334213
0.08518330752849579
1.368371844291687
-0.10677317529916763
-0.042932286858558655
-0.46745356917381287
0.18341407179832458
-0.6565600633621216
-0.2908813953399658
-1.7171263694763184
0.03355137258768082
0.5260714292526245
-0.11747957766056061
-0.6273059844970703
0.06236328184604645
-0.2722189128398895
0.25449898838996887
0.11876507848501205
-1.2935833930969238
0.2935924828052521
-0.35523316264152527
0.15053871273994446
0.01217578910291195
-0.08765491843223572
-0.3883248567581177
-0.17304538190364838
-0.4300481379032135
-0.2422267347574234
-0.1733764410018921
-0.4439557194709778
0.37814080715179443
-0.08689446747303009
0.03160332143306732
-0.17479431629180908
-0.07031869143247604
0.0724552571773529
-0.014798011630773544
-0.1591760665178299
-0.2742169201374054
0.021673263981938362
0.26012077927589417
-0.14327441155910492
-0.7138302326202393
0.29840949177742004
-0.1603250801563263
0.04662279039621353
-0.12509045004844666
0.05542683228850365
-1.6775606870651245
0.04643291234970093
-0.23046834766864777
0.22153298556804657
-1.9095864295959473
-0.4561752676963806
0.07112785428762436
-0.21227706968784332
1.4210079908370972
0.3436467945575714
0.20547153055667877
-1.326438069343567
0.06734554469585419
-0.572247326374054
0.1323612779378891
-0.7256256937980652
-0.12587355077266693
0.11941403895616531
0.5215985774993896
-0.06772667169570923
0.04287821799516678
-0.06245020404458046
0.11542534828186035
-0.06639367341995239
0.005981718190014362
0.30371278524398804
-0.08936202526092529
0.025130530819296837
-0.0379897803068161
-0.13969308137893677
-0.06706894189119339
0.0930638462305069
-0.09334325790405273
0.08804339915513992
-0.10360825806856155
-0.060875359922647476
-0.1266227513551712
-0.014806819148361683
0.034842606633901596
-0.060668978840112686
0.03919537365436554
0.06283457577228546
-0.031973566859960556
0.1344272643327713
-0.09763231873512268
0.041265133768320084
0.026163659989833832
-0.06260296702384949
-0.026609353721141815
-0.023627540096640587
0.03244077414274216
0.14174292981624603
1.9110556840896606
0.11336777359247208
-0.08304515480995178
0.07773131877183914
0.06767015159130096
0.12948919832706451
0.05262555554509163
0.009553290903568268
0.0445728562772274
-0.15433655679225922
-0.09376848489046097
-0.021288452669978142
0.8905339241027832
-0.04535716399550438
-0.006962965242564678
-0.03819514065980911
-0.009798510000109673
0.020369231700897217
-0.026977038010954857
0.08469508588314056
-0.1281883716583252
0.002794734900817275
-0.040418315678834915
0.15248516201972961
0.10795600712299347
-0.12871485948562622
0.01939035952091217
0.07323460280895233
-0.6339371800422668
0.04840462654829025
0.21433000266551971
0.00015769191668368876
-0.074331134557724
-0.9762095212936401
-0.012515192851424217
0.39822912216186523
-0.013491129502654076
-0.5604985952377319
-0.08179953694343567
-0.005705013405531645
0.010609867051243782
-0.04901013895869255
-0.03971758112311363
0.03513365983963013
-0.3108687102794647
-0.13464267551898956
-0.6082844138145447
0.025267545133829117
-0.01608550362288952
-0.2781231701374054
0.05379682779312134
-0.017612582072615623
-0.028569238260388374
0.0546991340816021
0.06880059838294983
0.006607995834201574
-0.2158447504043579
0.10943007469177246
0.17072319984436035
0.10489077866077423
-0.013186756521463394
-0.07240363955497742
-0.14258849620819092
-0.03875243291258812
-1.0308959484100342
0.07386592030525208
-0.03400186076760292
-0.01838664524257183
0.01947774551808834
-0.0953742042183876
-0.00532160559669137
0.02772011235356331
-0.14869877696037292
-0.061851199716329575
-0.022236399352550507
-0.008209267631173134
1.207919716835022
-0.0036561074666678905
-0.01018522959202528
0.05340731143951416
0.06206405907869339
0.30684635043144226
0.03529805317521095
-0.022248685359954834
-1.2001429796218872
0.058868687599897385
-0.0036090414505451918
0.29148492217063904
0.011863392777740955
-1.405007243156433
-0.048815395683050156
0.046539876610040665
0.11548908054828644
0.08365067839622498
-0.07775379717350006
-0.023801036179065704
0.08121424913406372
-0.05695664882659912
0.0011703136842697859
0.7938789129257202
0.0051778387278318405
0.3285215497016907
-0.024944070726633072
0.01734156161546707
-0.03733289986848831
0.01183228101581335
0.6123042106628418
0.03999503701925278
-0.021306809037923813
0.028402606025338173
-0.30481961369514465
-0.05537857115268707
-0.004329074174165726
-0.012274332344532013
-0.03879902884364128
-0.004045822657644749
0.013001221232116222
0.017439821735024452
0.004434962756931782
0.017848685383796692
-0.04337334632873535
-0.016080409288406372
0.01974145695567131
-0.009522798471152782
-0.006538606248795986
-0.026821522042155266
0.024514425545930862
0.017166122794151306
0.007171835750341415
-0.09204095602035522
-0.020280828699469566
-0.029459863901138306
-0.004231673199683428
-0.05063708871603012
-0.0728883147239685
-0.03525298461318016
0.0069108763709664345
0.039854589849710464
-0.031102878972887993
0.004996903240680695
0.545415997505188
-0.0022850134409964085
0.009402466006577015
0.06348249316215515
0.17150132358074188
0.25544410943984985
0.015944762155413628
0.01963818445801735
-0.07162690162658691
0.02071213908493519
0.014754478819668293
0.16477133333683014
0.10592044144868851
0.08824805915355682
-0.01688036508858204
0.195286363363266
0.04566638171672821
-0.02806803025305271
-0.18696865439414978
0.06539007276296616
0.013210995122790337
-2.9375054836273193
-0.005220499355345964
-0.04011981561779976
-0.0025829579681158066
0.06538747251033783
-0.06538263708353043
-0.0644800066947937
0.07394485175609589
-0.09987474977970123
0.04011018946766853
-0.06547967344522476
-0.0339791476726532
0.05051016807556152
-0.07212125509977341
-0.05802902206778526
0.03588230535387993
0.30139774084091187
-0.07033634930849075
0.05089662969112396
0.501416027545929
-0.23850612342357635
-0.03374609723687172
-0.061639390885829926
-0.1323750913143158
-0.1872173249721527
0.11985986679792404
0.05032874643802643
-0.13799315690994263
-0.04996513947844505
0.02035202644765377
-0.039889004081487656
-0.13528801500797272
0.35193759202957153
0.05038921535015106
0.0187892634421587
-0.08425585180521011
-0.02749318815767765
0.03616887331008911
0.022138012573122978
-0.038197342306375504
0.08703794330358505
0.002970583736896515
0.048487305641174316
0.2833644449710846
0.0315471887588501
0.05119059234857559
-0.1656903177499771
-0.002370822709053755
0.41799625754356384
0.06273826211690903
-0.03754676133394241
0.4377198815345764
-0.013858760707080364
-0.01971529796719551
-0.06001398712396622
0.011349441483616829
-0.2513127326965332
0.13798867166042328
0.261471152305603
0.040320876985788345
-0.03452293947339058
0.11440780013799667
-0.0006101702456362545
0.05906340107321739
-1.383542537689209
0.0003084959462285042
0.06069915369153023
0.0027775345370173454
0.06610480695962906
-0.042348165065050125
0.005645351950079203
-0.006578588858246803
-0.12762592732906342
-0.11312060058116913
-0.00255413306877017
-0.051097095012664795
0.04168601706624031
-0.03710056096315384
-0.10154245793819427
-0.0019277713727205992
-0.09672859311103821
-0.005948920734226704
-0.001632013008929789
0.3593495488166809
-0.06418798118829727
-0.06361192464828491
0.0015558829763904214
-0.12031532824039459
-0.012316965498030186
0.022279368713498116
-0.01078298781067133
0.04090221971273422
-0.09329350292682648
-0.034514911472797394
0.008817225694656372
-0.2551254332065582
0.03100842796266079
-0.005479975137859583
0.03151615709066391
-0.016681119799613953
-0.08939646929502487
0.0630636215209961
-0.01455648336559534
0.005859955679625273
0.03992220014333725
0.033234722912311554
0.014355910010635853
0.1968250870704651
0.018488388508558273
0.01121787540614605
0.49310141801834106
0.008373938500881195
0.23992806673049927
0.03276212513446808
0.007930183783173561
0.12778504192829132
-0.04546487331390381
0.005979220848530531
0.08781608939170837
-0.14588429033756256
-0.06103919818997383
0.18132247030735016
0.22329670190811157
-0.08810006827116013
0.06490668654441833
-0.021373597905039787
0.007780049461871386
0.0658465251326561
-0.18990278244018555
-0.01204955019056797
0.08051130920648575
0.002410025103017688
0.27893251180648804
-0.03488330915570259
0.004342302214354277
0.015878111124038696
-0.013367285951972008
0.2329215109348297
-0.0019911210983991623
0.005944174248725176
0.004525588825345039
0.24272556602954865
-0.0016143183456733823
-0.005465920083224773
-0.010237114503979683
-0.0008854678017087281
0.004660443402826786
0.0783459022641182
0.018350547179579735
0.30064961314201355
-0.009754430502653122
0.002066276967525482
0.003454464953392744
0.0014690259704366326
-0.020105399191379547
0.00040628050919622183
0.16593141853809357
0.017593413591384888
0.004668040666729212
0.6745235919952393
0.04847950488328934
0.0065018776804208755
-0.08882975578308105
-0.011555138975381851
0.0037098273169249296
-0.003854616079479456
-0.009826247580349445
0.0015004605520516634
-0.0006190605345182121
-0.03300057351589203
0.0032459318172186613
0.09865587949752808
0.0017967497697100043
0.009100697934627533
0.12805524468421936
-0.28019997477531433
-0.00015036271361168474
-0.007579349912703037
-0.02182307280600071
0.1240188404917717
-0.011913853697478771
0.0013260083505883813
0.046890657395124435
0.0037729223258793354
0.5090014934539795
-0.0025579228531569242
-0.007915002293884754
-0.10764180123806
0.014754430390894413
0.16497695446014404
-0.06132984161376953
-0.04380892217159271
-0.08411982655525208
-0.06167779862880707
-0.077203668653965
-0.018900511786341667
-0.06071017310023308
-0.04042819142341614
0.045110978186130524
-0.07549427449703217
-0.08242058008909225
0.15013015270233154
0.04310894012451172
-0.08354660123586655
0.10694052278995514
0.04499930888414383
0.17239226400852203
0.0357590988278389
0.14654026925563812
-0.015073414891958237
-7.05907768860925e-06
0.8088772296905518
-0.04253353923559189
0.3424336910247803
0.04395906999707222
-0.06566010415554047
0.03842787444591522
-0.019651168957352638
-0.016125967726111412
0.00566667877137661
0.05506300553679466
-0.08412737399339676
-0.0008613506215624511
0.7688812017440796
-3.24471116065979
-0.027103371918201447
-0.2994380593299866
0.02792183868587017
-0.1264657825231552
-0.08929487317800522
-0.010504253208637238
0.013918481767177582
0.042347121983766556
-0.14169098436832428
-0.02108442410826683
0.3231147229671478
0.02241605333983898
3.740033571375534e-05
0.049883320927619934
-0.19903068244457245
0.05597682297229767
0.06749974191188812
0.01048309076577425
0.3476899266242981
-0.0354449599981308
0.04293171316385269
0.24043908715248108
-0.06096169725060463
-1.4388575553894043
-0.09700348973274231
-0.36802375316619873
-0.016162419691681862
-0.050472818315029144
-0.39986833930015564
0.24959632754325867
-0.026957759633660316
-0.114073745906353
-0.1991381198167801
-0.05452823266386986
0.01793801411986351
-0.09420528262853622
0.03402884677052498
0.15250341594219208
0.04624910280108452
0.14662687480449677
0.144727885723114
-0.19841670989990234
0.25117406249046326
0.1340642124414444
0.18776799738407135
-0.3630184233188629
0.2321850210428238
0.3977057635784149
0.05758250132203102
-0.2672053575515747
-0.08388551324605942
-0.25803443789482117
-0.24930967390537262
-0.4006076753139496
0.40404513478279114
0.03242098167538643
0.1038508415222168
0.01735016331076622
-0.007236957550048828
-0.0677127093076706
0.12292609363794327
-0.13635320961475372
-0.06445006281137466
0.05144244059920311
-0.046880241483449936
-0.07422369718551636
-0.13676908612251282
-0.040338173508644104
-0.009351443499326706
0.24923790991306305
-0.14288471639156342
-0.25083011388778687
-0.0014727318193763494
0.00849386677145958
0.06675667315721512
0.16608984768390656
-0.24257858097553253
-0.05097712576389313
0.02440423145890236
-0.09950006008148193
-0.0476541630923748
0.026129448786377907
-0.0003176978789269924
-0.03130960091948509
0.13662545382976532
0.5063257217407227
-0.37566590309143066
-0.047521866858005524
0.027763111516833305
0.04220196604728699
-0.12548722326755524
0.11874742060899734
0.6616172194480896
-0.026188811287283897
-0.0719505324959755
-0.11299769580364227
-0.028537647798657417
0.4194924831390381
0.00957135483622551
-0.26195043325424194
-0.03394507244229317
0.08915243297815323
-0.003618440357968211
0.010084729641675949
0.2085278481245041
0.012796592898666859
-0.1303117275238037
-0.12134706974029541
0.5758489370346069
0.07048847526311874
-0.04632946848869324
0.08158835768699646
-0.011199085041880608
0.012121596373617649
0.166280135512352
0.1414310336112976
-0.023556876927614212
0.05343503877520561
-0.06737636029720306
0.11008533090353012
0.02523384988307953
-0.016725599765777588
0.07064466178417206
0.017712444067001343
-0.04398016631603241
0.07317674160003662
1.2050710916519165
0.04309304803609848
-0.022435780614614487
0.06355651468038559
0.046589381992816925
0.00668552378192544
0.0070730852894485
-0.03873099759221077
0.029301129281520844
0.002135921735316515
0.12412168830633163
-0.012710319831967354
-0.45870310068130493
0.007684823125600815
0.023135490715503693
0.06885360181331635
0.1695176362991333
-0.028587957844138145
-0.08416324108839035
0.014284965582191944
0.871557354927063
-0.08461321145296097
0.011235697194933891
-0.01566038653254509
-0.07993168383836746
0.2113787978887558
0.14595159888267517
0.06069013848900795
0.07455883175134659
0.011302721686661243
-0.04775483161211014
0.07659558206796646
-0.03763524070382118
-0.1960708647966385
-0.01905178464949131
0.6098357439041138
0.009846913628280163
-0.008579736575484276
-0.08622919023036957
0.00040391419315710664
0.024412203580141068
0.10569456219673157
1.6038178205490112
-0.03620048984885216
-0.16872099041938782
0.11803051084280014
0.049704410135746
0.0848156213760376
-0.0593685545027256
-0.05609802156686783
0.07102350890636444
0.04375780373811722
0.22757433354854584
0.13840340077877045
0.004613509401679039
-0.01738695800304413
0.035026468336582184
-0.17778286337852478
0.025850605219602585
-0.03286604955792427
-0.04097970947623253
-0.0073225717060267925
-0.08893947303295135
0.14163123071193695
0.5659701824188232
-0.06352318823337555
0.047278668731451035
-0.07459160685539246
-0.03717521205544472
0.12547264993190765
0.03986885026097298
0.044103432446718216
0.02725462056696415
0.027292167767882347
0.055636584758758545
0.017492512241005898
-0.34789565205574036
-0.037529926747083664
0.060148097574710846
0.09880656003952026
-0.005448217503726482
0.001662305905483663
-0.04577387124300003
-0.010518381372094154
0.31157633662223816
0.04706243798136711
-0.017016738653182983
0.0788402184844017
0.2677993178367615
0.050875842571258545
-0.03186709061264992
0.01569494977593422
-0.01446706335991621
-0.03515040501952171
0.01638263277709484
-0.005973773077130318
-0.0602458119392395
-0.20853720605373383
0.0035894305910915136
-0.07992655783891678
-0.004021455068141222
0.3072020411491394
0.059169650077819824
0.007986022159457207
-0.022967621684074402
0.01793670654296875
0.13226625323295593
0.022457551211118698
-0.05561070889234543
0.06505171209573746
0.04602063447237015
7.938823546282947e-05
0.002693314803764224
0.016457345336675644
0.005373446270823479
-0.006506737787276506
-2.2046749591827393
-0.10839631408452988
0.23792357742786407
0.017411470413208008
-0.017829841002821922
0.024198632687330246
0.002358123194426298
0.060954056680202484
-0.059619031846523285
-0.016438648104667664
0.015937739983201027
-0.006585258059203625
0.46718889474868774
0.028586074709892273
-0.017801979556679726
-0.19892549514770508
0.009996633976697922
-0.03656844049692154
0.0004117406206205487
0.01247333362698555
0.0011169100180268288
0.0199578944593668
-0.0610082671046257
-0.003374918829649687
0.10604047030210495
-0.004756588488817215
-0.0363866463303566
-0.04805658385157585
0.24435214698314667
0.057591017335653305
0.0015143929049372673
0.003985273651778698
0.14531603455543518
-0.010945369489490986
0.004113305360078812
0.024083564057946205
0.09893207252025604
0.2514130771160126
-0.028040681034326553
0.021971171721816063
-0.017249323427677155
-0.0376092791557312
0.3470570743083954
0.012995198369026184
-0.06107255071401596
-0.11532959342002869
-0.01405706163495779
0.6460415124893188
0.0029679276049137115
-0.15580181777477264
0.038662444800138474
0.03399066627025604
-0.0014443878317251801
-0.00915386900305748
1.111006259918213
-0.011600705794990063
-0.0645352303981781
0.1561412662267685
0.5353156328201294
-0.016297131776809692
-0.006334013305604458
0.024467628449201584
-0.02204599604010582
0.023958660662174225
0.13218994438648224
0.10131356120109558
-0.05011487379670143
0.03789035230875015
-0.0656181275844574
0.02180342748761177
0.01567898504436016
-0.05477992072701454
-0.010029491037130356
0.0016707382164895535
0.017803171649575233
0.024611910805106163
0.5775576829910278
0.14293216168880463
-0.007896031253039837
0.075074203312397
0.026110855862498283
0.006662053521722555
0.04699290171265602
0.015391713008284569
0.008828246034681797
0.02149905078113079
0.026196740567684174
0.004036485683172941
0.203251451253891
-0.026417717337608337
-0.006630206946283579
0.08022256940603256
0.06771841645240784
-0.04969141259789467
-0.002438718918710947
0.008533529005944729
-0.18032805621623993
-0.01913532055914402
0.004657490644603968
0.07190239429473877
-0.006468965206295252
1.3310199975967407
-0.09237245470285416
-0.1551823765039444